<?xml version="1.0"?>
<opencv_storage>
<cascade>
  <stageType>BOOST</stageType>
  <featureType>HAAR</featureType>
  <height>24</height>
  <width>24</width>
  <stageParams>
    <boostType>GAB</boostType>
    <minHitRate>9.9500000476837158e-01</minHitRate>
    <maxFalseAlarm>5.0000000000000000e-01</maxFalseAlarm>
    <weightTrimRate>9.4999998807907104e-01</weightTrimRate>
    <maxDepth>1</maxDepth>
    <maxWeakCount>100</maxWeakCount></stageParams>
  <featureParams>
    <maxCatCount>0</maxCatCount>
    <featSize>1</featSize>
    <mode>BASIC</mode></featureParams>
  <stageNum>11</stageNum>
  <stages>
    <!-- stage 0 -->
    <_>
      <maxWeakCount>4</maxWeakCount>
      <stageThreshold>-1.5293879508972168e+00</stageThreshold>
      <weakClassifiers>
        <_>
          <internalNodes>
            0 -1 9 2.4912154674530029e-01</internalNodes>
          <leafValues>
            -9.3398058414459229e-01 6.0000002384185791e-01</leafValues></_>
        <_>
          <internalNodes>
            0 -1 42 -3.9284327067434788e-03</internalNodes>
          <leafValues>
            5.6646847724914551e-01 -7.9968589544296265e-01</leafValues></_>
        <_>
          <internalNodes>
            0 -1 27 -1.9861947745084763e-02</internalNodes>
          <leafValues>
            7.5514745712280273e-01 -6.2924945354461670e-01</leafValues></_>
        <_>
          <internalNodes>
            0 -1 31 -1.8886290490627289e-02</internalNodes>
          <leafValues>
            8.3352792263031006e-01 -5.1674193143844604e-01</leafValues></_></weakClassifiers></_>
    <!-- stage 1 -->
    <_>
      <maxWeakCount>3</maxWeakCount>
      <stageThreshold>-1.6088335514068604e+00</stageThreshold>
      <weakClassifiers>
        <_>
          <internalNodes>
            0 -1 39 -1.0845582932233810e-02</internalNodes>
          <leafValues>
            1. -9.1938579082489014e-01</leafValues></_>
        <_>
          <internalNodes>
            0 -1 14 -7.1453722193837166e-03</internalNodes>
          <leafValues>
            2.5289937853813171e-01 -7.7873593568801880e-01</leafValues></_>
        <_>
          <internalNodes>
            0 -1 47 4.6015851694392040e-05</internalNodes>
          <leafValues>
            -9.4234710931777954e-01 2.8499770164489746e-01</leafValues></_></weakClassifiers></_>
    <!-- stage 2 -->
    <_>
      <maxWeakCount>5</maxWeakCount>
      <stageThreshold>-1.5057553052902222e+00</stageThreshold>
      <weakClassifiers>
        <_>
          <internalNodes>
            0 -1 19 -1.2669095396995544e-01</internalNodes>
          <leafValues>
            6.0000002384185791e-01 -9.1923075914382935e-01</leafValues></_>
        <_>
          <internalNodes>
            0 -1 21 -8.7891489267349243e-02</internalNodes>
          <leafValues>
            4.7060737013816833e-01 -7.2206801176071167e-01</leafValues></_>
        <_>
          <internalNodes>
            0 -1 40 3.2437983463751152e-05</internalNodes>
          <leafValues>
            -7.4021750688552856e-01 3.3842444419860840e-01</leafValues></_>
        <_>
          <internalNodes>
            0 -1 1 -5.2847998449578881e-04</internalNodes>
          <leafValues>
            4.3681713938713074e-01 -6.7833340167999268e-01</leafValues></_>
        <_>
          <internalNodes>
            0 -1 43 -3.6881593405269086e-04</internalNodes>
          <leafValues>
            4.7545245289802551e-01 -5.6970292329788208e-01</leafValues></_></weakClassifiers></_>
    <!-- stage 3 -->
    <_>
      <maxWeakCount>6</maxWeakCount>
      <stageThreshold>-2.2244729995727539e+00</stageThreshold>
      <weakClassifiers>
        <_>
          <internalNodes>
            0 -1 30 -9.5872163772583008e-02</internalNodes>
          <leafValues>
            3.3333334326744080e-01 -9.2270529270172119e-01</leafValues></_>
        <_>
          <internalNodes>
            0 -1 8 -4.9153205007314682e-02</internalNodes>
          <leafValues>
            5.1984822750091553e-01 -7.2253412008285522e-01</leafValues></_>
        <_>
          <internalNodes>
            0 -1 34 -2.5237072259187698e-02</internalNodes>
          <leafValues>
            6.3388144969940186e-01 -5.3845554590225220e-01</leafValues></_>
        <_>
          <internalNodes>
            0 -1 18 4.1743699694052339e-04</internalNodes>
          <leafValues>
            2.4984917044639587e-01 -9.1797620058059692e-01</leafValues></_>
        <_>
          <internalNodes>
            0 -1 17 3.7537009920924902e-03</internalNodes>
          <leafValues>
            -6.4737987518310547e-01 3.5198932886123657e-01</leafValues></_>
        <_>
          <internalNodes>
            0 -1 45 1.3054674491286278e-03</internalNodes>
          <leafValues>
            -6.9126754999160767e-01 3.5675263404846191e-01</leafValues></_></weakClassifiers></_>
    <!-- stage 4 -->
    <_>
      <maxWeakCount>6</maxWeakCount>
      <stageThreshold>-2.0073745250701904e+00</stageThreshold>
      <weakClassifiers>
        <_>
          <internalNodes>
            0 -1 37 4.2587570846080780e-02</internalNodes>
          <leafValues>
            -9.1387557983398438e-01 1.</leafValues></_>
        <_>
          <internalNodes>
            0 -1 36 -9.9603280425071716e-02</internalNodes>
          <leafValues>
            3.9369183778762817e-01 -6.9125437736511230e-01</leafValues></_>
        <_>
          <internalNodes>
            0 -1 44 5.4501541890203953e-03</internalNodes>
          <leafValues>
            -6.9616520404815674e-01 2.5634500384330750e-01</leafValues></_>
        <_>
          <internalNodes>
            0 -1 13 3.8987491279840469e-03</internalNodes>
          <leafValues>
            -5.5912005901336670e-01 4.4340685009956360e-01</leafValues></_>
        <_>
          <internalNodes>
            0 -1 10 6.0840421356260777e-03</internalNodes>
          <leafValues>
            -3.7126916646957397e-01 6.0768938064575195e-01</leafValues></_>
        <_>
          <internalNodes>
            0 -1 48 -1.3451479026116431e-04</internalNodes>
          <leafValues>
            -9.0865093469619751e-01 2.7179959416389465e-01</leafValues></_></weakClassifiers></_>
    <!-- stage 5 -->
    <_>
      <maxWeakCount>5</maxWeakCount>
      <stageThreshold>-1.7280796766281128e+00</stageThreshold>
      <weakClassifiers>
        <_>
          <internalNodes>
            0 -1 20 8.0727443099021912e-02</internalNodes>
          <leafValues>
            -9.2100191116333008e-01 5.0000000000000000e-01</leafValues></_>
        <_>
          <internalNodes>
            0 -1 35 4.3623754754662514e-03</internalNodes>
          <leafValues>
            -6.9422417879104614e-01 4.8900988698005676e-01</leafValues></_>
        <_>
          <internalNodes>
            0 -1 49 3.2024414394982159e-05</internalNodes>
          <leafValues>
            -8.2353383302688599e-01 2.3570542037487030e-01</leafValues></_>
        <_>
          <internalNodes>
            0 -1 23 -4.3294187635183334e-03</internalNodes>
          <leafValues>
            5.0954961776733398e-01 -5.0547391176223755e-01</leafValues></_>
        <_>
          <internalNodes>
            0 -1 5 -5.9283293783664703e-02</internalNodes>
          <leafValues>
            2.9504895210266113e-01 -8.5810863971710205e-01</leafValues></_></weakClassifiers></_>
    <!-- stage 6 -->
    <_>
      <maxWeakCount>5</maxWeakCount>
      <stageThreshold>-1.9629880189895630e+00</stageThreshold>
      <weakClassifiers>
        <_>
          <internalNodes>
            0 -1 28 -1.5677309036254883e-01</internalNodes>
          <leafValues>
            1. -9.1570883989334106e-01</leafValues></_>
        <_>
          <internalNodes>
            0 -1 11 -1.0086520016193390e-01</internalNodes>
          <leafValues>
            6.0456919670104980e-01 -6.7018222808837891e-01</leafValues></_>
        <_>
          <internalNodes>
            0 -1 2 -5.4010376334190369e-03</internalNodes>
          <leafValues>
            2.6592680811882019e-01 -7.4256849288940430e-01</leafValues></_>
        <_>
          <internalNodes>
            0 -1 50 -1.1116715148091316e-02</internalNodes>
          <leafValues>
            -9.3728679418563843e-01 1.6326561570167542e-01</leafValues></_>
        <_>
          <internalNodes>
            0 -1 51 -2.0535913063213229e-04</internalNodes>
          <leafValues>
            -8.6681932210922241e-01 2.0220588147640228e-01</leafValues></_></weakClassifiers></_>
    <!-- stage 7 -->
    <_>
      <maxWeakCount>5</maxWeakCount>
      <stageThreshold>-1.7869205474853516e+00</stageThreshold>
      <weakClassifiers>
        <_>
          <internalNodes>
            0 -1 15 3.1776386499404907e-01</internalNodes>
          <leafValues>
            -9.2107796669006348e-01 6.3636362552642822e-01</leafValues></_>
        <_>
          <internalNodes>
            0 -1 12 9.0556062757968903e-02</internalNodes>
          <leafValues>
            -6.9675469398498535e-01 5.2373886108398438e-01</leafValues></_>
        <_>
          <internalNodes>
            0 -1 29 -4.9335164949297905e-03</internalNodes>
          <leafValues>
            6.3684839010238647e-01 -4.0343368053436279e-01</leafValues></_>
        <_>
          <internalNodes>
            0 -1 22 7.9116672277450562e-03</internalNodes>
          <leafValues>
            -3.6821246147155762e-01 6.9624906778335571e-01</leafValues></_>
        <_>
          <internalNodes>
            0 -1 38 5.6315242545679212e-04</internalNodes>
          <leafValues>
            -3.3447891473770142e-01 6.0255825519561768e-01</leafValues></_></weakClassifiers></_>
    <!-- stage 8 -->
    <_>
      <maxWeakCount>4</maxWeakCount>
      <stageThreshold>-1.6227748394012451e+00</stageThreshold>
      <weakClassifiers>
        <_>
          <internalNodes>
            0 -1 16 2.9403629899024963e-01</internalNodes>
          <leafValues>
            -9.2843323945999146e-01 6.2500000000000000e-01</leafValues></_>
        <_>
          <internalNodes>
            0 -1 25 -3.1071230769157410e-01</internalNodes>
          <leafValues>
            4.8858854174613953e-01 -7.2113567590713501e-01</leafValues></_>
        <_>
          <internalNodes>
            0 -1 0 -4.9594277516007423e-03</internalNodes>
          <leafValues>
            5.0105792284011841e-01 -5.6835073232650757e-01</leafValues></_>
        <_>
          <internalNodes>
            0 -1 33 -4.0854308754205704e-03</internalNodes>
          <leafValues>
            6.5596729516983032e-01 -4.7426375746726990e-01</leafValues></_></weakClassifiers></_>
    <!-- stage 9 -->
    <_>
      <maxWeakCount>6</maxWeakCount>
      <stageThreshold>-1.5148411989212036e+00</stageThreshold>
      <weakClassifiers>
        <_>
          <internalNodes>
            0 -1 46 2.7677719481289387e-03</internalNodes>
          <leafValues>
            -9.2864030599594116e-01 1.</leafValues></_>
        <_>
          <internalNodes>
            0 -1 4 6.1891131103038788e-02</internalNodes>
          <leafValues>
            -7.3929244279861450e-01 6.8131399154663086e-01</leafValues></_>
        <_>
          <internalNodes>
            0 -1 6 2.0329726394265890e-03</internalNodes>
          <leafValues>
            -4.1900256276130676e-01 8.2411801815032959e-01</leafValues></_>
        <_>
          <internalNodes>
            0 -1 7 5.5841392168076709e-05</internalNodes>
          <leafValues>
            -5.2421158552169800e-01 6.2956392765045166e-01</leafValues></_>
        <_>
          <internalNodes>
            0 -1 41 -6.4252251759171486e-03</internalNodes>
          <leafValues>
            -7.2733271121978760e-01 4.5427510142326355e-01</leafValues></_>
        <_>
          <internalNodes>
            0 -1 26 3.2914252951741219e-03</internalNodes>
          <leafValues>
            -5.1174491643905640e-01 6.6907262802124023e-01</leafValues></_></weakClassifiers></_>
    <!-- stage 10 -->
    <_>
      <maxWeakCount>3</maxWeakCount>
      <stageThreshold>-9.4296640157699585e-01</stageThreshold>
      <weakClassifiers>
        <_>
          <internalNodes>
            0 -1 3 -4.7595598734915257e-03</internalNodes>
          <leafValues>
            1. -9.7044336795806885e-01</leafValues></_>
        <_>
          <internalNodes>
            0 -1 32 2.5152619928121567e-03</internalNodes>
          <leafValues>
            -9.7252303361892700e-01 1.</leafValues></_>
        <_>
          <internalNodes>
            0 -1 24 -1.8222726066596806e-04</internalNodes>
          <leafValues>
            1. -8.6109453439712524e-01</leafValues></_></weakClassifiers></_></stages>
  <features>
    <_>
      <rects>
        <_>
          0 10 10 1 -1.</_>
        <_>
          5 10 5 1 2.</_></rects>
      <tilted>0</tilted></_>
    <_>
      <rects>
        <_>
          0 13 2 8 -1.</_>
        <_>
          1 13 1 8 2.</_></rects>
      <tilted>0</tilted></_>
    <_>
      <rects>
        <_>
          0 14 9 6 -1.</_>
        <_>
          3 14 3 6 3.</_></rects>
      <tilted>0</tilted></_>
    <_>
      <rects>
        <_>
          0 14 9 8 -1.</_>
        <_>
          3 14 3 8 3.</_></rects>
      <tilted>0</tilted></_>
    <_>
      <rects>
        <_>
          1 0 13 9 -1.</_>
        <_>
          1 3 13 3 3.</_></rects>
      <tilted>0</tilted></_>
    <_>
      <rects>
        <_>
          1 6 12 18 -1.</_>
        <_>
          1 15 12 9 2.</_></rects>
      <tilted>0</tilted></_>
    <_>
      <rects>
        <_>
          1 15 3 7 -1.</_>
        <_>
          2 15 1 7 3.</_></rects>
      <tilted>0</tilted></_>
    <_>
      <rects>
        <_>
          2 3 2 2 -1.</_>
        <_>
          2 3 1 1 2.</_>
        <_>
          3 4 1 1 2.</_></rects>
      <tilted>0</tilted></_>
    <_>
      <rects>
        <_>
          2 5 8 8 -1.</_>
        <_>
          6 5 4 8 2.</_></rects>
      <tilted>0</tilted></_>
    <_>
      <rects>
        <_>
          2 8 14 12 -1.</_>
        <_>
          2 12 14 4 3.</_></rects>
      <tilted>0</tilted></_>
    <_>
      <rects>
        <_>
          2 16 11 3 -1.</_>
        <_>
          2 17 11 1 3.</_></rects>
      <tilted>0</tilted></_>
    <_>
      <rects>
        <_>
          2 16 15 8 -1.</_>
        <_>
          2 20 15 4 2.</_></rects>
      <tilted>0</tilted></_>
    <_>
      <rects>
        <_>
          3 2 12 9 -1.</_>
        <_>
          9 2 6 9 2.</_></rects>
      <tilted>0</tilted></_>
    <_>
      <rects>
        <_>
          3 3 4 6 -1.</_>
        <_>
          3 5 4 2 3.</_></rects>
      <tilted>0</tilted></_>
    <_>
      <rects>
        <_>
          3 7 12 3 -1.</_>
        <_>
          3 8 12 1 3.</_></rects>
      <tilted>0</tilted></_>
    <_>
      <rects>
        <_>
          3 7 15 12 -1.</_>
        <_>
          3 11 15 4 3.</_></rects>
      <tilted>0</tilted></_>
    <_>
      <rects>
        <_>
          3 8 15 12 -1.</_>
        <_>
          3 12 15 4 3.</_></rects>
      <tilted>0</tilted></_>
    <_>
      <rects>
        <_>
          3 12 14 9 -1.</_>
        <_>
          10 12 7 9 2.</_></rects>
      <tilted>0</tilted></_>
    <_>
      <rects>
        <_>
          3 20 4 4 -1.</_>
        <_>
          5 20 2 4 2.</_></rects>
      <tilted>0</tilted></_>
    <_>
      <rects>
        <_>
          4 7 9 8 -1.</_>
        <_>
          4 11 9 4 2.</_></rects>
      <tilted>0</tilted></_>
    <_>
      <rects>
        <_>
          4 10 13 4 -1.</_>
        <_>
          4 12 13 2 2.</_></rects>
      <tilted>0</tilted></_>
    <_>
      <rects>
        <_>
          5 5 10 9 -1.</_>
        <_>
          5 8 10 3 3.</_></rects>
      <tilted>0</tilted></_>
    <_>
      <rects>
        <_>
          5 15 4 6 -1.</_>
        <_>
          5 17 4 2 3.</_></rects>
      <tilted>0</tilted></_>
    <_>
      <rects>
        <_>
          5 18 18 6 -1.</_>
        <_>
          5 18 9 3 2.</_>
        <_>
          14 21 9 3 2.</_></rects>
      <tilted>0</tilted></_>
    <_>
      <rects>
        <_>
          6 0 3 14 -1.</_>
        <_>
          7 0 1 14 3.</_></rects>
      <tilted>0</tilted></_>
    <_>
      <rects>
        <_>
          6 2 11 22 -1.</_>
        <_>
          6 13 11 11 2.</_></rects>
      <tilted>0</tilted></_>
    <_>
      <rects>
        <_>
          6 3 10 3 -1.</_>
        <_>
          6 4 10 1 3.</_></rects>
      <tilted>0</tilted></_>
    <_>
      <rects>
        <_>
          6 14 10 4 -1.</_>
        <_>
          6 16 10 2 2.</_></rects>
      <tilted>0</tilted></_>
    <_>
      <rects>
        <_>
          7 5 8 9 -1.</_>
        <_>
          7 8 8 3 3.</_></rects>
      <tilted>0</tilted></_>
    <_>
      <rects>
        <_>
          7 16 4 3 -1.</_>
        <_>
          7 17 4 1 3.</_></rects>
      <tilted>0</tilted></_>
    <_>
      <rects>
        <_>
          8 6 5 10 -1.</_>
        <_>
          8 11 5 5 2.</_></rects>
      <tilted>0</tilted></_>
    <_>
      <rects>
        <_>
          9 12 8 6 -1.</_>
        <_>
          9 14 8 2 3.</_></rects>
      <tilted>0</tilted></_>
    <_>
      <rects>
        <_>
          9 14 6 6 -1.</_>
        <_>
          11 14 2 6 3.</_></rects>
      <tilted>0</tilted></_>
    <_>
      <rects>
        <_>
          11 16 6 2 -1.</_>
        <_>
          14 16 3 2 2.</_></rects>
      <tilted>0</tilted></_>
    <_>
      <rects>
        <_>
          12 13 10 3 -1.</_>
        <_>
          17 13 5 3 2.</_></rects>
      <tilted>0</tilted></_>
    <_>
      <rects>
        <_>
          12 14 3 3 -1.</_>
        <_>
          13 14 1 3 3.</_></rects>
      <tilted>0</tilted></_>
    <_>
      <rects>
        <_>
          14 2 10 13 -1.</_>
        <_>
          19 2 5 13 2.</_></rects>
      <tilted>0</tilted></_>
    <_>
      <rects>
        <_>
          14 6 8 4 -1.</_>
        <_>
          14 6 4 2 2.</_>
        <_>
          18 8 4 2 2.</_></rects>
      <tilted>0</tilted></_>
    <_>
      <rects>
        <_>
          14 11 2 3 -1.</_>
        <_>
          15 11 1 3 2.</_></rects>
      <tilted>0</tilted></_>
    <_>
      <rects>
        <_>
          14 15 3 3 -1.</_>
        <_>
          15 15 1 3 3.</_></rects>
      <tilted>0</tilted></_>
    <_>
      <rects>
        <_>
          14 20 1 2 -1.</_>
        <_>
          14 21 1 1 2.</_></rects>
      <tilted>0</tilted></_>
    <_>
      <rects>
        <_>
          15 1 6 12 -1.</_>
        <_>
          15 1 3 6 2.</_>
        <_>
          18 7 3 6 2.</_></rects>
      <tilted>0</tilted></_>
    <_>
      <rects>
        <_>
          15 4 4 2 -1.</_>
        <_>
          15 5 4 1 2.</_></rects>
      <tilted>0</tilted></_>
    <_>
      <rects>
        <_>
          15 8 2 4 -1.</_>
        <_>
          15 8 1 2 2.</_>
        <_>
          16 10 1 2 2.</_></rects>
      <tilted>0</tilted></_>
    <_>
      <rects>
        <_>
          15 15 8 7 -1.</_>
        <_>
          19 15 4 7 2.</_></rects>
      <tilted>0</tilted></_>
    <_>
      <rects>
        <_>
          17 0 2 6 -1.</_>
        <_>
          17 2 2 2 3.</_></rects>
      <tilted>0</tilted></_>
    <_>
      <rects>
        <_>
          17 15 2 6 -1.</_>
        <_>
          17 15 1 3 2.</_>
        <_>
          18 18 1 3 2.</_></rects>
      <tilted>0</tilted></_>
    <_>
      <rects>
        <_>
          18 18 4 5 -1.</_>
        <_>
          20 18 2 5 2.</_></rects>
      <tilted>0</tilted></_>
    <_>
      <rects>
        <_>
          19 18 1 6 -1.</_>
        <_>
          19 21 1 3 2.</_></rects>
      <tilted>0</tilted></_>
    <_>
      <rects>
        <_>
          19 23 4 1 -1.</_>
        <_>
          21 23 2 1 2.</_></rects>
      <tilted>0</tilted></_>
    <_>
      <rects>
        <_>
          21 11 3 12 -1.</_>
        <_>
          21 15 3 4 3.</_></rects>
      <tilted>0</tilted></_>
    <_>
      <rects>
        <_>
          21 18 3 2 -1.</_>
        <_>
          21 19 3 1 2.</_></rects>
      <tilted>0</tilted></_></features></cascade>
</opencv_storage>
