<?xml version="1.0"?>
<opencv_storage>
<cascade>
  <stageType>BOOST</stageType>
  <featureType>HAAR</featureType>
  <height>24</height>
  <width>24</width>
  <stageParams>
    <boostType>GAB</boostType>
    <minHitRate>9.9500000476837158e-01</minHitRate>
    <maxFalseAlarm>5.0000000000000000e-01</maxFalseAlarm>
    <weightTrimRate>9.4999998807907104e-01</weightTrimRate>
    <maxDepth>1</maxDepth>
    <maxWeakCount>100</maxWeakCount></stageParams>
  <featureParams>
    <maxCatCount>0</maxCatCount>
    <featSize>1</featSize>
    <mode>BASIC</mode></featureParams>
  <stageNum>20</stageNum>
  <stages>
    <!-- stage 0 -->
    <_>
      <maxWeakCount>7</maxWeakCount>
      <stageThreshold>-1.1774984598159790e+00</stageThreshold>
      <weakClassifiers>
        <_>
          <internalNodes>
            0 -1 54 -1.1170488782227039e-02</internalNodes>
          <leafValues>
            6.3353776931762695e-01 -5.0965565443038940e-01</leafValues></_>
        <_>
          <internalNodes>
            0 -1 520 1.1172627637279220e-05</internalNodes>
          <leafValues>
            -5.7460308074951172e-01 5.1479059457778931e-01</leafValues></_>
        <_>
          <internalNodes>
            0 -1 308 -1.5175307169556618e-02</internalNodes>
          <leafValues>
            7.5293433666229248e-01 -3.0725944042205811e-01</leafValues></_>
        <_>
          <internalNodes>
            0 -1 178 -1.9000498577952385e-03</internalNodes>
          <leafValues>
            7.6070463657379150e-01 -2.6487204432487488e-01</leafValues></_>
        <_>
          <internalNodes>
            0 -1 83 -2.2827412976766936e-05</internalNodes>
          <leafValues>
            4.4620105624198914e-01 -4.1953903436660767e-01</leafValues></_>
        <_>
          <internalNodes>
            0 -1 374 -2.6402154471725225e-03</internalNodes>
          <leafValues>
            7.7842360734939575e-01 -2.5828328728675842e-01</leafValues></_>
        <_>
          <internalNodes>
            0 -1 39 4.0088847279548645e-02</internalNodes>
          <leafValues>
            2.9097399115562439e-01 -7.9700404405593872e-01</leafValues></_></weakClassifiers></_>
    <!-- stage 1 -->
    <_>
      <maxWeakCount>8</maxWeakCount>
      <stageThreshold>-1.3402839899063110e+00</stageThreshold>
      <weakClassifiers>
        <_>
          <internalNodes>
            0 -1 478 -1.0165631771087646e-02</internalNodes>
          <leafValues>
            6.6976314783096313e-01 -4.6437442302703857e-01</leafValues></_>
        <_>
          <internalNodes>
            0 -1 227 1.0359067346144002e-05</internalNodes>
          <leafValues>
            -3.9857500791549683e-01 5.5062055587768555e-01</leafValues></_>
        <_>
          <internalNodes>
            0 -1 113 8.2566980272531509e-03</internalNodes>
          <leafValues>
            -3.2181173563003540e-01 7.2980880737304688e-01</leafValues></_>
        <_>
          <internalNodes>
            0 -1 404 1.9774418324232101e-02</internalNodes>
          <leafValues>
            -4.0248969197273254e-01 5.2973747253417969e-01</leafValues></_>
        <_>
          <internalNodes>
            0 -1 439 -8.5523352026939392e-03</internalNodes>
          <leafValues>
            6.5227514505386353e-01 -2.5088536739349365e-01</leafValues></_>
        <_>
          <internalNodes>
            0 -1 40 -8.3990152925252914e-03</internalNodes>
          <leafValues>
            5.8958321809768677e-01 -2.9930675029754639e-01</leafValues></_>
        <_>
          <internalNodes>
            0 -1 536 -1.1147403711220250e-05</internalNodes>
          <leafValues>
            5.4186648130416870e-01 -2.7180662751197815e-01</leafValues></_>
        <_>
          <internalNodes>
            0 -1 76 -1.2104979157447815e-01</internalNodes>
          <leafValues>
            -8.5407900810241699e-01 1.8007570505142212e-01</leafValues></_></weakClassifiers></_>
    <!-- stage 2 -->
    <_>
      <maxWeakCount>8</maxWeakCount>
      <stageThreshold>-1.5615584850311279e+00</stageThreshold>
      <weakClassifiers>
        <_>
          <internalNodes>
            0 -1 452 2.3165268357843161e-03</internalNodes>
          <leafValues>
            -3.6706507205963135e-01 7.6069617271423340e-01</leafValues></_>
        <_>
          <internalNodes>
            0 -1 335 1.1299682781100273e-02</internalNodes>
          <leafValues>
            -3.7802758812904358e-01 5.2608424425125122e-01</leafValues></_>
        <_>
          <internalNodes>
            0 -1 53 -9.6834618598222733e-03</internalNodes>
          <leafValues>
            6.9612157344818115e-01 -2.4246057868003845e-01</leafValues></_>
        <_>
          <internalNodes>
            0 -1 470 2.1344301057979465e-04</internalNodes>
          <leafValues>
            -2.4875500798225403e-01 7.0471823215484619e-01</leafValues></_>
        <_>
          <internalNodes>
            0 -1 229 -2.1592759367194958e-05</internalNodes>
          <leafValues>
            4.0796029567718506e-01 -4.0995293855667114e-01</leafValues></_>
        <_>
          <internalNodes>
            0 -1 238 -4.5285094529390335e-03</internalNodes>
          <leafValues>
            3.9242115616798401e-01 -4.1365960240364075e-01</leafValues></_>
        <_>
          <internalNodes>
            0 -1 500 3.5497285425662994e-03</internalNodes>
          <leafValues>
            -1.9958421587944031e-01 6.5568238496780396e-01</leafValues></_>
        <_>
          <internalNodes>
            0 -1 207 -3.1372108496725559e-03</internalNodes>
          <leafValues>
            6.9794648885726929e-01 -1.8701694905757904e-01</leafValues></_></weakClassifiers></_>
    <!-- stage 3 -->
    <_>
      <maxWeakCount>9</maxWeakCount>
      <stageThreshold>-1.0892740488052368e+00</stageThreshold>
      <weakClassifiers>
        <_>
          <internalNodes>
            0 -1 538 1.0359067346144002e-05</internalNodes>
          <leafValues>
            -5.8212983608245850e-01 3.0491408705711365e-01</leafValues></_>
        <_>
          <internalNodes>
            0 -1 291 -2.3952502757310867e-02</internalNodes>
          <leafValues>
            6.8479692935943604e-01 -2.9206573963165283e-01</leafValues></_>
        <_>
          <internalNodes>
            0 -1 536 -1.1147403711220250e-05</internalNodes>
          <leafValues>
            5.1687121391296387e-01 -3.2544729113578796e-01</leafValues></_>
        <_>
          <internalNodes>
            0 -1 65 -4.4293156825006008e-03</internalNodes>
          <leafValues>
            7.1352046728134155e-01 -2.2672027349472046e-01</leafValues></_>
        <_>
          <internalNodes>
            0 -1 160 1.7728547099977732e-03</internalNodes>
          <leafValues>
            -1.7220522463321686e-01 6.8200951814651489e-01</leafValues></_>
        <_>
          <internalNodes>
            0 -1 392 -3.9507895708084106e-02</internalNodes>
          <leafValues>
            3.7145987153053284e-01 -3.8557273149490356e-01</leafValues></_>
        <_>
          <internalNodes>
            0 -1 196 1.0630264114297461e-05</internalNodes>
          <leafValues>
            -3.3421343564987183e-01 4.2266464233398438e-01</leafValues></_>
        <_>
          <internalNodes>
            0 -1 495 -3.9078709669411182e-03</internalNodes>
          <leafValues>
            6.2387436628341675e-01 -2.1493440866470337e-01</leafValues></_>
        <_>
          <internalNodes>
            0 -1 499 1.8363069975748658e-03</internalNodes>
          <leafValues>
            -1.5167197585105896e-01 6.6273158788681030e-01</leafValues></_></weakClassifiers></_>
    <!-- stage 4 -->
    <_>
      <maxWeakCount>13</maxWeakCount>
      <stageThreshold>-1.4532743692398071e+00</stageThreshold>
      <weakClassifiers>
        <_>
          <internalNodes>
            0 -1 47 -3.8408106192946434e-03</internalNodes>
          <leafValues>
            5.3249853849411011e-01 -3.5495603084564209e-01</leafValues></_>
        <_>
          <internalNodes>
            0 -1 228 -1.0923797162831761e-05</internalNodes>
          <leafValues>
            3.3425158262252808e-01 -4.5822462439537048e-01</leafValues></_>
        <_>
          <internalNodes>
            0 -1 217 4.4123500585556030e-02</internalNodes>
          <leafValues>
            -2.3625090718269348e-01 6.3658219575881958e-01</leafValues></_>
        <_>
          <internalNodes>
            0 -1 393 9.7937788814306259e-03</internalNodes>
          <leafValues>
            -2.2642634809017181e-01 6.1292219161987305e-01</leafValues></_>
        <_>
          <internalNodes>
            0 -1 57 1.5007074689492583e-03</internalNodes>
          <leafValues>
            -2.0998558402061462e-01 6.3731324672698975e-01</leafValues></_>
        <_>
          <internalNodes>
            0 -1 258 -1.1055399663746357e-03</internalNodes>
          <leafValues>
            4.0020039677619934e-01 -2.8440958261489868e-01</leafValues></_>
        <_>
          <internalNodes>
            0 -1 89 -1.0723862033046316e-05</internalNodes>
          <leafValues>
            3.3204504847526550e-01 -3.4368345141410828e-01</leafValues></_>
        <_>
          <internalNodes>
            0 -1 448 5.4199881851673126e-03</internalNodes>
          <leafValues>
            -2.1657864749431610e-01 5.6479310989379883e-01</leafValues></_>
        <_>
          <internalNodes>
            0 -1 453 -1.1188475582457613e-05</internalNodes>
          <leafValues>
            4.5684346556663513e-01 -2.2297608852386475e-01</leafValues></_>
        <_>
          <internalNodes>
            0 -1 453 1.0663508874131367e-05</internalNodes>
          <leafValues>
            -2.8107076883316040e-01 3.9634469151496887e-01</leafValues></_>
        <_>
          <internalNodes>
            0 -1 304 -2.9939766973257065e-02</internalNodes>
          <leafValues>
            2.4712683260440826e-01 -4.8081597685813904e-01</leafValues></_>
        <_>
          <internalNodes>
            0 -1 251 -7.0879235863685608e-03</internalNodes>
          <leafValues>
            5.6970542669296265e-01 -2.3252072930335999e-01</leafValues></_>
        <_>
          <internalNodes>
            0 -1 502 -3.1354725360870361e-03</internalNodes>
          <leafValues>
            6.1593592166900635e-01 -1.1536419391632080e-01</leafValues></_></weakClassifiers></_>
    <!-- stage 5 -->
    <_>
      <maxWeakCount>14</maxWeakCount>
      <stageThreshold>-1.4588497877120972e+00</stageThreshold>
      <weakClassifiers>
        <_>
          <internalNodes>
            0 -1 515 -3.3986256457865238e-03</internalNodes>
          <leafValues>
            6.5931671857833862e-01 -2.8772345185279846e-01</leafValues></_>
        <_>
          <internalNodes>
            0 -1 291 -2.0536364987492561e-02</internalNodes>
          <leafValues>
            5.4576212167739868e-01 -2.2273482382297516e-01</leafValues></_>
        <_>
          <internalNodes>
            0 -1 299 -5.8594318106770515e-03</internalNodes>
          <leafValues>
            6.4350169897079468e-01 -2.0374567806720734e-01</leafValues></_>
        <_>
          <internalNodes>
            0 -1 259 7.6467883773148060e-03</internalNodes>
          <leafValues>
            -1.9502468407154083e-01 5.4641366004943848e-01</leafValues></_>
        <_>
          <internalNodes>
            0 -1 254 9.4757098704576492e-03</internalNodes>
          <leafValues>
            -1.2764696776866913e-01 6.6064012050628662e-01</leafValues></_>
        <_>
          <internalNodes>
            0 -1 222 -6.1980839818716049e-03</internalNodes>
          <leafValues>
            6.1020880937576294e-01 -2.1921692788600922e-01</leafValues></_>
        <_>
          <internalNodes>
            0 -1 183 4.4220947893336415e-04</internalNodes>
          <leafValues>
            -1.2247948348522186e-01 6.5521150827407837e-01</leafValues></_>
        <_>
          <internalNodes>
            0 -1 382 1.1763673683162779e-05</internalNodes>
          <leafValues>
            -4.2738845944404602e-01 2.4454031884670258e-01</leafValues></_>
        <_>
          <internalNodes>
            0 -1 68 -7.3974556289613247e-04</internalNodes>
          <leafValues>
            5.2651536464691162e-01 -1.6107968986034393e-01</leafValues></_>
        <_>
          <internalNodes>
            0 -1 560 7.2245029732584953e-03</internalNodes>
          <leafValues>
            1.7481417953968048e-01 -5.8537852764129639e-01</leafValues></_>
        <_>
          <internalNodes>
            0 -1 542 5.0493171438574791e-03</internalNodes>
          <leafValues>
            1.1855634301900864e-01 -6.0399490594863892e-01</leafValues></_>
        <_>
          <internalNodes>
            0 -1 165 -1.2451530201360583e-03</internalNodes>
          <leafValues>
            5.0388783216476440e-01 -1.6745939850807190e-01</leafValues></_>
        <_>
          <internalNodes>
            0 -1 390 2.4796198122203350e-03</internalNodes>
          <leafValues>
            -1.6165277361869812e-01 4.7754776477813721e-01</leafValues></_>
        <_>
          <internalNodes>
            0 -1 72 -1.3867705129086971e-03</internalNodes>
          <leafValues>
            2.3203395307064056e-01 -3.5845512151718140e-01</leafValues></_></weakClassifiers></_>
    <!-- stage 6 -->
    <_>
      <maxWeakCount>16</maxWeakCount>
      <stageThreshold>-1.3176517486572266e+00</stageThreshold>
      <weakClassifiers>
        <_>
          <internalNodes>
            0 -1 192 -1.7726644873619080e-01</internalNodes>
          <leafValues>
            3.8293844461441040e-01 -4.6996000409126282e-01</leafValues></_>
        <_>
          <internalNodes>
            0 -1 521 1.1054587957914919e-05</internalNodes>
          <leafValues>
            -3.9427721500396729e-01 3.3054298162460327e-01</leafValues></_>
        <_>
          <internalNodes>
            0 -1 242 8.5563380271196365e-03</internalNodes>
          <leafValues>
            -1.5592612326145172e-01 6.6712689399719238e-01</leafValues></_>
        <_>
          <internalNodes>
            0 -1 343 -2.9224234167486429e-03</internalNodes>
          <leafValues>
            6.9122320413589478e-01 -1.8523918092250824e-01</leafValues></_>
        <_>
          <internalNodes>
            0 -1 193 -6.7648747935891151e-03</internalNodes>
          <leafValues>
            6.0040038824081421e-01 -1.3068509101867676e-01</leafValues></_>
        <_>
          <internalNodes>
            0 -1 277 -1.0032263584434986e-02</internalNodes>
          <leafValues>
            6.5475028753280640e-01 -1.4136034250259399e-01</leafValues></_>
        <_>
          <internalNodes>
            0 -1 6 6.3562644645571709e-03</internalNodes>
          <leafValues>
            1.7003546655178070e-01 -5.1438075304031372e-01</leafValues></_>
        <_>
          <internalNodes>
            0 -1 132 1.5969991218298674e-03</internalNodes>
          <leafValues>
            -1.8217410147190094e-01 4.4975316524505615e-01</leafValues></_>
        <_>
          <internalNodes>
            0 -1 180 2.7902219444513321e-02</internalNodes>
          <leafValues>
            -2.3543301224708557e-01 3.6853560805320740e-01</leafValues></_>
        <_>
          <internalNodes>
            0 -1 506 1.0843195923371240e-05</internalNodes>
          <leafValues>
            -4.2370465397834778e-01 2.2183986008167267e-01</leafValues></_>
        <_>
          <internalNodes>
            0 -1 345 -3.2302108593285084e-03</internalNodes>
          <leafValues>
            5.5370205640792847e-01 -1.7530065774917603e-01</leafValues></_>
        <_>
          <internalNodes>
            0 -1 402 9.8595917224884033e-03</internalNodes>
          <leafValues>
            -1.7023999989032745e-01 4.0742060542106628e-01</leafValues></_>
        <_>
          <internalNodes>
            0 -1 220 1.2816046364605427e-02</internalNodes>
          <leafValues>
            -1.3123247027397156e-01 5.6408298015594482e-01</leafValues></_>
        <_>
          <internalNodes>
            0 -1 115 7.9070841893553734e-03</internalNodes>
          <leafValues>
            -1.7596644163131714e-01 3.9646676182746887e-01</leafValues></_>
        <_>
          <internalNodes>
            0 -1 80 -4.5425975695252419e-03</internalNodes>
          <leafValues>
            1.7177224159240723e-01 -4.3112424015998840e-01</leafValues></_>
        <_>
          <internalNodes>
            0 -1 13 -3.3128233626484871e-03</internalNodes>
          <leafValues>
            -4.7491014003753662e-01 1.3563804328441620e-01</leafValues></_></weakClassifiers></_>
    <!-- stage 7 -->
    <_>
      <maxWeakCount>18</maxWeakCount>
      <stageThreshold>-1.2352879047393799e+00</stageThreshold>
      <weakClassifiers>
        <_>
          <internalNodes>
            0 -1 513 -2.6477067731320858e-03</internalNodes>
          <leafValues>
            4.1299578547477722e-01 -3.0585780739784241e-01</leafValues></_>
        <_>
          <internalNodes>
            0 -1 394 -3.1549438834190369e-02</internalNodes>
          <leafValues>
            2.8361958265304565e-01 -3.0393028259277344e-01</leafValues></_>
        <_>
          <internalNodes>
            0 -1 184 9.4347586855292320e-04</internalNodes>
          <leafValues>
            -1.7602945864200592e-01 4.9493253231048584e-01</leafValues></_>
        <_>
          <internalNodes>
            0 -1 186 -2.6235522818751633e-04</internalNodes>
          <leafValues>
            4.9462226033210754e-01 -1.7164020240306854e-01</leafValues></_>
        <_>
          <internalNodes>
            0 -1 516 9.9439837504178286e-04</internalNodes>
          <leafValues>
            -1.8280078470706940e-01 5.0515478849411011e-01</leafValues></_>
        <_>
          <internalNodes>
            0 -1 523 2.1039428247604519e-05</internalNodes>
          <leafValues>
            -2.7952304482460022e-01 3.1922701001167297e-01</leafValues></_>
        <_>
          <internalNodes>
            0 -1 356 9.4596128910779953e-03</internalNodes>
          <leafValues>
            1.3880977034568787e-01 -6.8896692991256714e-01</leafValues></_>
        <_>
          <internalNodes>
            0 -1 78 -2.2342763259075582e-05</internalNodes>
          <leafValues>
            1.5788155794143677e-01 -3.6623564362525940e-01</leafValues></_>
        <_>
          <internalNodes>
            0 -1 238 -5.6285911705344915e-04</internalNodes>
          <leafValues>
            1.6115739941596985e-01 -4.3072757124900818e-01</leafValues></_>
        <_>
          <internalNodes>
            0 -1 26 5.3589902818202972e-02</internalNodes>
          <leafValues>
            1.0429239273071289e-01 -7.8106105327606201e-01</leafValues></_>
        <_>
          <internalNodes>
            0 -1 549 -1.7402783036231995e-02</internalNodes>
          <leafValues>
            -6.2008166313171387e-01 9.4966530799865723e-02</leafValues></_>
        <_>
          <internalNodes>
            0 -1 557 2.8926460072398186e-03</internalNodes>
          <leafValues>
            1.2606315314769745e-01 -5.8323222398757935e-01</leafValues></_>
        <_>
          <internalNodes>
            0 -1 306 -2.5354303419589996e-02</internalNodes>
          <leafValues>
            4.2536219954490662e-01 -1.7436960339546204e-01</leafValues></_>
        <_>
          <internalNodes>
            0 -1 351 1.8152752891182899e-03</internalNodes>
          <leafValues>
            -1.9336362183094025e-01 3.8174316287040710e-01</leafValues></_>
        <_>
          <internalNodes>
            0 -1 332 -1.0119870305061340e-02</internalNodes>
          <leafValues>
            5.9065282344818115e-01 -7.6388351619243622e-02</leafValues></_>
        <_>
          <internalNodes>
            0 -1 99 -6.8254774669185281e-04</internalNodes>
          <leafValues>
            1.6106635332107544e-01 -3.6437001824378967e-01</leafValues></_>
        <_>
          <internalNodes>
            0 -1 375 9.3987502623349428e-04</internalNodes>
          <leafValues>
            -1.4952102303504944e-01 4.3277212977409363e-01</leafValues></_>
        <_>
          <internalNodes>
            0 -1 366 -1.8086178461089730e-03</internalNodes>
          <leafValues>
            5.8259874582290649e-01 -9.7267158329486847e-02</leafValues></_></weakClassifiers></_>
    <!-- stage 8 -->
    <_>
      <maxWeakCount>23</maxWeakCount>
      <stageThreshold>-1.3883737325668335e+00</stageThreshold>
      <weakClassifiers>
        <_>
          <internalNodes>
            0 -1 275 -1.1988160014152527e-01</internalNodes>
          <leafValues>
            1.7403219640254974e-01 -4.8115298151969910e-01</leafValues></_>
        <_>
          <internalNodes>
            0 -1 177 -1.5482567250728607e-03</internalNodes>
          <leafValues>
            5.8921295404434204e-01 -1.6228097677230835e-01</leafValues></_>
        <_>
          <internalNodes>
            0 -1 474 -1.3799776788800955e-03</internalNodes>
          <leafValues>
            5.0009554624557495e-01 -1.5429620444774628e-01</leafValues></_>
        <_>
          <internalNodes>
            0 -1 466 2.0531928166747093e-03</internalNodes>
          <leafValues>
            -1.8280708789825439e-01 4.3625634908676147e-01</leafValues></_>
        <_>
          <internalNodes>
            0 -1 175 -3.8219459354877472e-02</internalNodes>
          <leafValues>
            -6.0881793498992920e-01 1.1309851706027985e-01</leafValues></_>
        <_>
          <internalNodes>
            0 -1 151 3.6628154339268804e-04</internalNodes>
          <leafValues>
            -1.4315776526927948e-01 4.8160892724990845e-01</leafValues></_>
        <_>
          <internalNodes>
            0 -1 21 9.1098845005035400e-02</internalNodes>
          <leafValues>
            1.8161714076995850e-01 -4.9742028117179871e-01</leafValues></_>
        <_>
          <internalNodes>
            0 -1 255 2.2004071070114151e-05</internalNodes>
          <leafValues>
            -3.0291566252708435e-01 2.1825136244297028e-01</leafValues></_>
        <_>
          <internalNodes>
            0 -1 476 -1.0312872007489204e-02</internalNodes>
          <leafValues>
            2.6111638545989990e-01 -2.3994165658950806e-01</leafValues></_>
        <_>
          <internalNodes>
            0 -1 325 5.6609753519296646e-02</internalNodes>
          <leafValues>
            -1.3779513537883759e-01 3.8672921061515808e-01</leafValues></_>
        <_>
          <internalNodes>
            0 -1 287 -2.5986509397625923e-02</internalNodes>
          <leafValues>
            4.9400228261947632e-01 -1.2062430381774902e-01</leafValues></_>
        <_>
          <internalNodes>
            0 -1 264 -3.2881662249565125e-02</internalNodes>
          <leafValues>
            3.0375200510025024e-01 -2.2030285000801086e-01</leafValues></_>
        <_>
          <internalNodes>
            0 -1 64 -6.6252644173800945e-03</internalNodes>
          <leafValues>
            5.8801120519638062e-01 -1.1129073053598404e-01</leafValues></_>
        <_>
          <internalNodes>
            0 -1 106 -1.7140731215476990e-02</internalNodes>
          <leafValues>
            1.2173479795455933e-01 -5.3084331750869751e-01</leafValues></_>
        <_>
          <internalNodes>
            0 -1 253 -9.8301451653242111e-03</internalNodes>
          <leafValues>
            5.1079040765762329e-01 -1.3022366166114807e-01</leafValues></_>
        <_>
          <internalNodes>
            0 -1 540 2.1201001800363883e-05</internalNodes>
          <leafValues>
            -2.8123438358306885e-01 2.1527642011642456e-01</leafValues></_>
        <_>
          <internalNodes>
            0 -1 126 -2.5623575784265995e-03</internalNodes>
          <leafValues>
            4.8737606406211853e-01 -1.1119161546230316e-01</leafValues></_>
        <_>
          <internalNodes>
            0 -1 66 -1.1564869433641434e-02</internalNodes>
          <leafValues>
            4.8582822084426880e-01 -9.2918977141380310e-02</leafValues></_>
        <_>
          <internalNodes>
            0 -1 380 8.8238925673067570e-04</internalNodes>
          <leafValues>
            -1.1916891485452652e-01 4.0248763561248779e-01</leafValues></_>
        <_>
          <internalNodes>
            0 -1 381 1.1074528629251290e-05</internalNodes>
          <leafValues>
            -3.0007711052894592e-01 1.6502529382705688e-01</leafValues></_>
        <_>
          <internalNodes>
            0 -1 285 -2.0332787185907364e-02</internalNodes>
          <leafValues>
            -7.2262352705001831e-01 6.5459452569484711e-02</leafValues></_>
        <_>
          <internalNodes>
            0 -1 129 -3.5078683868050575e-04</internalNodes>
          <leafValues>
            3.5015636682510376e-01 -1.5331219136714935e-01</leafValues></_>
        <_>
          <internalNodes>
            0 -1 331 -5.3203948773443699e-03</internalNodes>
          <leafValues>
            4.5717579126358032e-01 -1.0635890066623688e-01</leafValues></_></weakClassifiers></_>
    <!-- stage 9 -->
    <_>
      <maxWeakCount>29</maxWeakCount>
      <stageThreshold>-1.2887623310089111e+00</stageThreshold>
      <weakClassifiers>
        <_>
          <internalNodes>
            0 -1 392 -4.8556417226791382e-02</internalNodes>
          <leafValues>
            1.4243490993976593e-01 -4.2037120461463928e-01</leafValues></_>
        <_>
          <internalNodes>
            0 -1 533 -1.0210047475993633e-03</internalNodes>
          <leafValues>
            3.9987257122993469e-01 -1.8485429883003235e-01</leafValues></_>
        <_>
          <internalNodes>
            0 -1 539 1.0980919796566013e-05</internalNodes>
          <leafValues>
            -3.7621882557868958e-01 1.5342149138450623e-01</leafValues></_>
        <_>
          <internalNodes>
            0 -1 244 -2.4516102857887745e-03</internalNodes>
          <leafValues>
            5.0827038288116455e-01 -9.1622769832611084e-02</leafValues></_>
        <_>
          <internalNodes>
            0 -1 204 -1.7594440141692758e-03</internalNodes>
          <leafValues>
            5.5538982152938843e-01 -1.3598774373531342e-01</leafValues></_>
        <_>
          <internalNodes>
            0 -1 541 3.7538493052124977e-03</internalNodes>
          <leafValues>
            9.1032966971397400e-02 -5.4147851467132568e-01</leafValues></_>
        <_>
          <internalNodes>
            0 -1 543 -5.0348751246929169e-03</internalNodes>
          <leafValues>
            -4.4602763652801514e-01 1.5970714390277863e-01</leafValues></_>
        <_>
          <internalNodes>
            0 -1 327 4.2267747223377228e-02</internalNodes>
          <leafValues>
            -1.1160006374120712e-01 5.0558543205261230e-01</leafValues></_>
        <_>
          <internalNodes>
            0 -1 470 2.8416205896064639e-04</internalNodes>
          <leafValues>
            -1.5484322607517242e-01 3.5828718543052673e-01</leafValues></_>
        <_>
          <internalNodes>
            0 -1 386 -2.1744743207818829e-05</internalNodes>
          <leafValues>
            3.0067777633666992e-01 -1.5739281475543976e-01</leafValues></_>
        <_>
          <internalNodes>
            0 -1 323 -6.7316994071006775e-02</internalNodes>
          <leafValues>
            -8.2541131973266602e-01 2.9931411147117615e-02</leafValues></_>
        <_>
          <internalNodes>
            0 -1 210 2.6745956391096115e-02</internalNodes>
          <leafValues>
            -1.6034176945686340e-01 2.9942968487739563e-01</leafValues></_>
        <_>
          <internalNodes>
            0 -1 537 -1.0388543159933761e-05</internalNodes>
          <leafValues>
            2.5818178057670593e-01 -2.0890687406063080e-01</leafValues></_>
        <_>
          <internalNodes>
            0 -1 554 -6.4757857471704483e-03</internalNodes>
          <leafValues>
            -6.0515797138214111e-01 7.5063146650791168e-02</leafValues></_>
        <_>
          <internalNodes>
            0 -1 470 -1.8286421254742891e-04</internalNodes>
          <leafValues>
            3.3341968059539795e-01 -1.4866057038307190e-01</leafValues></_>
        <_>
          <internalNodes>
            0 -1 190 1.6010243445634842e-02</internalNodes>
          <leafValues>
            -1.6530328989028931e-01 2.7986505627632141e-01</leafValues></_>
        <_>
          <internalNodes>
            0 -1 443 -9.0801238548010588e-04</internalNodes>
          <leafValues>
            -4.8433133959770203e-01 9.4956330955028534e-02</leafValues></_>
        <_>
          <internalNodes>
            0 -1 221 1.9521849229931831e-02</internalNodes>
          <leafValues>
            -9.2549175024032593e-02 5.2787357568740845e-01</leafValues></_>
        <_>
          <internalNodes>
            0 -1 161 -5.8682626113295555e-03</internalNodes>
          <leafValues>
            3.6949384212493896e-01 -1.6301034390926361e-01</leafValues></_>
        <_>
          <internalNodes>
            0 -1 73 -2.9113187920302153e-03</internalNodes>
          <leafValues>
            1.5086838603019714e-01 -3.2070800662040710e-01</leafValues></_>
        <_>
          <internalNodes>
            0 -1 148 -2.5394894182682037e-03</internalNodes>
          <leafValues>
            3.9586713910102844e-01 -1.2384466081857681e-01</leafValues></_>
        <_>
          <internalNodes>
            0 -1 353 -2.9370074626058340e-03</internalNodes>
          <leafValues>
            4.6727022528648376e-01 -8.1847764551639557e-02</leafValues></_>
        <_>
          <internalNodes>
            0 -1 457 -1.0663508874131367e-05</internalNodes>
          <leafValues>
            2.0549133419990540e-01 -2.1220555901527405e-01</leafValues></_>
        <_>
          <internalNodes>
            0 -1 257 2.2842539474368095e-03</internalNodes>
          <leafValues>
            1.0572093725204468e-01 -4.0111842751502991e-01</leafValues></_>
        <_>
          <internalNodes>
            0 -1 143 1.8683194648474455e-03</internalNodes>
          <leafValues>
            -1.9391116499900818e-01 2.2563287615776062e-01</leafValues></_>
        <_>
          <internalNodes>
            0 -1 11 -5.3153067827224731e-02</internalNodes>
          <leafValues>
            -8.6903029680252075e-01 5.5583838373422623e-02</leafValues></_>
        <_>
          <internalNodes>
            0 -1 120 1.9277196843177080e-03</internalNodes>
          <leafValues>
            -1.3845975697040558e-01 3.5136342048645020e-01</leafValues></_>
        <_>
          <internalNodes>
            0 -1 58 -1.2605358846485615e-02</internalNodes>
          <leafValues>
            4.1302686929702759e-01 -1.3143590092658997e-01</leafValues></_>
        <_>
          <internalNodes>
            0 -1 261 -1.3948415406048298e-02</internalNodes>
          <leafValues>
            -5.8508455753326416e-01 8.6789846420288086e-02</leafValues></_></weakClassifiers></_>
    <!-- stage 10 -->
    <_>
      <maxWeakCount>33</maxWeakCount>
      <stageThreshold>-1.2935773134231567e+00</stageThreshold>
      <weakClassifiers>
        <_>
          <internalNodes>
            0 -1 249 9.5186963677406311e-02</internalNodes>
          <leafValues>
            -2.8309202194213867e-01 3.3419543504714966e-01</leafValues></_>
        <_>
          <internalNodes>
            0 -1 548 1.8454659730195999e-03</internalNodes>
          <leafValues>
            1.4523909986019135e-01 -4.4477871060371399e-01</leafValues></_>
        <_>
          <internalNodes>
            0 -1 505 -1.5666970284655690e-03</internalNodes>
          <leafValues>
            3.4487038850784302e-01 -1.7841947078704834e-01</leafValues></_>
        <_>
          <internalNodes>
            0 -1 562 -4.0399609133601189e-03</internalNodes>
          <leafValues>
            -6.0570913553237915e-01 8.6587935686111450e-02</leafValues></_>
        <_>
          <internalNodes>
            0 -1 215 5.5887768976390362e-03</internalNodes>
          <leafValues>
            -1.1520342528820038e-01 4.1691374778747559e-01</leafValues></_>
        <_>
          <internalNodes>
            0 -1 413 3.3104825764894485e-02</internalNodes>
          <leafValues>
            -1.1401180922985077e-01 4.4731104373931885e-01</leafValues></_>
        <_>
          <internalNodes>
            0 -1 83 -2.2033900677342899e-05</internalNodes>
          <leafValues>
            1.4899282157421112e-01 -3.1353303790092468e-01</leafValues></_>
        <_>
          <internalNodes>
            0 -1 479 -1.0939330422843341e-05</internalNodes>
          <leafValues>
            2.0660850405693054e-01 -2.1440719068050385e-01</leafValues></_>
        <_>
          <internalNodes>
            0 -1 235 -5.1370607689023018e-03</internalNodes>
          <leafValues>
            2.3241555690765381e-01 -1.9533880054950714e-01</leafValues></_>
        <_>
          <internalNodes>
            0 -1 210 2.3704688996076584e-02</internalNodes>
          <leafValues>
            -1.7900490760803223e-01 2.6496428251266479e-01</leafValues></_>
        <_>
          <internalNodes>
            0 -1 134 7.5429347343742847e-03</internalNodes>
          <leafValues>
            7.0705279707908630e-02 -7.5856268405914307e-01</leafValues></_>
        <_>
          <internalNodes>
            0 -1 110 -1.1525004357099533e-01</internalNodes>
          <leafValues>
            -6.9176352024078369e-01 5.3018994629383087e-02</leafValues></_>
        <_>
          <internalNodes>
            0 -1 169 1.5601215418428183e-03</internalNodes>
          <leafValues>
            -1.4072979986667633e-01 3.0033269524574280e-01</leafValues></_>
        <_>
          <internalNodes>
            0 -1 408 2.8230395168066025e-02</internalNodes>
          <leafValues>
            6.8025603890419006e-02 -6.1557292938232422e-01</leafValues></_>
        <_>
          <internalNodes>
            0 -1 370 -5.2470350638031960e-03</internalNodes>
          <leafValues>
            3.1329974532127380e-01 -1.2463002651929855e-01</leafValues></_>
        <_>
          <internalNodes>
            0 -1 369 8.6360070854425430e-03</internalNodes>
          <leafValues>
            -2.3757529258728027e-01 1.9162106513977051e-01</leafValues></_>
        <_>
          <internalNodes>
            0 -1 12 -1.2429766356945038e-02</internalNodes>
          <leafValues>
            1.7224687337875366e-01 -2.5769853591918945e-01</leafValues></_>
        <_>
          <internalNodes>
            0 -1 60 5.8537360746413469e-04</internalNodes>
          <leafValues>
            -1.2335807085037231e-01 3.9328172802925110e-01</leafValues></_>
        <_>
          <internalNodes>
            0 -1 189 -7.1619162335991859e-03</internalNodes>
          <leafValues>
            1.7942573130130768e-01 -2.4084044992923737e-01</leafValues></_>
        <_>
          <internalNodes>
            0 -1 487 1.1216910934308544e-05</internalNodes>
          <leafValues>
            -3.1209883093833923e-01 1.3363899290561676e-01</leafValues></_>
        <_>
          <internalNodes>
            0 -1 276 1.2255986221134663e-02</internalNodes>
          <leafValues>
            -1.2149655818939209e-01 4.0829947590827942e-01</leafValues></_>
        <_>
          <internalNodes>
            0 -1 79 2.2112441001809202e-05</internalNodes>
          <leafValues>
            -1.7276771366596222e-01 2.3478201031684875e-01</leafValues></_>
        <_>
          <internalNodes>
            0 -1 162 1.1783046647906303e-03</internalNodes>
          <leafValues>
            -1.2689761817455292e-01 3.1628486514091492e-01</leafValues></_>
        <_>
          <internalNodes>
            0 -1 282 -5.8279987424612045e-03</internalNodes>
          <leafValues>
            -3.8876849412918091e-01 1.0535755753517151e-01</leafValues></_>
        <_>
          <internalNodes>
            0 -1 107 8.4272846579551697e-02</internalNodes>
          <leafValues>
            -1.4793713390827179e-01 2.6340082287788391e-01</leafValues></_>
        <_>
          <internalNodes>
            0 -1 114 -7.6249599456787109e-02</internalNodes>
          <leafValues>
            3.1243684887886047e-01 -1.6053202748298645e-01</leafValues></_>
        <_>
          <internalNodes>
            0 -1 364 -5.7961821556091309e-02</internalNodes>
          <leafValues>
            -7.3451387882232666e-01 5.3068146109580994e-02</leafValues></_>
        <_>
          <internalNodes>
            0 -1 92 -1.7707301594782621e-04</internalNodes>
          <leafValues>
            -3.5502910614013672e-01 1.0110838711261749e-01</leafValues></_>
        <_>
          <internalNodes>
            0 -1 318 -7.0924177765846252e-02</internalNodes>
          <leafValues>
            2.4723729491233826e-01 -1.5967987477779388e-01</leafValues></_>
        <_>
          <internalNodes>
            0 -1 319 3.1156782060861588e-02</internalNodes>
          <leafValues>
            -9.0633571147918701e-02 5.7468366622924805e-01</leafValues></_>
        <_>
          <internalNodes>
            0 -1 256 -1.0834274689841550e-05</internalNodes>
          <leafValues>
            1.7926356196403503e-01 -2.2803394496440887e-01</leafValues></_>
        <_>
          <internalNodes>
            0 -1 97 -1.8021225696429610e-04</internalNodes>
          <leafValues>
            1.4597612619400024e-01 -2.6403248310089111e-01</leafValues></_>
        <_>
          <internalNodes>
            0 -1 454 5.9421760961413383e-03</internalNodes>
          <leafValues>
            -8.3654351532459259e-02 4.6378293633460999e-01</leafValues></_></weakClassifiers></_>
    <!-- stage 11 -->
    <_>
      <maxWeakCount>35</maxWeakCount>
      <stageThreshold>-1.2422788143157959e+00</stageThreshold>
      <weakClassifiers>
        <_>
          <internalNodes>
            0 -1 491 -3.4150951541960239e-03</internalNodes>
          <leafValues>
            4.0089538693428040e-01 -2.5136876106262207e-01</leafValues></_>
        <_>
          <internalNodes>
            0 -1 50 -5.0099790096282959e-03</internalNodes>
          <leafValues>
            3.4539923071861267e-01 -1.6514904797077179e-01</leafValues></_>
        <_>
          <internalNodes>
            0 -1 178 -2.1305566187947989e-03</internalNodes>
          <leafValues>
            2.6922023296356201e-01 -2.1070681512355804e-01</leafValues></_>
        <_>
          <internalNodes>
            0 -1 472 -1.5049485955387354e-03</internalNodes>
          <leafValues>
            3.2708778977394104e-01 -1.3050618767738342e-01</leafValues></_>
        <_>
          <internalNodes>
            0 -1 546 7.5671346858143806e-03</internalNodes>
          <leafValues>
            5.7244025170803070e-02 -6.0261261463165283e-01</leafValues></_>
        <_>
          <internalNodes>
            0 -1 493 -1.2924763374030590e-02</internalNodes>
          <leafValues>
            -5.0521039962768555e-01 1.1332391202449799e-01</leafValues></_>
        <_>
          <internalNodes>
            0 -1 432 -5.0598336383700371e-03</internalNodes>
          <leafValues>
            2.0934319496154785e-01 -2.3111890256404877e-01</leafValues></_>
        <_>
          <internalNodes>
            0 -1 328 7.7616974711418152e-02</internalNodes>
          <leafValues>
            -1.1135955899953842e-01 5.0080955028533936e-01</leafValues></_>
        <_>
          <internalNodes>
            0 -1 426 1.8964463379234076e-03</internalNodes>
          <leafValues>
            -1.1278325319290161e-01 3.6610335111618042e-01</leafValues></_>
        <_>
          <internalNodes>
            0 -1 130 -8.8908210396766663e-02</internalNodes>
          <leafValues>
            5.0002211332321167e-01 -8.7353162467479706e-02</leafValues></_>
        <_>
          <internalNodes>
            0 -1 156 4.4874716550111771e-02</internalNodes>
          <leafValues>
            -1.4121767878532410e-01 3.1097659468650818e-01</leafValues></_>
        <_>
          <internalNodes>
            0 -1 82 4.8201302997767925e-03</internalNodes>
          <leafValues>
            6.6666476428508759e-02 -7.1609115600585938e-01</leafValues></_>
        <_>
          <internalNodes>
            0 -1 166 -6.1988015659153461e-04</internalNodes>
          <leafValues>
            3.8683539628982544e-01 -1.3704007863998413e-01</leafValues></_>
        <_>
          <internalNodes>
            0 -1 44 -4.8440877348184586e-02</internalNodes>
          <leafValues>
            -7.9250019788742065e-01 7.3843859136104584e-02</leafValues></_>
        <_>
          <internalNodes>
            0 -1 388 -5.7732621207833290e-03</internalNodes>
          <leafValues>
            4.5196029543876648e-01 -1.0023616254329681e-01</leafValues></_>
        <_>
          <internalNodes>
            0 -1 341 -7.8738732263445854e-03</internalNodes>
          <leafValues>
            -6.9321298599243164e-01 7.1619525551795959e-02</leafValues></_>
        <_>
          <internalNodes>
            0 -1 484 1.6116585175041109e-04</internalNodes>
          <leafValues>
            -1.6201880574226379e-01 2.6051619648933411e-01</leafValues></_>
        <_>
          <internalNodes>
            0 -1 263 5.7916745543479919e-02</internalNodes>
          <leafValues>
            -1.4639835059642792e-01 2.7009749412536621e-01</leafValues></_>
        <_>
          <internalNodes>
            0 -1 19 3.5165779292583466e-02</internalNodes>
          <leafValues>
            7.2600200772285461e-02 -7.2412073612213135e-01</leafValues></_>
        <_>
          <internalNodes>
            0 -1 551 -4.4734310358762741e-03</internalNodes>
          <leafValues>
            -5.3081607818603516e-01 6.6547639667987823e-02</leafValues></_>
        <_>
          <internalNodes>
            0 -1 450 -3.3251976128667593e-03</internalNodes>
          <leafValues>
            3.0989703536033630e-01 -1.3337336480617523e-01</leafValues></_>
        <_>
          <internalNodes>
            0 -1 329 1.1387723684310913e-01</internalNodes>
          <leafValues>
            6.2661729753017426e-02 -7.7858674526214600e-01</leafValues></_>
        <_>
          <internalNodes>
            0 -1 553 5.2158078178763390e-03</internalNodes>
          <leafValues>
            5.4298203438520432e-02 -5.7435464859008789e-01</leafValues></_>
        <_>
          <internalNodes>
            0 -1 133 6.2661846168339252e-03</internalNodes>
          <leafValues>
            -8.9675754308700562e-02 4.3918353319168091e-01</leafValues></_>
        <_>
          <internalNodes>
            0 -1 230 -2.1221967472229153e-05</internalNodes>
          <leafValues>
            1.3306804001331329e-01 -3.0772855877876282e-01</leafValues></_>
        <_>
          <internalNodes>
            0 -1 177 -2.1692586597055197e-03</internalNodes>
          <leafValues>
            4.4522988796234131e-01 -8.2874871790409088e-02</leafValues></_>
        <_>
          <internalNodes>
            0 -1 141 -2.8748879209160805e-02</internalNodes>
          <leafValues>
            -3.8661253452301025e-01 8.8071107864379883e-02</leafValues></_>
        <_>
          <internalNodes>
            0 -1 9 -9.5748845487833023e-03</internalNodes>
          <leafValues>
            1.5296098589897156e-01 -2.3651926219463348e-01</leafValues></_>
        <_>
          <internalNodes>
            0 -1 57 1.6009693499654531e-03</internalNodes>
          <leafValues>
            -1.2850899994373322e-01 3.2296174764633179e-01</leafValues></_>
        <_>
          <internalNodes>
            0 -1 376 2.0044534467160702e-03</internalNodes>
          <leafValues>
            -1.0668063163757324e-01 3.0102089047431946e-01</leafValues></_>
        <_>
          <internalNodes>
            0 -1 523 2.2617779904976487e-05</internalNodes>
          <leafValues>
            -2.3180410265922546e-01 1.4898668229579926e-01</leafValues></_>
        <_>
          <internalNodes>
            0 -1 507 1.1278204619884491e-03</internalNodes>
          <leafValues>
            8.4174543619155884e-02 -4.1234925389289856e-01</leafValues></_>
        <_>
          <internalNodes>
            0 -1 475 4.5455014333128929e-04</internalNodes>
          <leafValues>
            -1.3683299720287323e-01 2.5723770260810852e-01</leafValues></_>
        <_>
          <internalNodes>
            0 -1 458 2.4772990494966507e-02</internalNodes>
          <leafValues>
            4.6797309070825577e-02 -7.8737157583236694e-01</leafValues></_>
        <_>
          <internalNodes>
            0 -1 354 1.5392457135021687e-03</internalNodes>
          <leafValues>
            7.2717197239398956e-02 -4.0099090337753296e-01</leafValues></_></weakClassifiers></_>
    <!-- stage 12 -->
    <_>
      <maxWeakCount>37</maxWeakCount>
      <stageThreshold>-1.2562541961669922e+00</stageThreshold>
      <weakClassifiers>
        <_>
          <internalNodes>
            0 -1 395 -3.1007178127765656e-02</internalNodes>
          <leafValues>
            1.1227383464574814e-01 -4.4875082373619080e-01</leafValues></_>
        <_>
          <internalNodes>
            0 -1 514 -4.8003569245338440e-03</internalNodes>
          <leafValues>
            4.0712147951126099e-01 -1.5819111466407776e-01</leafValues></_>
        <_>
          <internalNodes>
            0 -1 340 -1.9317220896482468e-02</internalNodes>
          <leafValues>
            1.7151978611946106e-01 -2.7305209636688232e-01</leafValues></_>
        <_>
          <internalNodes>
            0 -1 561 -9.6817621961236000e-03</internalNodes>
          <leafValues>
            -4.4726869463920593e-01 1.4928843080997467e-01</leafValues></_>
        <_>
          <internalNodes>
            0 -1 359 -1.0731322690844536e-02</internalNodes>
          <leafValues>
            3.2212126255035400e-01 -1.6483773291110992e-01</leafValues></_>
        <_>
          <internalNodes>
            0 -1 286 3.7781447172164917e-02</internalNodes>
          <leafValues>
            -1.0984983295202255e-01 4.3188601732254028e-01</leafValues></_>
        <_>
          <internalNodes>
            0 -1 1 -1.0529244318604469e-02</internalNodes>
          <leafValues>
            -6.3813674449920654e-01 6.5838702023029327e-02</leafValues></_>
        <_>
          <internalNodes>
            0 -1 528 -2.2372347302734852e-03</internalNodes>
          <leafValues>
            -4.6790790557861328e-01 7.7764995396137238e-02</leafValues></_>
        <_>
          <internalNodes>
            0 -1 181 -1.4983912697061896e-03</internalNodes>
          <leafValues>
            4.4273531436920166e-01 -8.7677620351314545e-02</leafValues></_>
        <_>
          <internalNodes>
            0 -1 68 -1.4277818845584989e-03</internalNodes>
          <leafValues>
            3.8925099372863770e-01 -1.0587773472070694e-01</leafValues></_>
        <_>
          <internalNodes>
            0 -1 459 -8.9639648795127869e-03</internalNodes>
          <leafValues>
            2.5895196199417114e-01 -1.4306887984275818e-01</leafValues></_>
        <_>
          <internalNodes>
            0 -1 238 -3.5242214798927307e-03</internalNodes>
          <leafValues>
            9.7217023372650146e-02 -3.3333683013916016e-01</leafValues></_>
        <_>
          <internalNodes>
            0 -1 225 -2.3372780531644821e-02</internalNodes>
          <leafValues>
            -3.8822644948959351e-01 1.0542161762714386e-01</leafValues></_>
        <_>
          <internalNodes>
            0 -1 46 -1.3045132160186768e-02</internalNodes>
          <leafValues>
            -4.3258780241012573e-01 9.7277142107486725e-02</leafValues></_>
        <_>
          <internalNodes>
            0 -1 389 3.4076031297445297e-02</internalNodes>
          <leafValues>
            5.3783558309078217e-02 -8.1338363885879517e-01</leafValues></_>
        <_>
          <internalNodes>
            0 -1 172 -7.6462398283183575e-04</internalNodes>
          <leafValues>
            -5.9064751863479614e-01 5.9548910707235336e-02</leafValues></_>
        <_>
          <internalNodes>
            0 -1 463 -8.0711726332083344e-04</internalNodes>
          <leafValues>
            -3.6643242835998535e-01 1.0236315429210663e-01</leafValues></_>
        <_>
          <internalNodes>
            0 -1 540 1.1040454410249367e-05</internalNodes>
          <leafValues>
            -2.8607597947120667e-01 1.3444417715072632e-01</leafValues></_>
        <_>
          <internalNodes>
            0 -1 126 -3.7593659944832325e-03</internalNodes>
          <leafValues>
            5.4492551088333130e-01 -8.1331409513950348e-02</leafValues></_>
        <_>
          <internalNodes>
            0 -1 560 2.6757048908621073e-03</internalNodes>
          <leafValues>
            1.2295990437269211e-01 -3.8124510645866394e-01</leafValues></_>
        <_>
          <internalNodes>
            0 -1 140 2.5631014257669449e-02</internalNodes>
          <leafValues>
            3.5973906517028809e-02 -7.5516670942306519e-01</leafValues></_>
        <_>
          <internalNodes>
            0 -1 442 1.0843195923371240e-05</internalNodes>
          <leafValues>
            -2.4450194835662842e-01 1.3859090209007263e-01</leafValues></_>
        <_>
          <internalNodes>
            0 -1 271 -2.8547360561788082e-03</internalNodes>
          <leafValues>
            5.2905386686325073e-01 -7.1441240608692169e-02</leafValues></_>
        <_>
          <internalNodes>
            0 -1 497 -4.9374280497431755e-03</internalNodes>
          <leafValues>
            3.3773279190063477e-01 -1.0468029230833054e-01</leafValues></_>
        <_>
          <internalNodes>
            0 -1 358 -2.6611653156578541e-03</internalNodes>
          <leafValues>
            -7.3788738250732422e-01 5.5909302085638046e-02</leafValues></_>
        <_>
          <internalNodes>
            0 -1 182 -1.3242135941982269e-01</internalNodes>
          <leafValues>
            -7.3079967498779297e-01 4.1296254843473434e-02</leafValues></_>
        <_>
          <internalNodes>
            0 -1 209 -8.6378119885921478e-03</internalNodes>
          <leafValues>
            1.8988053500652313e-01 -1.7566898465156555e-01</leafValues></_>
        <_>
          <internalNodes>
            0 -1 444 -5.7922296226024628e-02</internalNodes>
          <leafValues>
            -7.7291780710220337e-01 4.2918600142002106e-02</leafValues></_>
        <_>
          <internalNodes>
            0 -1 194 1.4720322564244270e-02</internalNodes>
          <leafValues>
            -1.0033206641674042e-01 3.7297669053077698e-01</leafValues></_>
        <_>
          <internalNodes>
            0 -1 398 5.3842207416892052e-03</internalNodes>
          <leafValues>
            5.9691019356250763e-02 -6.0085511207580566e-01</leafValues></_>
        <_>
          <internalNodes>
            0 -1 461 1.6045168042182922e-02</internalNodes>
          <leafValues>
            -9.0435981750488281e-02 4.7059139609336853e-01</leafValues></_>
        <_>
          <internalNodes>
            0 -1 494 -3.3991397358477116e-03</internalNodes>
          <leafValues>
            3.7405344843864441e-01 -1.0076887160539627e-01</leafValues></_>
        <_>
          <internalNodes>
            0 -1 337 -1.1904012411832809e-02</internalNodes>
          <leafValues>
            1.5937200188636780e-01 -2.1334381401538849e-01</leafValues></_>
        <_>
          <internalNodes>
            0 -1 59 -4.7727882862091064e-02</internalNodes>
          <leafValues>
            2.3266179859638214e-01 -2.0146536827087402e-01</leafValues></_>
        <_>
          <internalNodes>
            0 -1 284 -1.1608941480517387e-02</internalNodes>
          <leafValues>
            2.3515897989273071e-01 -1.4849764108657837e-01</leafValues></_>
        <_>
          <internalNodes>
            0 -1 447 -6.2111720442771912e-02</internalNodes>
          <leafValues>
            -5.1535141468048096e-01 6.5482184290885925e-02</leafValues></_>
        <_>
          <internalNodes>
            0 -1 240 -9.3281501904129982e-03</internalNodes>
          <leafValues>
            2.9521179199218750e-01 -1.4412140846252441e-01</leafValues></_></weakClassifiers></_>
    <!-- stage 13 -->
    <_>
      <maxWeakCount>41</maxWeakCount>
      <stageThreshold>-1.2180618047714233e+00</stageThreshold>
      <weakClassifiers>
        <_>
          <internalNodes>
            0 -1 93 -1.1166443582624197e-03</internalNodes>
          <leafValues>
            3.6474099755287170e-01 -2.2986623644828796e-01</leafValues></_>
        <_>
          <internalNodes>
            0 -1 520 2.2138752683531493e-05</internalNodes>
          <leafValues>
            -3.5477650165557861e-01 1.5535153448581696e-01</leafValues></_>
        <_>
          <internalNodes>
            0 -1 122 1.2597125768661499e-01</internalNodes>
          <leafValues>
            -1.0220753401517868e-01 4.4495522975921631e-01</leafValues></_>
        <_>
          <internalNodes>
            0 -1 465 1.6790956724435091e-03</internalNodes>
          <leafValues>
            -1.5363126993179321e-01 3.0532804131507874e-01</leafValues></_>
        <_>
          <internalNodes>
            0 -1 252 -7.6637163758277893e-02</internalNodes>
          <leafValues>
            2.9860979318618774e-01 -1.3829442858695984e-01</leafValues></_>
        <_>
          <internalNodes>
            0 -1 362 1.0048275813460350e-02</internalNodes>
          <leafValues>
            -1.0109588503837585e-01 4.7473660111427307e-01</leafValues></_>
        <_>
          <internalNodes>
            0 -1 157 1.7767563462257385e-01</internalNodes>
          <leafValues>
            1.0522814840078354e-01 -8.0072814226150513e-01</leafValues></_>
        <_>
          <internalNodes>
            0 -1 146 1.1441150307655334e-01</internalNodes>
          <leafValues>
            -1.7654971778392792e-01 3.0203321576118469e-01</leafValues></_>
        <_>
          <internalNodes>
            0 -1 534 -1.1537251339177601e-05</internalNodes>
          <leafValues>
            2.6061487197875977e-01 -1.8724966049194336e-01</leafValues></_>
        <_>
          <internalNodes>
            0 -1 84 2.2470457479357719e-03</internalNodes>
          <leafValues>
            2.9080173000693321e-02 -5.8670437335968018e-01</leafValues></_>
        <_>
          <internalNodes>
            0 -1 288 -3.4690655767917633e-02</internalNodes>
          <leafValues>
            2.9353529214859009e-01 -1.1194322258234024e-01</leafValues></_>
        <_>
          <internalNodes>
            0 -1 303 5.9511285275220871e-02</internalNodes>
          <leafValues>
            -1.4963537454605103e-01 3.3107325434684753e-01</leafValues></_>
        <_>
          <internalNodes>
            0 -1 529 5.0475355237722397e-03</internalNodes>
          <leafValues>
            8.7883025407791138e-02 -4.2415195703506470e-01</leafValues></_>
        <_>
          <internalNodes>
            0 -1 553 -5.1520569249987602e-03</internalNodes>
          <leafValues>
            -5.2449315786361694e-01 7.4582792818546295e-02</leafValues></_>
        <_>
          <internalNodes>
            0 -1 270 -3.8484024116769433e-04</internalNodes>
          <leafValues>
            1.7522203922271729e-01 -2.0448064804077148e-01</leafValues></_>
        <_>
          <internalNodes>
            0 -1 246 -9.5276072621345520e-02</internalNodes>
          <leafValues>
            -8.4231126308441162e-01 4.4049534946680069e-02</leafValues></_>
        <_>
          <internalNodes>
            0 -1 296 3.4387162886559963e-03</internalNodes>
          <leafValues>
            -7.6421715319156647e-02 6.8007510900497437e-01</leafValues></_>
        <_>
          <internalNodes>
            0 -1 326 -2.5081360712647438e-02</internalNodes>
          <leafValues>
            3.5501179099082947e-01 -1.0620158165693283e-01</leafValues></_>
        <_>
          <internalNodes>
            0 -1 73 -5.3268573246896267e-03</internalNodes>
          <leafValues>
            1.3180881738662720e-01 -2.9520720243453979e-01</leafValues></_>
        <_>
          <internalNodes>
            0 -1 473 2.7712646988220513e-04</internalNodes>
          <leafValues>
            -1.1224833875894547e-01 3.1541955471038818e-01</leafValues></_>
        <_>
          <internalNodes>
            0 -1 441 5.3803604096174240e-03</internalNodes>
          <leafValues>
            7.6828569173812866e-02 -4.1249099373817444e-01</leafValues></_>
        <_>
          <internalNodes>
            0 -1 260 1.8206048756837845e-02</internalNodes>
          <leafValues>
            5.1298242062330246e-02 -6.0829931497573853e-01</leafValues></_>
        <_>
          <internalNodes>
            0 -1 236 9.3827280215919018e-04</internalNodes>
          <leafValues>
            -2.4674561619758606e-01 1.3699401915073395e-01</leafValues></_>
        <_>
          <internalNodes>
            0 -1 247 1.9531193538568914e-04</internalNodes>
          <leafValues>
            -1.2263990938663483e-01 2.8110921382904053e-01</leafValues></_>
        <_>
          <internalNodes>
            0 -1 213 -1.4016355853527784e-03</internalNodes>
          <leafValues>
            3.4891855716705322e-01 -1.0546317696571350e-01</leafValues></_>
        <_>
          <internalNodes>
            0 -1 135 -2.9286881908774376e-04</internalNodes>
          <leafValues>
            -3.1729131937026978e-01 1.0790999978780746e-01</leafValues></_>
        <_>
          <internalNodes>
            0 -1 197 -1.0511656291782856e-03</internalNodes>
          <leafValues>
            3.4583234786987305e-01 -1.0382118821144104e-01</leafValues></_>
        <_>
          <internalNodes>
            0 -1 434 -9.9914088845252991e-02</internalNodes>
          <leafValues>
            -7.2538614273071289e-01 5.5560097098350525e-02</leafValues></_>
        <_>
          <internalNodes>
            0 -1 85 1.6046995297074318e-02</internalNodes>
          <leafValues>
            2.4291336536407471e-02 -8.6451154947280884e-01</leafValues></_>
        <_>
          <internalNodes>
            0 -1 280 -7.5545962899923325e-03</internalNodes>
          <leafValues>
            2.7787435054779053e-01 -1.2777136266231537e-01</leafValues></_>
        <_>
          <internalNodes>
            0 -1 77 -1.2529292143881321e-02</internalNodes>
          <leafValues>
            3.3751118183135986e-01 -1.1501225829124451e-01</leafValues></_>
        <_>
          <internalNodes>
            0 -1 30 3.7708628922700882e-02</internalNodes>
          <leafValues>
            7.5737617909908295e-02 -4.5986261963844299e-01</leafValues></_>
        <_>
          <internalNodes>
            0 -1 20 -1.0243672877550125e-01</internalNodes>
          <leafValues>
            -6.9338142871856689e-01 4.0379423648118973e-02</leafValues></_>
        <_>
          <internalNodes>
            0 -1 24 2.3164402227848768e-03</internalNodes>
          <leafValues>
            5.6239381432533264e-02 -5.0257140398025513e-01</leafValues></_>
        <_>
          <internalNodes>
            0 -1 504 -3.8169976323843002e-04</internalNodes>
          <leafValues>
            2.5373640656471252e-01 -1.2853109836578369e-01</leafValues></_>
        <_>
          <internalNodes>
            0 -1 32 1.1001638995367102e-05</internalNodes>
          <leafValues>
            -1.4829647541046143e-01 2.1007038652896881e-01</leafValues></_>
        <_>
          <internalNodes>
            0 -1 281 4.0222925599664450e-04</internalNodes>
          <leafValues>
            8.9899331331253052e-02 -3.7571305036544800e-01</leafValues></_>
        <_>
          <internalNodes>
            0 -1 474 -2.0454777404665947e-03</internalNodes>
          <leafValues>
            3.2268467545509338e-01 -9.8761044442653656e-02</leafValues></_>
        <_>
          <internalNodes>
            0 -1 387 6.8378075957298279e-02</internalNodes>
          <leafValues>
            4.7495365142822266e-02 -6.5506941080093384e-01</leafValues></_>
        <_>
          <internalNodes>
            0 -1 334 -7.8308060765266418e-03</internalNodes>
          <leafValues>
            2.5220328569412231e-01 -1.2059742957353592e-01</leafValues></_>
        <_>
          <internalNodes>
            0 -1 525 3.9302883669734001e-03</internalNodes>
          <leafValues>
            6.0052379965782166e-02 -5.1350241899490356e-01</leafValues></_></weakClassifiers></_>
    <!-- stage 14 -->
    <_>
      <maxWeakCount>44</maxWeakCount>
      <stageThreshold>-1.2240573167800903e+00</stageThreshold>
      <weakClassifiers>
        <_>
          <internalNodes>
            0 -1 49 -7.2116199880838394e-03</internalNodes>
          <leafValues>
            4.0036645531654358e-01 -2.2734859585762024e-01</leafValues></_>
        <_>
          <internalNodes>
            0 -1 29 -1.0533398948609829e-02</internalNodes>
          <leafValues>
            2.9271736741065979e-01 -1.7007686197757721e-01</leafValues></_>
        <_>
          <internalNodes>
            0 -1 305 7.5445450842380524e-02</internalNodes>
          <leafValues>
            -1.4877569675445557e-01 3.6457616090774536e-01</leafValues></_>
        <_>
          <internalNodes>
            0 -1 521 2.1976195057504810e-05</internalNodes>
          <leafValues>
            -2.4207837879657745e-01 2.2584559023380280e-01</leafValues></_>
        <_>
          <internalNodes>
            0 -1 406 3.7041641771793365e-02</internalNodes>
          <leafValues>
            -1.7640791833400726e-01 2.3045925796031952e-01</leafValues></_>
        <_>
          <internalNodes>
            0 -1 378 -3.9196588099002838e-02</internalNodes>
          <leafValues>
            1.9582004845142365e-01 -2.0123930275440216e-01</leafValues></_>
        <_>
          <internalNodes>
            0 -1 373 5.2165398374199867e-03</internalNodes>
          <leafValues>
            -1.2676724791526794e-01 3.1190219521522522e-01</leafValues></_>
        <_>
          <internalNodes>
            0 -1 125 -1.1967186583206058e-03</internalNodes>
          <leafValues>
            3.8704940676689148e-01 -9.6579179167747498e-02</leafValues></_>
        <_>
          <internalNodes>
            0 -1 522 2.1624395230901428e-05</internalNodes>
          <leafValues>
            -2.5280565023422241e-01 1.5421935915946960e-01</leafValues></_>
        <_>
          <internalNodes>
            0 -1 201 -6.0290219262242317e-03</internalNodes>
          <leafValues>
            1.2053724378347397e-01 -2.9652062058448792e-01</leafValues></_>
        <_>
          <internalNodes>
            0 -1 42 8.7499674409627914e-03</internalNodes>
          <leafValues>
            6.6592268645763397e-02 -5.6440329551696777e-01</leafValues></_>
        <_>
          <internalNodes>
            0 -1 46 -1.1385457590222359e-02</internalNodes>
          <leafValues>
            -3.8442718982696533e-01 9.0991027653217316e-02</leafValues></_>
        <_>
          <internalNodes>
            0 -1 124 4.1224263608455658e-02</internalNodes>
          <leafValues>
            -1.3805976510047913e-01 2.7692377567291260e-01</leafValues></_>
        <_>
          <internalNodes>
            0 -1 139 -1.2049929797649384e-01</internalNodes>
          <leafValues>
            1.9208331406116486e-01 -2.3796868324279785e-01</leafValues></_>
        <_>
          <internalNodes>
            0 -1 425 -2.4316036142408848e-03</internalNodes>
          <leafValues>
            5.4236209392547607e-01 -6.6514141857624054e-02</leafValues></_>
        <_>
          <internalNodes>
            0 -1 63 1.2942200992256403e-03</internalNodes>
          <leafValues>
            -1.1148105561733246e-01 3.4867042303085327e-01</leafValues></_>
        <_>
          <internalNodes>
            0 -1 297 2.3930659890174866e-01</internalNodes>
          <leafValues>
            -9.2237897217273712e-02 3.6813572049140930e-01</leafValues></_>
        <_>
          <internalNodes>
            0 -1 223 -6.4363651908934116e-03</internalNodes>
          <leafValues>
            2.8468289971351624e-01 -1.3061848282814026e-01</leafValues></_>
        <_>
          <internalNodes>
            0 -1 88 -2.0413330639712512e-04</internalNodes>
          <leafValues>
            1.0418634861707687e-01 -3.3539155125617981e-01</leafValues></_>
        <_>
          <internalNodes>
            0 -1 212 -3.0944554600864649e-03</internalNodes>
          <leafValues>
            4.7018107771873474e-01 -7.2515904903411865e-02</leafValues></_>
        <_>
          <internalNodes>
            0 -1 298 1.7852920573204756e-03</internalNodes>
          <leafValues>
            -7.0136375725269318e-02 4.4600644707679749e-01</leafValues></_>
        <_>
          <internalNodes>
            0 -1 37 1.1493475735187531e-01</internalNodes>
          <leafValues>
            -1.2973752617835999e-01 3.1277665495872498e-01</leafValues></_>
        <_>
          <internalNodes>
            0 -1 121 3.7527829408645630e-03</internalNodes>
          <leafValues>
            -8.0303326249122620e-02 3.7701421976089478e-01</leafValues></_>
        <_>
          <internalNodes>
            0 -1 438 3.8966613356024027e-03</internalNodes>
          <leafValues>
            -8.7506256997585297e-02 3.6085212230682373e-01</leafValues></_>
        <_>
          <internalNodes>
            0 -1 346 -2.0700059831142426e-02</internalNodes>
          <leafValues>
            3.1254738569259644e-01 -1.0795819759368896e-01</leafValues></_>
        <_>
          <internalNodes>
            0 -1 322 2.9598325490951538e-02</internalNodes>
          <leafValues>
            4.4113244861364365e-02 -7.5613361597061157e-01</leafValues></_>
        <_>
          <internalNodes>
            0 -1 550 -3.7487561348825693e-03</internalNodes>
          <leafValues>
            -4.4115465879440308e-01 6.9771878421306610e-02</leafValues></_>
        <_>
          <internalNodes>
            0 -1 0 1.2224763631820679e-03</internalNodes>
          <leafValues>
            6.0153506696224213e-02 -4.5228981971740723e-01</leafValues></_>
        <_>
          <internalNodes>
            0 -1 7 -8.2831998588517308e-04</internalNodes>
          <leafValues>
            -3.5128015279769897e-01 7.8352957963943481e-02</leafValues></_>
        <_>
          <internalNodes>
            0 -1 173 2.2913583961781114e-05</internalNodes>
          <leafValues>
            -1.8344946205615997e-01 1.9356319308280945e-01</leafValues></_>
        <_>
          <internalNodes>
            0 -1 144 5.5974550545215607e-02</internalNodes>
          <leafValues>
            5.7498157024383545e-02 -6.4633077383041382e-01</leafValues></_>
        <_>
          <internalNodes>
            0 -1 455 -1.7313158605247736e-03</internalNodes>
          <leafValues>
            2.4340932071208954e-01 -1.3455854356288910e-01</leafValues></_>
        <_>
          <internalNodes>
            0 -1 555 -8.2566421478986740e-03</internalNodes>
          <leafValues>
            -5.2496725320816040e-01 6.2443174421787262e-02</leafValues></_>
        <_>
          <internalNodes>
            0 -1 330 -2.2538606572197750e-05</internalNodes>
          <leafValues>
            2.0478725433349609e-01 -1.6379177570343018e-01</leafValues></_>
        <_>
          <internalNodes>
            0 -1 211 2.7808502316474915e-02</internalNodes>
          <leafValues>
            -1.0903207957744598e-01 2.8587687015533447e-01</leafValues></_>
        <_>
          <internalNodes>
            0 -1 377 6.0415035113692284e-03</internalNodes>
          <leafValues>
            -8.1416375935077667e-02 3.8073727488517761e-01</leafValues></_>
        <_>
          <internalNodes>
            0 -1 90 3.8237002445384860e-04</internalNodes>
          <leafValues>
            6.3419312238693237e-02 -4.5223471522331238e-01</leafValues></_>
        <_>
          <internalNodes>
            0 -1 81 2.1936659322818741e-05</internalNodes>
          <leafValues>
            -1.5505325794219971e-01 1.9518354535102844e-01</leafValues></_>
        <_>
          <internalNodes>
            0 -1 355 -3.5619077971205115e-04</internalNodes>
          <leafValues>
            -2.4929016828536987e-01 1.1488255113363266e-01</leafValues></_>
        <_>
          <internalNodes>
            0 -1 316 2.5929585099220276e-03</internalNodes>
          <leafValues>
            -1.0695554316043854e-01 2.9439476132392883e-01</leafValues></_>
        <_>
          <internalNodes>
            0 -1 417 1.0272882645949721e-03</internalNodes>
          <leafValues>
            7.3676787316799164e-02 -4.1107925772666931e-01</leafValues></_>
        <_>
          <internalNodes>
            0 -1 86 1.2582844123244286e-02</internalNodes>
          <leafValues>
            -7.9991213977336884e-02 3.9534074068069458e-01</leafValues></_>
        <_>
          <internalNodes>
            0 -1 279 2.4877605028450489e-03</internalNodes>
          <leafValues>
            -1.1040645092725754e-01 2.6166549324989319e-01</leafValues></_>
        <_>
          <internalNodes>
            0 -1 446 2.0161587744951248e-03</internalNodes>
          <leafValues>
            -1.0473395138978958e-01 3.0882334709167480e-01</leafValues></_></weakClassifiers></_>
    <!-- stage 15 -->
    <_>
      <maxWeakCount>49</maxWeakCount>
      <stageThreshold>-1.2143487930297852e+00</stageThreshold>
      <weakClassifiers>
        <_>
          <internalNodes>
            0 -1 412 -7.7682241797447205e-02</internalNodes>
          <leafValues>
            1.4209948480129242e-01 -3.8194361329078674e-01</leafValues></_>
        <_>
          <internalNodes>
            0 -1 451 -2.3237373679876328e-03</internalNodes>
          <leafValues>
            3.3156824111938477e-01 -1.5252964198589325e-01</leafValues></_>
        <_>
          <internalNodes>
            0 -1 80 -5.9247524477541447e-03</internalNodes>
          <leafValues>
            1.2561079859733582e-01 -3.0901718139648438e-01</leafValues></_>
        <_>
          <internalNodes>
            0 -1 269 8.6051218211650848e-02</internalNodes>
          <leafValues>
            1.4181037247180939e-01 -3.6072763800621033e-01</leafValues></_>
        <_>
          <internalNodes>
            0 -1 440 1.1216488666832447e-02</internalNodes>
          <leafValues>
            8.5732765495777130e-02 -3.6182647943496704e-01</leafValues></_>
        <_>
          <internalNodes>
            0 -1 556 -1.5832647681236267e-02</internalNodes>
          <leafValues>
            -4.6500375866889954e-01 7.7530488371849060e-02</leafValues></_>
        <_>
          <internalNodes>
            0 -1 145 -5.8312736451625824e-02</internalNodes>
          <leafValues>
            -4.5446965098381042e-01 6.9402411580085754e-02</leafValues></_>
        <_>
          <internalNodes>
            0 -1 100 8.6898542940616608e-03</internalNodes>
          <leafValues>
            5.7210016995668411e-02 -4.9808144569396973e-01</leafValues></_>
        <_>
          <internalNodes>
            0 -1 127 8.8435396552085876e-02</internalNodes>
          <leafValues>
            -1.4122684299945831e-01 3.1500664353370667e-01</leafValues></_>
        <_>
          <internalNodes>
            0 -1 123 -5.7811088860034943e-02</internalNodes>
          <leafValues>
            3.3778992295265198e-01 -7.0762962102890015e-02</leafValues></_>
        <_>
          <internalNodes>
            0 -1 415 -2.8053999412804842e-03</internalNodes>
          <leafValues>
            2.8075245022773743e-01 -1.3791882991790771e-01</leafValues></_>
        <_>
          <internalNodes>
            0 -1 103 -1.1203583329916000e-01</internalNodes>
          <leafValues>
            1.7248229682445526e-01 -1.9201275706291199e-01</leafValues></_>
        <_>
          <internalNodes>
            0 -1 22 -3.5381749272346497e-01</internalNodes>
          <leafValues>
            -4.9415305256843567e-01 9.0198114514350891e-02</leafValues></_>
        <_>
          <internalNodes>
            0 -1 183 6.1444082530215383e-04</internalNodes>
          <leafValues>
            -9.1998659074306488e-02 3.4057945013046265e-01</leafValues></_>
        <_>
          <internalNodes>
            0 -1 41 -2.6796914637088776e-02</internalNodes>
          <leafValues>
            -5.0955712795257568e-01 5.4475504904985428e-02</leafValues></_>
        <_>
          <internalNodes>
            0 -1 538 1.0359067346144002e-05</internalNodes>
          <leafValues>
            -2.6330256462097168e-01 1.0963230580091476e-01</leafValues></_>
        <_>
          <internalNodes>
            0 -1 69 -1.0484994202852249e-01</internalNodes>
          <leafValues>
            -7.8366249799728394e-01 4.0610406547784805e-02</leafValues></_>
        <_>
          <internalNodes>
            0 -1 547 -4.4547324068844318e-03</internalNodes>
          <leafValues>
            -3.1657937169075012e-01 8.4872134029865265e-02</leafValues></_>
        <_>
          <internalNodes>
            0 -1 533 -1.9529338460415602e-03</internalNodes>
          <leafValues>
            3.3576253056526184e-01 -8.8372707366943359e-02</leafValues></_>
        <_>
          <internalNodes>
            0 -1 372 2.7662646025419235e-02</internalNodes>
          <leafValues>
            2.6152964681386948e-02 -7.2785067558288574e-01</leafValues></_>
        <_>
          <internalNodes>
            0 -1 384 1.1092577129602432e-02</internalNodes>
          <leafValues>
            4.8461452126502991e-02 -5.5873209238052368e-01</leafValues></_>
        <_>
          <internalNodes>
            0 -1 321 1.4473299495875835e-02</internalNodes>
          <leafValues>
            4.2854793369770050e-02 -6.6968935728073120e-01</leafValues></_>
        <_>
          <internalNodes>
            0 -1 437 7.7887822408229113e-04</internalNodes>
          <leafValues>
            -8.2790277898311615e-02 3.4432861208915710e-01</leafValues></_>
        <_>
          <internalNodes>
            0 -1 449 2.2689753677695990e-05</internalNodes>
          <leafValues>
            -1.3041283190250397e-01 2.2125668823719025e-01</leafValues></_>
        <_>
          <internalNodes>
            0 -1 179 -3.4478574991226196e-02</internalNodes>
          <leafValues>
            3.5592746734619141e-01 -7.1914277970790863e-02</leafValues></_>
        <_>
          <internalNodes>
            0 -1 234 1.0666837915778160e-02</internalNodes>
          <leafValues>
            7.0888079702854156e-02 -4.8509094119071960e-01</leafValues></_>
        <_>
          <internalNodes>
            0 -1 300 -1.4756940305233002e-02</internalNodes>
          <leafValues>
            2.1097646653652191e-01 -1.3190126419067383e-01</leafValues></_>
        <_>
          <internalNodes>
            0 -1 214 -1.3930216431617737e-01</internalNodes>
          <leafValues>
            7.0098608732223511e-01 -4.4101785868406296e-02</leafValues></_>
        <_>
          <internalNodes>
            0 -1 508 -2.0783338695764542e-03</internalNodes>
          <leafValues>
            -3.3084887266159058e-01 9.1430164873600006e-02</leafValues></_>
        <_>
          <internalNodes>
            0 -1 481 4.3178903870284557e-03</internalNodes>
          <leafValues>
            -9.6432216465473175e-02 3.2466408610343933e-01</leafValues></_>
        <_>
          <internalNodes>
            0 -1 18 -4.1944459080696106e-02</internalNodes>
          <leafValues>
            -6.2505900859832764e-01 4.4895175844430923e-02</leafValues></_>
        <_>
          <internalNodes>
            0 -1 136 4.7755852341651917e-02</internalNodes>
          <leafValues>
            -7.0586107671260834e-02 4.2549920082092285e-01</leafValues></_>
        <_>
          <internalNodes>
            0 -1 237 -7.7791940420866013e-03</internalNodes>
          <leafValues>
            4.9290895462036133e-01 -5.6323904544115067e-02</leafValues></_>
        <_>
          <internalNodes>
            0 -1 293 1.1182603884662967e-05</internalNodes>
          <leafValues>
            -1.3163080811500549e-01 2.1191518008708954e-01</leafValues></_>
        <_>
          <internalNodes>
            0 -1 295 -2.2244918000069447e-05</internalNodes>
          <leafValues>
            1.7265938222408295e-01 -1.9701902568340302e-01</leafValues></_>
        <_>
          <internalNodes>
            0 -1 268 -1.4743968844413757e-02</internalNodes>
          <leafValues>
            3.7108254432678223e-01 -8.9896529912948608e-02</leafValues></_>
        <_>
          <internalNodes>
            0 -1 482 1.4006463810801506e-02</internalNodes>
          <leafValues>
            4.6094484627246857e-02 -7.1918427944183350e-01</leafValues></_>
        <_>
          <internalNodes>
            0 -1 233 2.2493586584459990e-05</internalNodes>
          <leafValues>
            -2.1220201253890991e-01 1.3076248764991760e-01</leafValues></_>
        <_>
          <internalNodes>
            0 -1 167 7.3034485103562474e-04</internalNodes>
          <leafValues>
            -1.2506346404552460e-01 2.4585819244384766e-01</leafValues></_>
        <_>
          <internalNodes>
            0 -1 416 -2.0958542823791504e-02</internalNodes>
          <leafValues>
            1.6394951939582825e-01 -1.7293973267078400e-01</leafValues></_>
        <_>
          <internalNodes>
            0 -1 96 -1.1195776096428744e-05</internalNodes>
          <leafValues>
            9.1360397636890411e-02 -2.8753295540809631e-01</leafValues></_>
        <_>
          <internalNodes>
            0 -1 198 3.8576605729758739e-03</internalNodes>
          <leafValues>
            -1.0471052676439285e-01 2.5990346074104309e-01</leafValues></_>
        <_>
          <internalNodes>
            0 -1 231 9.8280645033810288e-05</internalNodes>
          <leafValues>
            1.0401274263858795e-01 -2.7444326877593994e-01</leafValues></_>
        <_>
          <internalNodes>
            0 -1 164 1.0381229913036805e-05</internalNodes>
          <leafValues>
            -1.6254867613315582e-01 1.5708364546298981e-01</leafValues></_>
        <_>
          <internalNodes>
            0 -1 530 -8.2616563886404037e-03</internalNodes>
          <leafValues>
            -6.4793473482131958e-01 3.8792092353105545e-02</leafValues></_>
        <_>
          <internalNodes>
            0 -1 365 -4.7698553651571274e-02</internalNodes>
          <leafValues>
            2.4003541469573975e-01 -1.0621959716081619e-01</leafValues></_>
        <_>
          <internalNodes>
            0 -1 313 -2.7275709726382047e-05</internalNodes>
          <leafValues>
            1.4434187114238739e-01 -1.8091832101345062e-01</leafValues></_>
        <_>
          <internalNodes>
            0 -1 311 1.4710975810885429e-03</internalNodes>
          <leafValues>
            -6.3875414431095123e-02 4.7725567221641541e-01</leafValues></_>
        <_>
          <internalNodes>
            0 -1 353 -5.0575868226587772e-03</internalNodes>
          <leafValues>
            5.1033288240432739e-01 -4.6258490532636642e-02</leafValues></_></weakClassifiers></_>
    <!-- stage 16 -->
    <_>
      <maxWeakCount>52</maxWeakCount>
      <stageThreshold>-1.2467466592788696e+00</stageThreshold>
      <weakClassifiers>
        <_>
          <internalNodes>
            0 -1 407 -8.8427156209945679e-02</internalNodes>
          <leafValues>
            1.6576381027698517e-01 -3.6343851685523987e-01</leafValues></_>
        <_>
          <internalNodes>
            0 -1 154 2.7230931445956230e-03</internalNodes>
          <leafValues>
            -1.7463308572769165e-01 2.7898663282394409e-01</leafValues></_>
        <_>
          <internalNodes>
            0 -1 338 -8.2797906361520290e-04</internalNodes>
          <leafValues>
            1.4395816624164581e-01 -2.6866954565048218e-01</leafValues></_>
        <_>
          <internalNodes>
            0 -1 307 1.5918461605906487e-02</internalNodes>
          <leafValues>
            -1.8384683132171631e-01 2.0820640027523041e-01</leafValues></_>
        <_>
          <internalNodes>
            0 -1 245 -1.2080014130333439e-05</internalNodes>
          <leafValues>
            1.7474983632564545e-01 -2.2021454572677612e-01</leafValues></_>
        <_>
          <internalNodes>
            0 -1 424 9.6450615674257278e-03</internalNodes>
          <leafValues>
            -1.3472922146320343e-01 2.8650203347206116e-01</leafValues></_>
        <_>
          <internalNodes>
            0 -1 203 -3.1468804925680161e-02</internalNodes>
          <leafValues>
            3.8459268212318420e-01 -7.0263430476188660e-02</leafValues></_>
        <_>
          <internalNodes>
            0 -1 2 -7.3583004996180534e-03</internalNodes>
          <leafValues>
            -4.2784783244132996e-01 6.5589010715484619e-02</leafValues></_>
        <_>
          <internalNodes>
            0 -1 31 4.6344622969627380e-03</internalNodes>
          <leafValues>
            1.2262410670518875e-01 -2.4137599766254425e-01</leafValues></_>
        <_>
          <internalNodes>
            0 -1 158 -9.9376984871923923e-04</internalNodes>
          <leafValues>
            3.4934017062187195e-01 -1.0658988356590271e-01</leafValues></_>
        <_>
          <internalNodes>
            0 -1 480 -2.3172337023424916e-05</internalNodes>
          <leafValues>
            2.0535473525524139e-01 -1.3860368728637695e-01</leafValues></_>
        <_>
          <internalNodes>
            0 -1 399 7.7112315921112895e-04</internalNodes>
          <leafValues>
            4.1439354419708252e-02 -4.3985962867736816e-01</leafValues></_>
        <_>
          <internalNodes>
            0 -1 283 -8.9254435151815414e-03</internalNodes>
          <leafValues>
            -4.3502134084701538e-01 6.1465088278055191e-02</leafValues></_>
        <_>
          <internalNodes>
            0 -1 55 -1.1810234747827053e-02</internalNodes>
          <leafValues>
            -4.9084150791168213e-01 4.9215231090784073e-02</leafValues></_>
        <_>
          <internalNodes>
            0 -1 170 4.0052998811006546e-03</internalNodes>
          <leafValues>
            4.4710043817758560e-02 -5.8197838068008423e-01</leafValues></_>
        <_>
          <internalNodes>
            0 -1 224 -4.8296102322638035e-03</internalNodes>
          <leafValues>
            3.1441450119018555e-01 -1.0103255510330200e-01</leafValues></_>
        <_>
          <internalNodes>
            0 -1 301 5.3125328850001097e-04</internalNodes>
          <leafValues>
            -9.6487186849117279e-02 3.4378591179847717e-01</leafValues></_>
        <_>
          <internalNodes>
            0 -1 75 -1.2447301298379898e-01</internalNodes>
          <leafValues>
            -5.8939158916473389e-01 6.9768533110618591e-02</leafValues></_>
        <_>
          <internalNodes>
            0 -1 512 -1.0795883135870099e-03</internalNodes>
          <leafValues>
            2.5147256255149841e-01 -1.2250716239213943e-01</leafValues></_>
        <_>
          <internalNodes>
            0 -1 456 2.4372804909944534e-02</internalNodes>
          <leafValues>
            5.4306298494338989e-02 -5.8676409721374512e-01</leafValues></_>
        <_>
          <internalNodes>
            0 -1 545 -6.8243552232161164e-04</internalNodes>
          <leafValues>
            -2.5929889082908630e-01 9.5353290438652039e-02</leafValues></_>
        <_>
          <internalNodes>
            0 -1 420 -1.1493350565433502e-01</internalNodes>
          <leafValues>
            1.6573239862918854e-01 -1.5257784724235535e-01</leafValues></_>
        <_>
          <internalNodes>
            0 -1 128 -1.2550532817840576e-01</internalNodes>
          <leafValues>
            4.0396839380264282e-01 -8.7409161031246185e-02</leafValues></_>
        <_>
          <internalNodes>
            0 -1 112 7.3266617953777313e-02</internalNodes>
          <leafValues>
            -1.1200127750635147e-01 2.5628352165222168e-01</leafValues></_>
        <_>
          <internalNodes>
            0 -1 488 2.3019783839117736e-05</internalNodes>
          <leafValues>
            -1.5374761819839478e-01 2.0840141177177429e-01</leafValues></_>
        <_>
          <internalNodes>
            0 -1 435 -6.3413856551051140e-03</internalNodes>
          <leafValues>
            3.8422119617462158e-01 -7.2912253439426422e-02</leafValues></_>
        <_>
          <internalNodes>
            0 -1 431 8.4184476872906089e-04</internalNodes>
          <leafValues>
            6.4293228089809418e-02 -4.2452389001846313e-01</leafValues></_>
        <_>
          <internalNodes>
            0 -1 67 -9.6601573750376701e-04</internalNodes>
          <leafValues>
            2.9616802930831909e-01 -8.5094124078750610e-02</leafValues></_>
        <_>
          <internalNodes>
            0 -1 272 1.5578124439343810e-03</internalNodes>
          <leafValues>
            -6.7472785711288452e-02 3.6245006322860718e-01</leafValues></_>
        <_>
          <internalNodes>
            0 -1 117 -3.8389280438423157e-02</internalNodes>
          <leafValues>
            2.6800289750099182e-01 -9.3876302242279053e-02</leafValues></_>
        <_>
          <internalNodes>
            0 -1 309 -1.0185983410337940e-04</internalNodes>
          <leafValues>
            1.8730452656745911e-01 -1.4682145416736603e-01</leafValues></_>
        <_>
          <internalNodes>
            0 -1 357 6.8662716075778008e-03</internalNodes>
          <leafValues>
            6.5221637487411499e-02 -4.2080426216125488e-01</leafValues></_>
        <_>
          <internalNodes>
            0 -1 51 -3.0928237363696098e-02</internalNodes>
          <leafValues>
            -6.4246243238449097e-01 3.1612556427717209e-02</leafValues></_>
        <_>
          <internalNodes>
            0 -1 163 -1.5976150752976537e-03</internalNodes>
          <leafValues>
            4.1828620433807373e-01 -6.4716912806034088e-02</leafValues></_>
        <_>
          <internalNodes>
            0 -1 344 -4.6401061117649078e-02</internalNodes>
          <leafValues>
            -4.0383526682853699e-01 6.4810521900653839e-02</leafValues></_>
        <_>
          <internalNodes>
            0 -1 314 -1.0856105387210846e-01</internalNodes>
          <leafValues>
            7.1299141645431519e-01 -4.0201168507337570e-02</leafValues></_>
        <_>
          <internalNodes>
            0 -1 15 8.1395991146564484e-03</internalNodes>
          <leafValues>
            6.7643925547599792e-02 -4.1833537817001343e-01</leafValues></_>
        <_>
          <internalNodes>
            0 -1 243 -5.8070737868547440e-03</internalNodes>
          <leafValues>
            3.9304423332214355e-01 -7.2191111743450165e-02</leafValues></_>
        <_>
          <internalNodes>
            0 -1 397 -8.2856611697934568e-05</internalNodes>
          <leafValues>
            -2.4684959650039673e-01 1.0757094621658325e-01</leafValues></_>
        <_>
          <internalNodes>
            0 -1 430 8.0790137872099876e-04</internalNodes>
          <leafValues>
            6.5513879060745239e-02 -3.8384178280830383e-01</leafValues></_>
        <_>
          <internalNodes>
            0 -1 56 -9.0102311223745346e-03</internalNodes>
          <leafValues>
            -3.9050006866455078e-01 5.5214457213878632e-02</leafValues></_>
        <_>
          <internalNodes>
            0 -1 241 9.0057164430618286e-02</internalNodes>
          <leafValues>
            4.0335584431886673e-02 -5.9750592708587646e-01</leafValues></_>
        <_>
          <internalNodes>
            0 -1 34 -4.9828626215457916e-02</internalNodes>
          <leafValues>
            2.7358588576316833e-01 -9.8240360617637634e-02</leafValues></_>
        <_>
          <internalNodes>
            0 -1 147 1.9597018137574196e-02</internalNodes>
          <leafValues>
            -9.3152038753032684e-02 2.9817453026771545e-01</leafValues></_>
        <_>
          <internalNodes>
            0 -1 483 3.6638355231843889e-04</internalNodes>
          <leafValues>
            -9.5002487301826477e-02 2.6030644774436951e-01</leafValues></_>
        <_>
          <internalNodes>
            0 -1 401 8.1001706421375275e-03</internalNodes>
          <leafValues>
            -8.9178077876567841e-02 2.7615410089492798e-01</leafValues></_>
        <_>
          <internalNodes>
            0 -1 422 -1.4909288147464395e-03</internalNodes>
          <leafValues>
            2.1246807277202606e-01 -1.2101159244775772e-01</leafValues></_>
        <_>
          <internalNodes>
            0 -1 490 -2.7570086531341076e-03</internalNodes>
          <leafValues>
            -2.2716200351715088e-01 1.1068715900182724e-01</leafValues></_>
        <_>
          <internalNodes>
            0 -1 524 3.1367463525384665e-03</internalNodes>
          <leafValues>
            3.7466686218976974e-02 -6.3078904151916504e-01</leafValues></_>
        <_>
          <internalNodes>
            0 -1 36 -1.6456803679466248e-01</internalNodes>
          <leafValues>
            -8.7436199188232422e-01 2.4595653638243675e-02</leafValues></_>
        <_>
          <internalNodes>
            0 -1 492 -5.1437774673104286e-03</internalNodes>
          <leafValues>
            -3.0692309141159058e-01 7.8058138489723206e-02</leafValues></_>
        <_>
          <internalNodes>
            0 -1 227 2.1567444491665810e-05</internalNodes>
          <leafValues>
            -2.0333395898342133e-01 1.3140554726123810e-01</leafValues></_></weakClassifiers></_>
    <!-- stage 17 -->
    <_>
      <maxWeakCount>51</maxWeakCount>
      <stageThreshold>-1.2169932126998901e+00</stageThreshold>
      <weakClassifiers>
        <_>
          <internalNodes>
            0 -1 532 4.0507512167096138e-03</internalNodes>
          <leafValues>
            -2.5404754281044006e-01 2.8586822748184204e-01</leafValues></_>
        <_>
          <internalNodes>
            0 -1 391 -3.9580985903739929e-02</internalNodes>
          <leafValues>
            2.1141472458839417e-01 -2.1880963444709778e-01</leafValues></_>
        <_>
          <internalNodes>
            0 -1 185 5.2445787005126476e-03</internalNodes>
          <leafValues>
            -1.2855738401412964e-01 2.5173816084861755e-01</leafValues></_>
        <_>
          <internalNodes>
            0 -1 174 -4.9784959992393851e-04</internalNodes>
          <leafValues>
            1.0610573738813400e-01 -3.1641840934753418e-01</leafValues></_>
        <_>
          <internalNodes>
            0 -1 9 -5.2537443116307259e-03</internalNodes>
          <leafValues>
            1.5995073318481445e-01 -2.3106995224952698e-01</leafValues></_>
        <_>
          <internalNodes>
            0 -1 74 -5.0812633708119392e-03</internalNodes>
          <leafValues>
            1.3532926142215729e-01 -3.2309010624885559e-01</leafValues></_>
        <_>
          <internalNodes>
            0 -1 405 6.5655391663312912e-03</internalNodes>
          <leafValues>
            -8.4637284278869629e-02 4.5211389660835266e-01</leafValues></_>
        <_>
          <internalNodes>
            0 -1 43 -6.2530604191124439e-03</internalNodes>
          <leafValues>
            2.7293685078620911e-01 -1.0171477496623993e-01</leafValues></_>
        <_>
          <internalNodes>
            0 -1 71 8.3819701103493571e-04</internalNodes>
          <leafValues>
            -1.3084749877452850e-01 3.0983462929725647e-01</leafValues></_>
        <_>
          <internalNodes>
            0 -1 265 -3.7155475467443466e-02</internalNodes>
          <leafValues>
            2.3278336226940155e-01 -1.0866018384695053e-01</leafValues></_>
        <_>
          <internalNodes>
            0 -1 149 2.6133699342608452e-02</internalNodes>
          <leafValues>
            -1.9130244851112366e-01 2.0994095504283905e-01</leafValues></_>
        <_>
          <internalNodes>
            0 -1 208 -1.9455034285783768e-02</internalNodes>
          <leafValues>
            2.6812788844108582e-01 -1.3196030259132385e-01</leafValues></_>
        <_>
          <internalNodes>
            0 -1 205 -2.0582582801580429e-03</internalNodes>
          <leafValues>
            2.7101173996925354e-01 -1.1246252804994583e-01</leafValues></_>
        <_>
          <internalNodes>
            0 -1 94 1.4503842685371637e-03</internalNodes>
          <leafValues>
            7.8937575221061707e-02 -3.9458855986595154e-01</leafValues></_>
        <_>
          <internalNodes>
            0 -1 61 1.0697039961814880e-01</internalNodes>
          <leafValues>
            -9.8584800958633423e-02 3.5517010092735291e-01</leafValues></_>
        <_>
          <internalNodes>
            0 -1 429 -3.5340660251677036e-03</internalNodes>
          <leafValues>
            1.6189877688884735e-01 -2.1501350402832031e-01</leafValues></_>
        <_>
          <internalNodes>
            0 -1 427 -4.1131027042865753e-02</internalNodes>
          <leafValues>
            -7.4213886260986328e-01 2.7691565454006195e-02</leafValues></_>
        <_>
          <internalNodes>
            0 -1 363 -7.8215748071670532e-02</internalNodes>
          <leafValues>
            6.8607437610626221e-01 -4.3794311583042145e-02</leafValues></_>
        <_>
          <internalNodes>
            0 -1 552 2.0181429572403431e-03</internalNodes>
          <leafValues>
            7.8149102628231049e-02 -3.7796536087989807e-01</leafValues></_>
        <_>
          <internalNodes>
            0 -1 310 1.2005656957626343e-01</internalNodes>
          <leafValues>
            3.4023534506559372e-02 -7.7289640903472900e-01</leafValues></_>
        <_>
          <internalNodes>
            0 -1 531 -1.7886212095618248e-02</internalNodes>
          <leafValues>
            -4.4592219591140747e-01 4.9853496253490448e-02</leafValues></_>
        <_>
          <internalNodes>
            0 -1 3 -2.3693046532571316e-03</internalNodes>
          <leafValues>
            -3.9032727479934692e-01 6.0617737472057343e-02</leafValues></_>
        <_>
          <internalNodes>
            0 -1 469 -1.9270557095296681e-04</internalNodes>
          <leafValues>
            2.4387732148170471e-01 -1.0494836419820786e-01</leafValues></_>
        <_>
          <internalNodes>
            0 -1 473 -3.9974527317099273e-04</internalNodes>
          <leafValues>
            2.9348233342170715e-01 -8.3919450640678406e-02</leafValues></_>
        <_>
          <internalNodes>
            0 -1 25 4.5502033084630966e-02</internalNodes>
          <leafValues>
            3.0475988984107971e-02 -8.1685137748718262e-01</leafValues></_>
        <_>
          <internalNodes>
            0 -1 498 8.6817529518157244e-04</internalNodes>
          <leafValues>
            -1.1494056880474091e-01 2.2461186349391937e-01</leafValues></_>
        <_>
          <internalNodes>
            0 -1 496 -3.5081089008599520e-03</internalNodes>
          <leafValues>
            2.1045045554637909e-01 -1.2748508155345917e-01</leafValues></_>
        <_>
          <internalNodes>
            0 -1 485 1.1121286661364138e-05</internalNodes>
          <leafValues>
            -1.3321502506732941e-01 1.7522393167018890e-01</leafValues></_>
        <_>
          <internalNodes>
            0 -1 527 -5.8513053227216005e-04</internalNodes>
          <leafValues>
            -3.5046732425689697e-01 7.0584520697593689e-02</leafValues></_>
        <_>
          <internalNodes>
            0 -1 302 -1.1164775118231773e-02</internalNodes>
          <leafValues>
            -5.4908049106597900e-01 3.9402961730957031e-02</leafValues></_>
        <_>
          <internalNodes>
            0 -1 414 3.9337951689958572e-02</internalNodes>
          <leafValues>
            4.7968748956918716e-02 -4.8129707574844360e-01</leafValues></_>
        <_>
          <internalNodes>
            0 -1 436 -2.1947322238702327e-05</internalNodes>
          <leafValues>
            1.7441011965274811e-01 -1.4022560417652130e-01</leafValues></_>
        <_>
          <internalNodes>
            0 -1 421 -1.0201577097177505e-03</internalNodes>
          <leafValues>
            2.3171031475067139e-01 -1.0892751067876816e-01</leafValues></_>
        <_>
          <internalNodes>
            0 -1 385 6.3145637977868319e-04</internalNodes>
          <leafValues>
            9.1086812317371368e-02 -2.7971771359443665e-01</leafValues></_>
        <_>
          <internalNodes>
            0 -1 239 -1.4531312510371208e-02</internalNodes>
          <leafValues>
            4.0365403890609741e-01 -7.0847749710083008e-02</leafValues></_>
        <_>
          <internalNodes>
            0 -1 339 -1.8343572737649083e-03</internalNodes>
          <leafValues>
            -2.8331992030143738e-01 9.4013378024101257e-02</leafValues></_>
        <_>
          <internalNodes>
            0 -1 191 -3.3659014850854874e-02</internalNodes>
          <leafValues>
            2.7275592088699341e-01 -1.0531482100486755e-01</leafValues></_>
        <_>
          <internalNodes>
            0 -1 511 -2.2724638256477192e-05</internalNodes>
          <leafValues>
            1.6208203136920929e-01 -1.5116567909717560e-01</leafValues></_>
        <_>
          <internalNodes>
            0 -1 544 -9.9089071154594421e-03</internalNodes>
          <leafValues>
            -4.1207665205001831e-01 6.3037544488906860e-02</leafValues></_>
