<?xml version="1.0"?>
<opencv_storage>
<Cars2 type_id="opencv-haar-classifier">
  <size>
    24 24</size>
  <stages>
    <_>
      <trees>
        <_>
          <_>
            <feature>
              <rects>
                <_>
                  6 15 11 6 -1.</_>
                <_>
                  6 18 11 3 2.</_></rects>
              <tilted>0</tilted></feature>
            <threshold>-0.0230563394725323</threshold>
            <left_val>0.6333333849906921</left_val>
            <right_val>-0.5181819796562195</right_val></_></_>
        <_>
          <_>
            <feature>
              <rects>
                <_>
                  16 2 2 9 -1.</_>
                <_>
                  16 2 1 9 2.</_></rects>
              <tilted>1</tilted></feature>
            <threshold>8.6057689040899277e-003</threshold>
            <left_val>-0.0820910707116127</left_val>
            <right_val>0.3600187897682190</right_val></_></_>
        <_>
          <_>
            <feature>
              <rects>
                <_>
                  8 3 13 2 -1.</_>
                <_>
                  8 3 13 1 2.</_></rects>
              <tilted>1</tilted></feature>
            <threshold>5.0659948028624058e-003</threshold>
            <left_val>-0.5843651890754700</left_val>
            <right_val>0.6857690215110779</right_val></_></_>
        <_>
          <_>
            <feature>
              <rects>
                <_>
                  7 11 14 13 -1.</_>
                <_>
                  7 11 7 13 2.</_></rects>
              <tilted>0</tilted></feature>
            <threshold>-0.1432863026857376</threshold>
            <left_val>-0.8742740154266357</left_val>
            <right_val>0.1668529063463211</right_val></_></_>
        <_>
          <_>
            <feature>
              <rects>
                <_>
                  3 11 14 13 -1.</_>
                <_>
                  10 11 7 13 2.</_></rects>
              <tilted>0</tilted></feature>
            <threshold>-0.0652917623519897</threshold>
            <left_val>-0.8463546037673950</left_val>
            <right_val>0.3736996054649353</right_val></_></_>
        <_>
          <_>
            <feature>
              <rects>
                <_>
                  11 16 9 3 -1.</_>
                <_>
                  11 17 9 1 3.</_></rects>
              <tilted>0</tilted></feature>
            <threshold>5.6850272230803967e-003</threshold>
            <left_val>-0.1642156988382340</left_val>
            <right_val>0.6830087900161743</right_val></_></_>
        <_>
          <_>
            <feature>
              <rects>
                <_>
                  4 16 9 3 -1.</_>
                <_>
                  4 17 9 1 3.</_></rects>
              <tilted>0</tilted></feature>
            <threshold>-4.8528378829360008e-003</threshold>
            <left_val>0.9179109930992127</left_val>
            <right_val>-0.4103088080883026</right_val></_></_>
        <_>
          <_>
            <feature>
              <rects>
                <_>
                  8 6 8 6 -1.</_>
                <_>
                  8 8 8 2 3.</_></rects>
              <tilted>0</tilted></feature>
            <threshold>-0.0192672908306122</threshold>
            <left_val>0.8295434117317200</left_val>
            <right_val>-0.2072089016437531</right_val></_></_>
        <_>
          <_>
            <feature>
              <rects>
                <_>
                  6 1 8 12 -1.</_>
                <_>
                  8 1 4 12 2.</_></rects>
              <tilted>0</tilted></feature>
            <threshold>9.5392055809497833e-003</threshold>
            <left_val>-0.2942594885826111</left_val>
            <right_val>0.7137072086334229</right_val></_></_></trees>
      <stage_threshold>-0.7806509137153626</stage_threshold>
      <parent>-1</parent>
      <next>-1</next></_>
    <_>
      <trees>
        <_>
          <_>
            <feature>
              <rects>
                <_>
                  1 13 19 4 -1.</_>
                <_>
                  1 14 19 2 2.</_></rects>
              <tilted>0</tilted></feature>
            <threshold>8.5596051067113876e-003</threshold>
            <left_val>-0.3287197947502136</left_val>
            <right_val>0.8558561205863953</right_val></_></_>
        <_>
          <_>
            <feature>
              <rects>
                <_>
                  4 11 19 4 -1.</_>
                <_>
                  4 12 19 2 2.</_></rects>
              <tilted>0</tilted></feature>
            <threshold>0.0113880103453994</threshold>
            <left_val>-0.2407744973897934</left_val>
            <right_val>0.7848296165466309</right_val></_></_>
        <_>
          <_>
            <feature>
              <rects>
                <_>
                  0 16 24 8 -1.</_>
                <_>
                  6 16 12 8 2.</_></rects>
              <tilted>0</tilted></feature>
            <threshold>-0.0304329395294189</threshold>
            <left_val>0.5144658088684082</left_val>
            <right_val>-0.5334674715995789</right_val></_></_>
        <_>
          <_>
            <feature>
              <rects>
                <_>
                  7 16 14 4 -1.</_>
                <_>
                  7 18 14 2 2.</_></rects>
              <tilted>0</tilted></feature>
            <threshold>-0.0283064804971218</threshold>
            <left_val>0.6844580173492432</left_val>
            <right_val>-0.2755140960216522</right_val></_></_>
        <_>
          <_>
            <feature>
              <rects>
                <_>
                  2 1 16 10 -1.</_>
                <_>
                  2 1 8 5 2.</_>
                <_>
                  10 6 8 5 2.</_></rects>
              <tilted>0</tilted></feature>
            <threshold>-3.2879339996725321e-003</threshold>
            <left_val>0.4868786036968231</left_val>
            <right_val>-0.5079271197319031</right_val></_></_>
        <_>
          <_>
            <feature>
              <rects>
                <_>
                  16 1 3 3 -1.</_>
                <_>
                  17 2 1 1 9.</_></rects>
              <tilted>0</tilted></feature>
            <threshold>2.8967489488422871e-003</threshold>
            <left_val>-0.0944283977150917</left_val>
            <right_val>0.5422937870025635</right_val></_></_>
        <_>
          <_>
            <feature>
              <rects>
                <_>
                  0 4 11 6 -1.</_>
                <_>
                  0 7 11 3 2.</_></rects>
              <tilted>0</tilted></feature>
            <threshold>-1.9867219962179661e-003</threshold>
            <left_val>0.4685505926609039</left_val>
            <right_val>-0.5254970192909241</right_val></_></_>
        <_>
          <_>
            <feature>
              <rects>
                <_>
                  9 10 11 4 -1.</_>
                <_>
                  9 11 11 2 2.</_></rects>
              <tilted>0</tilted></feature>
            <threshold>-6.9297081790864468e-003</threshold>
            <left_val>0.7257968783378601</left_val>
            <right_val>-0.3702178895473480</right_val></_></_>
        <_>
          <_>
            <feature>
              <rects>
                <_>
                  3 10 18 3 -1.</_>
                <_>
                  3 11 18 1 3.</_></rects>
              <tilted>0</tilted></feature>
            <threshold>4.4098128564655781e-003</threshold>
            <left_val>-0.3634600937366486</left_val>
            <right_val>0.6831238269805908</right_val></_></_>
        <_>
          <_>
            <feature>
              <rects>
                <_>
                  3 8 21 3 -1.</_>
                <_>
                  3 9 21 1 3.</_></rects>
              <tilted>0</tilted></feature>
            <threshold>9.9537856876850128e-003</threshold>
            <left_val>-0.2426287978887558</left_val>
            <right_val>0.8422380089759827</right_val></_></_>
        <_>
          <_>
            <feature>
              <rects>
                <_>
                  1 11 5 4 -1.</_>
                <_>
                  1 12 5 2 2.</_></rects>
              <tilted>0</tilted></feature>
            <threshold>1.3322579907253385e-003</threshold>
            <left_val>-0.4672101140022278</left_val>
            <right_val>0.6971865892410278</right_val></_></_></trees>
      <stage_threshold>-0.7965952157974243</stage_threshold>
      <parent>0</parent>
      <next>-1</next></_>
    <_>
      <trees>
        <_>
          <_>
            <feature>
              <rects>
                <_>
                  10 5 12 4 -1.</_>
                <_>
                  13 8 6 4 2.</_></rects>
              <tilted>1</tilted></feature>
            <threshold>0.0556286685168743</threshold>
            <left_val>-0.3170731961727142</left_val>
            <right_val>0.8053100109100342</right_val></_></_>
        <_>
          <_>
            <feature>
              <rects>
                <_>
                  12 3 8 10 -1.</_>
                <_>
                  16 3 4 5 2.</_>
                <_>
                  12 8 4 5 2.</_></rects>
              <tilted>0</tilted></feature>
            <threshold>-0.0259145591408014</threshold>
            <left_val>0.3799982070922852</left_val>
            <right_val>-0.0326717793941498</right_val></_></_>
        <_>
          <_>
            <feature>
              <rects>
                <_>
                  5 2 8 14 -1.</_>
                <_>
                  5 2 4 7 2.</_>
                <_>
                  9 9 4 7 2.</_></rects>
              <tilted>0</tilted></feature>
            <threshold>-9.0814847499132156e-003</threshold>
            <left_val>0.4104784131050110</left_val>
            <right_val>-0.5276200771331787</right_val></_></_>
        <_>
          <_>
            <feature>
              <rects>
                <_>
                  9 9 12 6 -1.</_>
                <_>
                  13 11 4 2 9.</_></rects>
              <tilted>0</tilted></feature>
            <threshold>-0.0559410005807877</threshold>
            <left_val>0.4510073065757752</left_val>
            <right_val>-0.1864559054374695</right_val></_></_>
        <_>
          <_>
            <feature>
              <rects>
                <_>
                  10 4 14 6 -1.</_>
                <_>
                  10 4 14 3 2.</_></rects>
              <tilted>1</tilted></feature>
            <threshold>0.0874735116958618</threshold>
            <left_val>-0.2211468070745468</left_val>
            <right_val>0.7557128071784973</right_val></_></_>
        <_>
          <_>
            <feature>
              <rects>
                <_>
                  12 0 1 8 -1.</_>
                <_>
                  10 2 1 4 2.</_></rects>
              <tilted>1</tilted></feature>
            <threshold>0.0141749596223235</threshold>
            <left_val>9.6856467425823212e-003</left_val>
            <right_val>0.5082365274429321</right_val></_></_>
        <_>
          <_>
            <feature>
              <rects>
                <_>
                  2 6 15 6 -1.</_>
                <_>
                  7 8 5 2 9.</_></rects>
              <tilted>0</tilted></feature>
            <threshold>-0.0804575234651566</threshold>
            <left_val>0.6610677242279053</left_val>
            <right_val>-0.2973681092262268</right_val></_></_>
        <_>
          <_>
            <feature>
              <rects>
                <_>
                  21 19 2 3 -1.</_>
                <_>
                  21 19 1 3 2.</_></rects>
              <tilted>1</tilted></feature>
            <threshold>-3.5491550806909800e-003</threshold>
            <left_val>0.3628025949001312</left_val>
            <right_val>-0.0811185836791992</right_val></_></_>
        <_>
          <_>
            <feature>
              <rects>
                <_>
                  3 19 3 2 -1.</_>
                <_>
                  3 19 3 1 2.</_></rects>
              <tilted>1</tilted></feature>
            <threshold>-5.1055039511993527e-004</threshold>
            <left_val>0.3599723875522614</left_val>
            <right_val>-0.4882834851741791</right_val></_></_>
        <_>
          <_>
            <feature>
              <rects>
                <_>
                  12 0 1 8 -1.</_>
                <_>
                  10 2 1 4 2.</_></rects>
              <tilted>1</tilted></feature>
            <threshold>-0.0133078601211309</threshold>
            <left_val>0.5386675000190735</left_val>
            <right_val>-0.0295162498950958</right_val></_></_></trees>
      <stage_threshold>-0.8207998871803284</stage_threshold>
      <parent>1</parent>
      <next>-1</next></_>
    <_>
      <trees>
        <_>
          <_>
            <feature>
              <rects>
                <_>
                  11 8 9 2 -1.</_>
                <_>
                  14 11 3 2 3.</_></rects>
              <tilted>1</tilted></feature>
            <threshold>0.0483767203986645</threshold>
            <left_val>-0.2048929929733276</left_val>
            <right_val>0.9178087115287781</right_val></_></_>
        <_>
          <_>
            <feature>
              <rects>
                <_>
                  8 0 8 9 -1.</_>
                <_>
                  8 3 8 3 3.</_></rects>
              <tilted>0</tilted></feature>
            <threshold>0.0273169800639153</threshold>
            <left_val>-0.2704088985919952</left_val>
            <right_val>0.5963016152381897</right_val></_></_>
        <_>
          <_>
            <feature>
              <rects>
                <_>
                  12 3 10 4 -1.</_>
                <_>
                  11 4 10 2 2.</_></rects>
              <tilted>1</tilted></feature>
            <threshold>5.8157811872661114e-003</threshold>
            <left_val>-0.3911223113536835</left_val>
            <right_val>0.4608294963836670</right_val></_></_>
        <_>
          <_>
            <feature>
              <rects>
                <_>
                  22 20 2 2 -1.</_>
                <_>
                  22 20 1 2 2.</_></rects>
              <tilted>1</tilted></feature>
            <threshold>1.4997440157458186e-003</threshold>
            <left_val>0.0611429400742054</left_val>
            <right_val>-0.5562106966972351</right_val></_></_>
        <_>
          <_>
            <feature>
              <rects>
                <_>
                  2 20 2 2 -1.</_>
                <_>
                  2 20 2 1 2.</_></rects>
              <tilted>1</tilted></feature>
            <threshold>-1.9096019968856126e-004</threshold>
            <left_val>0.4228484928607941</left_val>
            <right_val>-0.4227020144462585</right_val></_></_>
        <_>
          <_>
            <feature>
              <rects>
                <_>
                  6 8 13 4 -1.</_>
                <_>
                  6 9 13 2 2.</_></rects>
              <tilted>0</tilted></feature>
            <threshold>0.0131502402946353</threshold>
            <left_val>-0.2548679113388062</left_val>
            <right_val>0.6370115280151367</right_val></_></_>
        <_>
          <_>
            <feature>
              <rects>
                <_>
                  0 15 1 8 -1.</_>
                <_>
                  0 19 1 4 2.</_></rects>
              <tilted>0</tilted></feature>
            <threshold>-1.7183760064654052e-004</threshold>
            <left_val>0.4009929895401001</left_val>
            <right_val>-0.4898285865783691</right_val></_></_>
        <_>
          <_>
            <feature>
              <rects>
                <_>
                  14 0 6 16 -1.</_>
                <_>
                  16 0 2 16 3.</_></rects>
              <tilted>0</tilted></feature>
            <threshold>0.0337510108947754</threshold>
            <left_val>-0.2326734960079193</left_val>
            <right_val>0.9999995827674866</right_val></_></_>
        <_>
          <_>
            <feature>
              <rects>
                <_>
                  5 3 12 20 -1.</_>
                <_>
                  9 3 4 20 3.</_></rects>
              <tilted>0</tilted></feature>
            <threshold>0.0131866503506899</threshold>
            <left_val>-0.4381577968597412</left_val>
            <right_val>0.4853439033031464</right_val></_></_>
        <_>
          <_>
            <feature>
              <rects>
                <_>
                  12 0 1 12 -1.</_>
                <_>
                  12 0 1 6 2.</_></rects>
              <tilted>1</tilted></feature>
            <threshold>9.0364757925271988e-003</threshold>
            <left_val>-0.3242622017860413</left_val>
            <right_val>0.1937184035778046</right_val></_></_>
        <_>
          <_>
            <feature>
              <rects>
                <_>
                  1 23 10 1 -1.</_>
                <_>
                  6 23 5 1 2.</_></rects>
              <tilted>0</tilted></feature>
            <threshold>-3.4691678592935205e-005</threshold>
            <left_val>0.4480803012847900</left_val>
            <right_val>-0.6962171792984009</right_val></_></_>
        <_>
          <_>
            <feature>
              <rects>
                <_>
                  23 12 1 6 -1.</_>
                <_>
                  23 15 1 3 2.</_></rects>
              <tilted>0</tilted></feature>
            <threshold>-2.7062210720032454e-003</threshold>
            <left_val>-0.9300667047500610</left_val>
            <right_val>0.0248316191136837</right_val></_></_></trees>
      <stage_threshold>-1.3848060369491577</stage_threshold>
      <parent>2</parent>
      <next>-1</next></_>
    <_>
      <trees>
        <_>
          <_>
            <feature>
              <rects>
                <_>
                  3 14 17 8 -1.</_>
                <_>
                  3 18 17 4 2.</_></rects>
              <tilted>0</tilted></feature>
            <threshold>-0.1077881976962090</threshold>
            <left_val>0.6000000834465027</left_val>
            <right_val>-0.2888889908790588</right_val></_></_>
        <_>
          <_>
            <feature>
              <rects>
                <_>
                  20 0 4 15 -1.</_>
                <_>
                  20 5 4 5 3.</_></rects>
              <tilted>0</tilted></feature>
            <threshold>6.2050792621448636e-004</threshold>
            <left_val>-0.3169274032115936</left_val>
            <right_val>0.3807660043239594</right_val></_></_>
        <_>
          <_>
            <feature>
              <rects>
                <_>
                  1 0 3 15 -1.</_>
                <_>
                  1 5 3 5 3.</_></rects>
              <tilted>0</tilted></feature>
            <threshold>-0.0182483792304993</threshold>
            <left_val>-0.7153956890106201</left_val>
            <right_val>0.2564710974693298</right_val></_></_>
        <_>
          <_>
            <feature>
              <rects>
                <_>
                  12 9 4 4 -1.</_>
                <_>
                  12 10 4 2 2.</_></rects>
              <tilted>0</tilted></feature>
            <threshold>-7.8909900039434433e-003</threshold>
            <left_val>0.8086156845092773</left_val>
            <right_val>-0.1318912059068680</right_val></_></_>
        <_>
          <_>
            <feature>
              <rects>
                <_>
                  4 9 12 4 -1.</_>
                <_>
                  4 10 12 2 2.</_></rects>
              <tilted>0</tilted></feature>
            <threshold>0.0166395790874958</threshold>
            <left_val>-0.2963257133960724</left_val>
            <right_val>0.8494278788566589</right_val></_></_>
        <_>
          <_>
            <feature>
              <rects>
                <_>
                  17 2 5 6 -1.</_>
                <_>
                  15 4 5 2 3.</_></rects>
              <tilted>1</tilted></feature>
            <threshold>6.1595318838953972e-003</threshold>
            <left_val>-0.2753543853759766</left_val>
            <right_val>0.4249286055564880</right_val></_></_>
        <_>
          <_>
            <feature>
              <rects>
                <_>
                  0 2 20 4 -1.</_>
                <_>
                  0 3 20 2 2.</_></rects>
              <tilted>0</tilted></feature>
            <threshold>5.2714431658387184e-003</threshold>
            <left_val>-0.4124830961227417</left_val>
            <right_val>0.4970259070396423</right_val></_></_>
        <_>
          <_>
            <feature>
              <rects>
                <_>
                  17 2 5 6 -1.</_>
                <_>
                  15 4 5 2 3.</_></rects>
              <tilted>1</tilted></feature>
            <threshold>-0.0109075196087360</threshold>
            <left_val>0.3870364129543304</left_val>
            <right_val>-0.2922503948211670</right_val></_></_>
        <_>
          <_>
            <feature>
              <rects>
                <_>
                  7 2 6 5 -1.</_>
                <_>
                  9 4 2 5 3.</_></rects>
              <tilted>1</tilted></feature>
            <threshold>7.5032948516309261e-003</threshold>
            <left_val>-0.3523316979408264</left_val>
            <right_val>0.6285148262977600</right_val></_></_>
        <_>
          <_>
            <feature>
              <rects>
                <_>
                  15 2 9 3 -1.</_>
                <_>
                  14 3 9 1 3.</_></rects>
              <tilted>1</tilted></feature>
            <threshold>3.4864289773395285e-005</threshold>
            <left_val>-0.3607248961925507</left_val>
            <right_val>0.2252628058195114</right_val></_></_>
        <_>
          <_>
            <feature>
              <rects>
                <_>
                  12 11 11 2 -1.</_>
                <_>
                  12 11 11 1 2.</_></rects>
              <tilted>1</tilted></feature>
            <threshold>1.8022269941866398e-003</threshold>
            <left_val>-0.6069954037666321</left_val>
            <right_val>0.5455427169799805</right_val></_></_>
        <_>
          <_>
            <feature>
              <rects>
                <_>
                  12 4 1 12 -1.</_>
                <_>
                  12 4 1 6 2.</_></rects>
              <tilted>1</tilted></feature>
            <threshold>3.2536899670958519e-003</threshold>
            <left_val>-0.6213470101356506</left_val>
            <right_val>0.2806388139724731</right_val></_></_>
        <_>
          <_>
            <feature>
              <rects>
                <_>
                  0 14 2 8 -1.</_>
                <_>
                  0 18 2 4 2.</_></rects>
              <tilted>0</tilted></feature>
            <threshold>-7.8604638110846281e-004</threshold>
            <left_val>0.6052554845809937</left_val>
            <right_val>-0.8265007734298706</right_val></_></_>
        <_>
          <_>
            <feature>
              <rects>
                <_>
                  5 0 16 4 -1.</_>
                <_>
                  5 0 8 4 2.</_></rects>
              <tilted>0</tilted></feature>
            <threshold>-3.2801940105855465e-003</threshold>
            <left_val>0.4799492061138153</left_val>
            <right_val>-0.5037708878517151</right_val></_></_></trees>
      <stage_threshold>-1.6136000156402588</stage_threshold>
      <parent>3</parent>
      <next>-1</next></_>
    <_>
      <trees>
        <_>
          <_>
            <feature>
              <rects>
                <_>
                  7 4 16 3 -1.</_>
                <_>
                  11 8 8 3 2.</_></rects>
              <tilted>1</tilted></feature>
            <threshold>0.0476967915892601</threshold>
            <left_val>-0.3443984091281891</left_val>
            <right_val>0.5220128297805786</right_val></_></_>
        <_>
          <_>
            <feature>
              <rects>
                <_>
                  12 22 10 1 -1.</_>
                <_>
                  12 22 5 1 2.</_></rects>
              <tilted>0</tilted></feature>
            <threshold>-5.2190418500686064e-005</threshold>
            <left_val>0.1764591932296753</left_val>
            <right_val>-0.3737528026103973</right_val></_></_>
        <_>
          <_>
            <feature>
              <rects>
                <_>
                  8 2 8 2 -1.</_>
                <_>
                  8 2 8 1 2.</_></rects>
              <tilted>1</tilted></feature>
            <threshold>4.9043311737477779e-003</threshold>
            <left_val>-0.4089348912239075</left_val>
            <right_val>0.4124386906623840</right_val></_></_>
        <_>
          <_>
            <feature>
              <rects>
                <_>
                  9 10 13 12 -1.</_>
                <_>
                  9 13 13 6 2.</_></rects>
              <tilted>0</tilted></feature>
            <threshold>-0.0647801011800766</threshold>
            <left_val>0.7550861239433289</left_val>
            <right_val>-0.2011543959379196</right_val></_></_>
        <_>
          <_>
            <feature>
              <rects>
                <_>
                  4 17 11 4 -1.</_>
                <_>
                  4 19 11 2 2.</_></rects>
              <tilted>0</tilted></feature>
            <threshold>-5.4297321476042271e-003</threshold>
            <left_val>0.4137572944164276</left_val>
            <right_val>-0.5183820724487305</right_val></_></_>
        <_>
          <_>
            <feature>
              <rects>
                <_>
                  15 18 8 6 -1.</_>
                <_>
                  15 20 8 2 3.</_></rects>
              <tilted>0</tilted></feature>
            <threshold>1.6337080160155892e-003</threshold>
            <left_val>-0.2011379003524780</left_val>
            <right_val>0.2658053040504456</right_val></_></_>
        <_>
          <_>
            <feature>
              <rects>
                <_>
                  4 8 6 1 -1.</_>
                <_>
                  4 8 3 1 2.</_></rects>
              <tilted>1</tilted></feature>
            <threshold>6.7351190373301506e-003</threshold>
            <left_val>-0.2759513854980469</left_val>
            <right_val>0.6970995068550110</right_val></_></_>
        <_>
          <_>
            <feature>
              <rects>
                <_>
                  18 1 4 2 -1.</_>
                <_>
                  19 1 2 2 2.</_></rects>
              <tilted>0</tilted></feature>
            <threshold>7.0108810905367136e-004</threshold>
            <left_val>-0.2661744058132172</left_val>
            <right_val>0.3966433107852936</right_val></_></_>
        <_>
          <_>
            <feature>
              <rects>
                <_>
                  3 6 13 6 -1.</_>
                <_>
                  3 8 13 2 3.</_></rects>
              <tilted>0</tilted></feature>
            <threshold>-0.0148397898301482</threshold>
            <left_val>0.5704885125160217</left_val>
            <right_val>-0.5356677174568176</right_val></_></_>
        <_>
          <_>
            <feature>
              <rects>
                <_>
                  11 6 5 6 -1.</_>
                <_>
                  11 8 5 2 3.</_></rects>
              <tilted>0</tilted></feature>
            <threshold>3.8327730726450682e-003</threshold>
            <left_val>-0.3221993148326874</left_val>
            <right_val>0.6707112789154053</right_val></_></_>
        <_>
          <_>
            <feature>
              <rects>
                <_>
                  12 14 1 8 -1.</_>
                <_>
                  10 16 1 4 2.</_></rects>
              <tilted>1</tilted></feature>
            <threshold>-1.2060150038450956e-003</threshold>
            <left_val>0.4917575120925903</left_val>
            <right_val>-0.6567332148551941</right_val></_></_>
        <_>
          <_>
            <feature>
              <rects>
                <_>
                  13 5 8 16 -1.</_>
                <_>
                  15 5 4 16 2.</_></rects>
              <tilted>0</tilted></feature>
            <threshold>0.0101980697363615</threshold>
            <left_val>-0.2939262092113495</left_val>
            <right_val>0.4874936044216156</right_val></_></_>
        <_>
          <_>
            <feature>
              <rects>
                <_>
                  3 5 8 17 -1.</_>
                <_>
                  5 5 4 17 2.</_></rects>
              <tilted>0</tilted></feature>
            <threshold>8.4441965445876122e-003</threshold>
            <left_val>-0.5428357720375061</left_val>
            <right_val>0.7482364773750305</right_val></_></_>
        <_>
          <_>
            <feature>
              <rects>
                <_>
                  5 0 15 7 -1.</_>
                <_>
                  10 0 5 7 3.</_></rects>
              <tilted>0</tilted></feature>
            <threshold>6.6448971629142761e-003</threshold>
            <left_val>-0.8175212144851685</left_val>
            <right_val>0.5370163917541504</right_val></_></_>
        <_>
          <_>
            <feature>
              <rects>
                <_>
                  4 2 6 1 -1.</_>
                <_>
                  6 2 2 1 3.</_></rects>
              <tilted>0</tilted></feature>
            <threshold>1.2712999887298793e-004</threshold>
            <left_val>-0.8590940833091736</left_val>
            <right_val>0.6692504286766052</right_val></_></_>
        <_>
          <_>
            <feature>
              <rects>
                <_>
                  15 23 6 1 -1.</_>
                <_>
                  15 23 3 1 2.</_></rects>
              <tilted>0</tilted></feature>
            <threshold>-1.0185720020672306e-004</threshold>
            <left_val>0.5256028771400452</left_val>
            <right_val>-0.8769086003303528</right_val></_></_>
        <_>
          <_>
            <feature>
              <rects>
                <_>
                  7 3 2 3 -1.</_>
                <_>
                  8 3 1 3 2.</_></rects>
              <tilted>0</tilted></feature>
            <threshold>1.5662659279769287e-005</threshold>
            <left_val>-0.8621513247489929</left_val>
            <right_val>0.6802359223365784</right_val></_></_>
        <_>
          <_>
            <feature>
              <rects>
                <_>
                  11 22 8 1 -1.</_>
                <_>
                  11 22 4 1 2.</_></rects>
              <tilted>0</tilted></feature>
            <threshold>2.2655900465906598e-005</threshold>
            <left_val>-0.8099979162216187</left_val>
            <right_val>0.3864406049251556</right_val></_></_>
        <_>
          <_>
            <feature>
              <rects>
                <_>
                  4 22 15 1 -1.</_>
                <_>
                  9 22 5 1 3.</_></rects>
              <tilted>0</tilted></feature>
            <threshold>-4.1497849451843649e-005</threshold>
            <left_val>0.7856879234313965</left_val>
            <right_val>-0.9585716128349304</right_val></_></_></trees>
      <stage_threshold>-1.7574000358581543</stage_threshold>
      <parent>4</parent>
      <next>-1</next></_>
    <_>
      <trees>
        <_>
          <_>
            <feature>
              <rects>
                <_>
                  2 0 20 6 -1.</_>
                <_>
                  2 2 20 2 3.</_></rects>
              <tilted>0</tilted></feature>
            <threshold>0.0190514903515577</threshold>
            <left_val>-0.2900764048099518</left_val>
            <right_val>0.5507249236106873</right_val></_></_>
        <_>
          <_>
            <feature>
              <rects>
                <_>
                  17 3 2 12 -1.</_>
                <_>
                  17 3 1 12 2.</_></rects>
              <tilted>0</tilted></feature>
            <threshold>0.0131296096369624</threshold>
            <left_val>-0.1744437068700790</left_val>
            <right_val>0.8452311754226685</right_val></_></_>
        <_>
          <_>
            <feature>
              <rects>
                <_>
                  7 4 10 3 -1.</_>
                <_>
                  6 5 10 1 3.</_></rects>
              <tilted>1</tilted></feature>
            <threshold>-2.0412329831742682e-005</threshold>
            <left_val>0.3495101034641266</left_val>
            <right_val>-0.6531301140785217</right_val></_></_>
        <_>
          <_>
            <feature>
              <rects>
                <_>
                  22 13 2 9 -1.</_>
                <_>
                  22 13 1 9 2.</_></rects>
              <tilted>0</tilted></feature>
            <threshold>3.4390988730592653e-005</threshold>
            <left_val>-0.2728489041328430</left_val>
            <right_val>0.3471032083034515</right_val></_></_>
        <_>
          <_>
            <feature>
              <rects>
                <_>
                  0 15 2 8 -1.</_>
                <_>
                  1 15 1 8 2.</_></rects>
              <tilted>0</tilted></feature>
            <threshold>-6.1173450376372784e-005</threshold>
            <left_val>0.3863692879676819</left_val>
            <right_val>-0.6295636892318726</right_val></_></_>
        <_>
          <_>
            <feature>
              <rects>
                <_>
                  9 15 11 6 -1.</_>
                <_>
                  9 18 11 3 2.</_></rects>
              <tilted>0</tilted></feature>
            <threshold>-0.0447460599243641</threshold>
            <left_val>0.4533135890960693</left_val>
            <right_val>-0.2910015881061554</right_val></_></_>
        <_>
          <_>
            <feature>
              <rects>
                <_>
                  7 9 6 12 -1.</_>
                <_>
                  9 13 2 4 9.</_></rects>
              <tilted>0</tilted></feature>
            <threshold>-0.0219285897910595</threshold>
            <left_val>0.6327841281890869</left_val>
            <right_val>-0.3334935903549194</right_val></_></_>
        <_>
          <_>
            <feature>
              <rects>
                <_>
                  15 10 1 8 -1.</_>
                <_>
                  13 12 1 4 2.</_></rects>
              <tilted>1</tilted></feature>
            <threshold>9.6488948911428452e-003</threshold>
            <left_val>-0.1052457019686699</left_val>
            <right_val>0.5709199905395508</right_val></_></_>
        <_>
          <_>
            <feature>
              <rects>
                <_>
                  3 22 12 2 -1.</_>
                <_>
                  7 22 4 2 3.</_></rects>
              <tilted>0</tilted></feature>
            <threshold>-6.4589822432026267e-004</threshold>
            <left_val>0.2897782027721405</left_val>
            <right_val>-0.5980591773986816</right_val></_></_>
        <_>
          <_>
            <feature>
              <rects>
                <_>
                  2 18 20 6 -1.</_>
                <_>
                  2 20 20 2 3.</_></rects>
              <tilted>0</tilted></feature>
            <threshold>0.0196223203092813</threshold>
            <left_val>-0.2529681921005249</left_val>
            <right_val>0.7239580154418945</right_val></_></_>
        <_>
          <_>
            <feature>
              <rects>
                <_>
                  3 17 10 4 -1.</_>
                <_>
                  3 19 10 2 2.</_></rects>
              <tilted>0</tilted></feature>
            <threshold>-5.2384361624717712e-003</threshold>
            <left_val>0.4173093140125275</left_val>
            <right_val>-0.5533599257469177</right_val></_></_>
        <_>
          <_>
            <feature>
              <rects>
                <_>
                  18 9 6 9 -1.</_>
                <_>
                  15 12 6 3 3.</_></rects>
              <tilted>1</tilted></feature>
            <threshold>-0.0286278706043959</threshold>
            <left_val>0.4379914104938507</left_val>
            <right_val>-0.1537974029779434</right_val></_></_>
        <_>
          <_>
            <feature>
              <rects>
                <_>
                  0 0 12 8 -1.</_>
                <_>
                  0 0 6 4 2.</_>
                <_>
                  6 4 6 4 2.</_></rects>
              <tilted>0</tilted></feature>
            <threshold>-6.9870380684733391e-003</threshold>
            <left_val>0.6240351200103760</left_val>
            <right_val>-0.3387180864810944</right_val></_></_>
        <_>
          <_>
            <feature>
              <rects>
                <_>
                  15 8 3 6 -1.</_>
                <_>
                  15 10 3 2 3.</_></rects>
              <tilted>0</tilted></feature>
            <threshold>-3.7861349992454052e-003</threshold>
            <left_val>0.4930005967617035</left_val>
            <right_val>-0.2240539044141769</right_val></_></_>
        <_>
          <_>
            <feature>
              <rects>
                <_>
                  7 20 10 4 -1.</_>
                <_>
                  7 21 10 2 2.</_></rects>
              <tilted>0</tilted></feature>
            <threshold>-0.0150432903319597</threshold>
            <left_val>0.8065270781517029</left_val>
            <right_val>-0.2192144989967346</right_val></_></_></trees>
      <stage_threshold>-1.1423710584640503</stage_threshold>
      <parent>5</parent>
      <next>-1</next></_>
    <_>
      <trees>
        <_>
          <_>
            <feature>
              <rects>
                <_>
                  4 4 9 9 -1.</_>
                <_>
                  7 7 3 3 9.</_></rects>
              <tilted>0</tilted></feature>
            <threshold>-0.0848184004426003</threshold>
            <left_val>0.7321429252624512</left_val>
            <right_val>-0.2847222983837128</right_val></_></_>
        <_>
          <_>
            <feature>
              <rects>
                <_>
                  16 19 8 5 -1.</_>
                <_>
                  16 19 4 5 2.</_></rects>
              <tilted>0</tilted></feature>
            <threshold>-5.3120711818337440e-003</threshold>
            <left_val>0.2524127960205078</left_val>
            <right_val>-0.2587811946868897</right_val></_></_>
        <_>
          <_>
            <feature>
              <rects>
                <_>
                  2 16 4 2 -1.</_>
                <_>
                  2 16 4 1 2.</_></rects>
              <tilted>1</tilted></feature>
            <threshold>-2.5281749549321830e-004</threshold>
            <left_val>0.4005819857120514</left_val>
            <right_val>-0.3843758106231690</right_val></_></_>
        <_>
          <_>
            <feature>
              <rects>
                <_>
                  13 23 2 1 -1.</_>
                <_>
                  13 23 1 1 2.</_></rects>
              <tilted>0</tilted></feature>
            <threshold>-7.1603758260607719e-004</threshold>
            <left_val>-0.7715827822685242</left_val>
            <right_val>0.0611312985420227</right_val></_></_>
        <_>
          <_>
            <feature>
              <rects>
                <_>
                  0 6 21 5 -1.</_>
                <_>
                  7 6 7 5 3.</_></rects>
              <tilted>0</tilted></feature>
            <threshold>6.9248420186340809e-003</threshold>
            <left_val>-0.4363814890384674</left_val>
            <right_val>0.4060876071453095</right_val></_></_>
        <_>
          <_>
            <feature>
              <rects>
                <_>
                  5 6 14 9 -1.</_>
                <_>
                  5 9 14 3 3.</_></rects>
              <tilted>0</tilted></feature>
            <threshold>-0.0431538112461567</threshold>
            <left_val>0.7321441173553467</left_val>
            <right_val>-0.2844823002815247</right_val></_></_>
        <_>
          <_>
            <feature>
              <rects>
                <_>
                  10 0 3 6 -1.</_>
                <_>
                  10 2 3 2 3.</_></rects>
              <tilted>0</tilted></feature>
            <threshold>0.0125331301242113</threshold>
            <left_val>-0.2449650019407272</left_val>
            <right_val>0.7403876185417175</right_val></_></_>
        <_>
          <_>
            <feature>
              <rects>
                <_>
                  19 22 2 2 -1.</_>
                <_>
                  19 22 1 2 2.</_></rects>
              <tilted>0</tilted></feature>
            <threshold>-2.7542530006030574e-005</threshold>
            <left_val>0.1125297024846077</left_val>
            <right_val>-0.2524195909500122</right_val></_></_>
        <_>
          <_>
            <feature>
              <rects>
                <_>
                  3 22 2 2 -1.</_>
                <_>
                  4 22 1 2 2.</_></rects>
              <tilted>0</tilted></feature>
            <threshold>-6.3530562329106033e-005</threshold>
            <left_val>0.4078401029109955</left_val>
            <right_val>-0.5004407167434692</right_val></_></_>
        <_>
          <_>
            <feature>
              <rects>
                <_>
                  9 7 8 10 -1.</_>
                <_>
                  9 12 8 5 2.</_></rects>
              <tilted>0</tilted></feature>
            <threshold>-0.0872863978147507</threshold>
            <left_val>0.7287772893905640</left_val>
            <right_val>-0.2236140072345734</right_val></_></_>
        <_>
          <_>
            <feature>
              <rects>
                <_>
                  4 0 11 3 -1.</_>
                <_>
                  3 1 11 1 3.</_></rects>
              <tilted>1</tilted></feature>
            <threshold>-7.4889097595587373e-004</threshold>
            <left_val>0.5044909715652466</left_val>
            <right_val>-0.4132199883460999</right_val></_></_></trees>
      <stage_threshold>-0.9094929099082947</stage_threshold>
      <parent>6</parent>
      <next>-1</next></_>
    <_>
      <trees>
        <_>
          <_>
            <feature>
              <rects>
                <_>
                  12 11 10 2 -1.</_>
                <_>
                  12 11 5 2 2.</_></rects>
              <tilted>1</tilted></feature>
            <threshold>0.0349790193140507</threshold>
            <left_val>-0.3279353082180023</left_val>
            <right_val>0.5294119715690613</right_val></_></_>
        <_>
          <_>
            <feature>
              <rects>
                <_>
                  14 21 3 1 -1.</_>
                <_>
                  15 21 1 1 3.</_></rects>
              <tilted>0</tilted></feature>
            <threshold>3.9257371099665761e-004</threshold>
            <left_val>0.1682589948177338</left_val>
            <right_val>-0.5296400785446167</right_val></_></_>
        <_>
          <_>
            <feature>
              <rects>
                <_>
                  7 21 3 1 -1.</_>
                <_>
                  8 21 1 1 3.</_></rects>
              <tilted>0</tilted></feature>
            <threshold>4.1894358582794666e-004</threshold>
            <left_val>0.2234356999397278</left_val>
            <right_val>-0.6562830805778503</right_val></_></_>
        <_>
          <_>
            <feature>
              <rects>
                <_>
                  14 22 3 1 -1.</_>
                <_>
                  15 22 1 1 3.</_></rects>
              <tilted>0</tilted></feature>
            <threshold>-5.0385028589516878e-004</threshold>
            <left_val>-0.4435859024524689</left_val>
            <right_val>0.0929263532161713</right_val></_></_>
        <_>
          <_>
            <feature>
              <rects>
                <_>
                  0 4 1 14 -1.</_>
                <_>
                  0 11 1 7 2.</_></rects>
              <tilted>0</tilted></feature>
            <threshold>0.0104051595553756</threshold>
            <left_val>0.1747646927833557</left_val>
            <right_val>-0.8852471709251404</right_val></_></_>
        <_>
          <_>
            <feature>
              <rects>
                <_>
                  9 18 12 6 -1.</_>
                <_>
                  9 21 12 3 2.</_></rects>
              <tilted>0</tilted></feature>
            <threshold>-0.0532068200409412</threshold>
            <left_val>0.6644238829612732</left_val>
            <right_val>-0.1527734994888306</right_val></_></_>
        <_>
          <_>
            <feature>
              <rects>
                <_>
                  0 14 20 8 -1.</_>
                <_>
                  10 14 10 8 2.</_></rects>
              <tilted>0</tilted></feature>
            <threshold>0.0659026429057121</threshold>
            <left_val>0.1891030073165894</left_val>
            <right_val>-0.7985538244247437</right_val></_></_>
        <_>
          <_>
            <feature>
              <rects>
                <_>
                  12 2 9 22 -1.</_>
                <_>
                  15 2 3 22 3.</_></rects>
              <tilted>0</tilted></feature>
            <threshold>0.0384874790906906</threshold>
            <left_val>-0.2990997135639191</left_val>
            <right_val>0.6070144176483154</right_val></_></_>
        <_>
          <_>
            <feature>
              <rects>
                <_>
                  7 9 12 2 -1.</_>
                <_>
                  10 12 6 2 2.</_></rects>
              <tilted>1</tilted></feature>
            <threshold>-0.0420808494091034</threshold>
            <left_val>0.8934916257858276</left_val>
            <right_val>-0.1710532009601593</right_val></_></_>
        <_>
          <_>
            <feature>
              <rects>
                <_>
                  9 18 6 6 -1.</_>
                <_>
                  9 20 6 2 3.</_></rects>
              <tilted>0</tilted></feature>
            <threshold>-0.0176978893578053</threshold>
            <left_val>0.6898549795150757</left_val>
            <right_val>-0.1789781004190445</right_val></_></_>
        <_>
          <_>
            <feature>
              <rects>
                <_>
                  8 20 3 2 -1.</_>
                <_>
                  9 20 1 2 3.</_></rects>
              <tilted>0</tilted></feature>
            <threshold>-4.0441800956614316e-004</threshold>
            <left_val>-0.5895007848739624</left_val>
            <right_val>0.2943348884582520</right_val></_></_>
        <_>
          <_>
            <feature>
              <rects>
                <_>
                  22 4 2 9 -1.</_>
                <_>
                  22 7 2 3 3.</_></rects>
              <tilted>0</tilted></feature>
            <threshold>-4.2049582116305828e-003</threshold>
            <left_val>-0.4647291004657745</left_val>
            <right_val>0.0968359336256981</right_val></_></_>
        <_>
          <_>
            <feature>
              <rects>
                <_>
                  0 4 2 9 -1.</_>
                <_>
                  0 7 2 3 3.</_></rects>
              <tilted>0</tilted></feature>
            <threshold>5.1507591269910336e-003</threshold>
            <left_val>0.2353903055191040</left_val>
            <right_val>-0.7752038836479187</right_val></_></_></trees>
      <stage_threshold>-1.2190140485763550</stage_threshold>
      <parent>7</parent>
      <next>-1</next></_>
    <_>
      <trees>
        <_>
          <_>
            <feature>
              <rects>
                <_>
                  10 6 12 2 -1.</_>
                <_>
                  14 10 4 2 3.</_></rects>
              <tilted>1</tilted></feature>
            <threshold>0.0603010691702366</threshold>
            <left_val>-0.2358804941177368</left_val>
            <right_val>0.7171720266342163</right_val></_></_>
        <_>
          <_>
            <feature>
              <rects>
                <_>
                  5 21 16 3 -1.</_>
                <_>
                  5 21 8 3 2.</_></rects>
              <tilted>0</tilted></feature>
            <threshold>-2.2482029162347317e-003</threshold>
            <left_val>0.2127334028482437</left_val>
            <right_val>-0.1894627958536148</right_val></_></_>
        <_>
          <_>
            <feature>
              <rects>
                <_>
                  10 22 3 1 -1.</_>
                <_>
                  11 22 1 1 3.</_></rects>
              <tilted>0</tilted></feature>
            <threshold>-1.9546480325516313e-004</threshold>
            <left_val>-0.5453203916549683</left_val>
            <right_val>0.2447928041219711</right_val></_></_>
        <_>
          <_>
            <feature>
              <rects>
                <_>
                  5 10 14 4 -1.</_>
                <_>
                  5 11 14 2 2.</_></rects>
              <tilted>0</tilted></feature>
            <threshold>-0.0220288895070553</threshold>
            <left_val>0.6409934163093567</left_val>
            <right_val>-0.2403835058212280</right_val></_></_>
        <_>
          <_>
            <feature>
              <rects>
                <_>
                  4 1 1 2 -1.</_>
                <_>
                  4 1 1 1 2.</_></rects>
              <tilted>1</tilted></feature>
            <threshold>6.0909282183274627e-004</threshold>
            <left_val>0.2787002027034760</left_val>
            <right_val>-0.5532922148704529</right_val></_></_>
        <_>
          <_>
            <feature>
              <rects>
                <_>
                  7 8 15 6 -1.</_>
                <_>
                  12 10 5 2 9.</_></rects>
              <tilted>0</tilted></feature>
            <threshold>0.1218060031533241</threshold>
            <left_val>-0.1332895010709763</left_val>
            <right_val>0.5094888806343079</right_val></_></_>
        <_>
          <_>
            <feature>
              <rects>
                <_>
                  6 9 7 3 -1.</_>
                <_>
                  6 10 7 1 3.</_></rects>
              <tilted>0</tilted></feature>
            <threshold>-7.7599748037755489e-003</threshold>
            <left_val>0.6842696070671082</left_val>
            <right_val>-0.2178591042757034</right_val></_></_>
        <_>
          <_>
            <feature>
              <rects>
                <_>
                  6 13 14 11 -1.</_>
                <_>
                  6 13 7 11 2.</_></rects>
              <tilted>0</tilted></feature>
            <threshold>-0.1412948966026306</threshold>
            <left_val>-1.</left_val>
            <right_val>0.0517222099006176</right_val></_></_>
        <_>
          <_>
            <feature>
              <rects>
                <_>
                  4 13 14 11 -1.</_>
                <_>
                  11 13 7 11 2.</_></rects>
              <tilted>0</tilted></feature>
            <threshold>-0.0503337904810905</threshold>
            <left_val>-0.7457137703895569</left_val>
            <right_val>0.1858128011226654</right_val></_></_>
        <_>
          <_>
            <feature>
              <rects>
                <_>
                  12 2 2 3 -1.</_>
                <_>
                  11 3 2 1 3.</_></rects>
              <tilted>1</tilted></feature>
            <threshold>1.5410969499498606e-003</threshold>
            <left_val>-0.1702610999345779</left_val>
            <right_val>0.2283200025558472</right_val></_></_>
        <_>
          <_>
            <feature>
              <rects>
                <_>
                  0 12 1 12 -1.</_>
                <_>
                  0 16 1 4 3.</_></rects>
              <tilted>0</tilted></feature>
            <threshold>-0.0104871597141027</threshold>
            <left_val>-0.9231407046318054</left_val>
            <right_val>0.1421378999948502</right_val></_></_>
        <_>
          <_>
            <feature>
              <rects>
                <_>
                  14 20 2 2 -1.</_>
                <_>
                  15 20 1 1 2.</_>
                <_>
                  14 21 1 1 2.</_></rects>
              <tilted>0</tilted></feature>
            <threshold>-1.0827289661392570e-003</threshold>
            <left_val>-0.5755203962326050</left_val>
            <right_val>7.3367930017411709e-003</right_val></_></_>
        <_>
          <_>
            <feature>
              <rects>
                <_>
                  9 17 4 3 -1.</_>
                <_>
                  9 18 4 1 3.</_></rects>
              <tilted>0</tilted></feature>
            <threshold>5.0798892043530941e-003</threshold>
            <left_val>-0.1809540987014771</left_val>
            <right_val>0.7096731066703796</right_val></_></_></trees>
      <stage_threshold>-0.8455048203468323</stage_threshold>
      <parent>8</parent>
      <next>-1</next></_>
    <_>
      <trees>
        <_>
          <_>
            <feature>
              <rects>
                <_>
                  9 23 2 1 -1.</_>
                <_>
                  10 23 1 1 2.</_></rects>
              <tilted>0</tilted></feature>
            <threshold>4.8975129175232723e-005</threshold>
            <left_val>0.2868852913379669</left_val>
            <right_val>-0.4487181007862091</right_val></_></_>
        <_>
          <_>
            <feature>
              <rects>
                <_>
                  16 6 6 10 -1.</_>
                <_>
                  19 6 3 5 2.</_>
                <_>
                  16 11 3 5 2.</_></rects>
              <tilted>0</tilted></feature>
            <threshold>8.7761487811803818e-003</threshold>
            <left_val>-0.1878802031278610</left_val>
            <right_val>0.3168615102767944</right_val></_></_>
        <_>
          <_>
            <feature>
              <rects>
                <_>
                  9 23 4 1 -1.</_>
                <_>
                  10 23 2 1 2.</_></rects>
              <tilted>0</tilted></feature>
            <threshold>-3.7625638651661575e-004</threshold>
            <left_val>-0.6574360728263855</left_val>
            <right_val>0.1914391964673996</right_val></_></_>
        <_>
          <_>
            <feature>
              <rects>
                <_>
                  12 5 7 12 -1.</_>
                <_>
                  12 5 7 6 2.</_></rects>
              <tilted>1</tilted></feature>
            <threshold>-0.0917218029499054</threshold>
            <left_val>-0.6004580259323120</left_val>
            <right_val>0.0329019203782082</right_val></_></_>
        <_>
          <_>
            <feature>
              <rects>
                <_>
                  11 17 4 1 -1.</_>
                <_>
                  12 18 2 1 2.</_></rects>
              <tilted>1</tilted></feature>
            <threshold>1.0005229851230979e-003</threshold>
            <left_val>-0.2621524035930634</left_val>
            <right_val>0.5188508033752441</right_val></_></_>
        <_>
          <_>
            <feature>
              <rects>
                <_>
                  13 11 9 5 -1.</_>
                <_>
                  16 11 3 5 3.</_></rects>
              <tilted>0</tilted></feature>
            <threshold>0.0264659598469734</threshold>
            <left_val>-0.1547719985246658</left_val>
            <right_val>0.4443520903587341</right_val></_></_>
        <_>
          <_>
            <feature>
              <rects>
                <_>
                  0 9 6 10 -1.</_>
                <_>
                  2 9 2 10 3.</_></rects>
              <tilted>0</tilted></feature>
            <threshold>-0.0183758903294802</threshold>
            <left_val>0.7389392256736755</left_val>
            <right_val>-0.2203246057033539</right_val></_></_>
        <_>
          <_>
            <feature>
              <rects>
                <_>
                  0 0 24 11 -1.</_>
                <_>
                  0 0 12 11 2.</_></rects>
              <tilted>0</tilted></feature>
            <threshold>-0.2398492991924286</threshold>
            <left_val>-1.</left_val>
            <right_val>0.1707047969102860</right_val></_></_>
        <_>
          <_>
            <feature>
              <rects>
                <_>
                  1 5 1 4 -1.</_>
                <_>
                  1 7 1 2 2.</_></rects>
              <tilted>0</tilted></feature>
            <threshold>-1.8522799946367741e-003</threshold>
            <left_val>-0.7494704127311707</left_val>
            <right_val>0.1598017066717148</right_val></_></_>
        <_>
          <_>
            <feature>
              <rects>
                <_>
                  4 9 20 2 -1.</_>
                <_>
                  9 9 10 2 2.</_></rects>
              <tilted>0</tilted></feature>
            <threshold>0.0678889304399490</threshold>
            <left_val>-0.0420021899044514</left_val>
            <right_val>0.9999979734420776</right_val></_></_>
        <_>
          <_>
            <feature>
              <rects>
                <_>
                  0 9 20 2 -1.</_>
                <_>
                  5 9 10 2 2.</_></rects>
              <tilted>0</tilted></feature>
            <threshold>0.0118219899013639</threshold>
            <left_val>-0.2382242977619171</left_val>
            <right_val>0.6434450149536133</right_val></_></_></trees>
      <stage_threshold>-0.6077563166618347</stage_threshold>
      <parent>9</parent>
      <next>-1</next></_>
    <_>
      <trees>
        <_>
          <_>
            <feature>
              <rects>
                <_>
                  10 22 2 1 -1.</_>
                <_>
                  11 22 1 1 2.</_></rects>
              <tilted>0</tilted></feature>
            <threshold>3.1535339076071978e-004</threshold>
            <left_val>0.2551724910736084</left_val>
            <right_val>-0.6727275252342224</right_val></_></_>
        <_>
          <_>
            <feature>
              <rects>
                <_>
                  22 3 2 3 -1.</_>
                <_>
                  22 4 2 1 3.</_></rects>
              <tilted>0</tilted></feature>
            <threshold>1.0590859455987811e-003</threshold>
            <left_val>0.1116980984807015</left_val>
            <right_val>-0.5767899155616760</right_val></_></_>
        <_>
          <_>
            <feature>
              <rects>
                <_>
                  10 21 4 3 -1.</_>
                <_>
                  11 21 2 3 2.</_></rects>
              <tilted>0</tilted></feature>
            <threshold>-1.6350779915228486e-003</threshold>
            <left_val>-0.8182160854339600</left_val>
            <right_val>0.2219884991645813</right_val></_></_>
        <_>
          <_>
            <feature>
              <rects>
                <_>
                  9 2 11 12 -1.</_>
                <_>
                  9 6 11 4 3.</_></rects>
              <tilted>0</tilted></feature>
            <threshold>-0.1736897975206375</threshold>
            <left_val>0.7213250994682312</left_val>
            <right_val>-0.1224879994988442</right_val></_></_>
        <_>
          <_>
            <feature>
              <rects>
                <_>
                  0 12 24 12 -1.</_>
                <_>
                  8 16 8 4 9.</_></rects>
              <tilted>0</tilted></feature>
            <threshold>-0.3603655099868774</threshold>
            <left_val>0.7603517770767212</left_val>
            <right_val>-0.2444711029529572</right_val></_></_>
        <_>
          <_>
            <feature>
              <rects>
                <_>
                  21 3 3 3 -1.</_>
                <_>
                  21 4 3 1 3.</_></rects>
              <tilted>0</tilted></feature>
            <threshold>-7.1594379842281342e-003</threshold>
            <left_val>-0.7501239180564880</left_val>
            <right_val>0.1613337993621826</right_val></_></_>
        <_>
          <_>
            <feature>
              <rects>
                <_>
                  0 3 3 3 -1.</_>
                <_>
                  0 4 3 1 3.</_></rects>
              <tilted>0</tilted></feature>
            <threshold>1.8885659519582987e-003</threshold>
            <left_val>0.1549068987369537</left_val>
            <right_val>-0.7521309852600098</right_val></_></_>
        <_>
          <_>
            <feature>
              <rects>
                <_>
                  23 5 1 6 -1.</_>
                <_>
                  23 7 1 2 3.</_></rects>
              <tilted>0</tilted></feature>
            <threshold>-9.1203587362542748e-004</threshold>
            <left_val>-0.5437527894973755</left_val>
            <right_val>0.1772110015153885</right_val></_></_>
        <_>
          <_>
            <feature>
              <rects>
                <_>
                  0 5 1 6 -1.</_>
                <_>
                  0 7 1 2 3.</_></rects>
              <tilted>0</tilted></feature>
            <threshold>9.4525457825511694e-004</threshold>
            <left_val>0.3031584024429321</left_val>
            <right_val>-0.6011826992034912</right_val></_></_>
        <_>
          <_>
            <feature>
              <rects>
                <_>
                  12 12 3 2 -1.</_>
                <_>
                  13 12 1 2 3.</_></rects>
              <tilted>0</tilted></feature>
            <threshold>-3.5312450490891933e-003</threshold>
            <left_val>-0.9477587938308716</left_val>
            <right_val>0.0428225509822369</right_val></_></_>
        <_>
          <_>
            <feature>
              <rects>
                <_>
                  6 0 3 6 -1.</_>
                <_>
                  7 1 1 6 3.</_></rects>
              <tilted>1</tilted></feature>
            <threshold>3.5752209369093180e-003</threshold>
            <left_val>-0.3286871016025543</left_val>
            <right_val>0.4221603870391846</right_val></_></_>
        <_>
          <_>
            <feature>
              <rects>
                <_>
                  13 23 2 1 -1.</_>
                <_>
                  13 23 1 1 2.</_></rects>
              <tilted>0</tilted></feature>
            <threshold>1.2358529784251004e-004</threshold>
            <left_val>0.2158741950988770</left_val>
            <right_val>-0.4402335882186890</right_val></_></_>
        <_>
          <_>
            <feature>
              <rects>
                <_>
                  6 0 10 2 -1.</_>
                <_>
                  6 0 10 1 2.</_></rects>
              <tilted>1</tilted></feature>
            <threshold>1.0016349842771888e-003</threshold>
            <left_val>-0.5858892202377319</left_val>
            <right_val>0.2844063043594360</right_val></_></_></trees>
      <stage_threshold>-1.2554229497909546</stage_threshold>
      <parent>10</parent>
      <next>-1</next></_>
    <_>
      <trees>
        <_>
          <_>
            <feature>
              <rects>
                <_>
                  0 7 1 6 -1.</_>
                <_>
                  0 9 1 2 3.</_></rects>
              <tilted>0</tilted></feature>
            <threshold>2.0991850178688765e-003</threshold>
            <left_val>0.1661632061004639</left_val>
            <right_val>-0.7971019148826599</right_val></_></_>
        <_>
          <_>
            <feature>
              <rects>
                <_>
                  4 8 16 9 -1.</_>
                <_>
                  4 11 16 3 3.</_></rects>
              <tilted>0</tilted></feature>
            <threshold>0.1628098934888840</threshold>
            <left_val>-0.1880117058753967</left_val>
            <right_val>0.8275501728057861</right_val></_></_>
        <_>
          <_>
            <feature>
              <rects>
                <_>
                  3 1 6 2 -1.</_>
                <_>
                  3 1 3 1 2.</_>
                <_>
                  6 2 3 1 2.</_></rects>
              <tilted>0</tilted></feature>
            <threshold>-6.3245167257264256e-004</threshold>
            <left_val>0.4636813104152679</left_val>
            <right_val>-0.2346913963556290</right_val></_></_>
        <_>
          <_>
            <feature>
              <rects>
                <_>
                  23 7 1 9 -1.</_>
                <_>
                  23 10 1 3 3.</_></rects>
              <tilted>0</tilted></feature>
            <threshold>2.8103929944336414e-003</threshold>
            <left_val>0.1186212971806526</left_val>
            <right_val>-0.5019770264625549</right_val></_></_>
        <_>
          <_>
            <feature>
              <rects>
                <_>
                  2 23 8 1 -1.</_>
                <_>
                  6 23 4 1 2.</_></rects>
              <tilted>0</tilted></feature>
            <threshold>-8.7020581122487783e-004</threshold>
            <left_val>0.2897523939609528</left_val>
            <right_val>-0.3963038921356201</right_val></_></_>
        <_>
          <_>
            <feature>
              <rects>
                <_>
                  2 10 21 1 -1.</_>
                <_>
                  9 10 7 1 3.</_></rects>
              <tilted>0</tilted></feature>
            <threshold>-0.0189465600997210</threshold>
            <left_val>0.6335365772247315</left_val>
            <right_val>-0.1143136024475098</right_val></_></_>
        <_>
          <_>
            <feature>
              <rects>
                <_>
                  7 7 9 6 -1.</_>
                <_>
                  10 9 3 2 9.</_></rects>
              <tilted>0</tilted></feature>
            <threshold>0.0487838201224804</threshold>
            <left_val>-0.1914205998182297</left_val>
            <right_val>0.5953449010848999</right_val></_></_>
        <_>
          <_>
            <feature>
              <rects>
                <_>
                  20 3 3 4 -1.</_>
                <_>
                  19 4 3 2 2.</_></rects>
              <tilted>1</tilted></feature>
            <threshold>-0.0214341804385185</threshold>
            <left_val>1.</left_val>
            <right_val>-0.0262418705970049</right_val></_></_>
        <_>
          <_>
            <feature>
              <rects>
                <_>
                  4 3 4 3 -1.</_>
                <_>
                  5 4 2 3 2.</_></rects>
              <tilted>1</tilted></feature>
            <threshold>4.2476621456444263e-003</threshold>
            <left_val>-0.2288202941417694</left_val>
            <right_val>0.5796580910682678</right_val></_></_>
        <_>
          <_>
            <feature>
              <rects>
                <_>
                  6 5 14 10 -1.</_>
                <_>
                  6 5 7 10 2.</_></rects>
              <tilted>0</tilted></feature>
            <threshold>0.0895868763327599</threshold>
            <left_val>-0.0900301784276962</left_val>
            <right_val>0.7604765892028809</right_val></_></_>
        <_>
          <_>
            <feature>
              <rects>
                <_>
                  11 1 7 4 -1.</_>
                <_>
                  11 1 7 2 2.</_></rects>
              <tilted>1</tilted></feature>
            <threshold>0.0206979997456074</threshold>
            <left_val>-0.2984823882579804</left_val>
            <right_val>0.4713464081287384</right_val></_></_>
        <_>
          <_>
            <feature>
              <rects>
                <_>
                  7 6 12 13 -1.</_>
                <_>
                  7 6 6 13 2.</_></rects>
              <tilted>0</tilted></feature>
            <threshold>0.0924341827630997</threshold>
            <left_val>-0.0737760812044144</left_val>
            <right_val>0.8227003216743469</right_val></_></_>
        <_>
          <_>
            <feature>
              <rects>
                <_>
                  6 22 12 2 -1.</_>
                <_>
                  6 22 6 1 2.</_>
                <_>
                  12 23 6 1 2.</_></rects>
              <tilted>0</tilted></feature>
            <threshold>6.4931722590699792e-004</threshold>
            <left_val>-0.3763997852802277</left_val>
            <right_val>0.3843024969100952</right_val></_></_>
        <_>
          <_>
            <feature>
              <rects>
                <_>
                  13 5 9 3 -1.</_>
                <_>
                  16 6 3 1 9.</_></rects>
              <tilted>0</tilted></feature>
            <threshold>6.4298179931938648e-003</threshold>
            <left_val>-0.2104271054267883</left_val>
            <right_val>0.3265011906623840</right_val></_></_>
        <_>
          <_>
            <feature>
              <rects>
                <_>
                  0 16 3 2 -1.</_>
                <_>
                  0 17 3 1 2.</_></rects>
              <tilted>0</tilted></feature>
            <threshold>-1.6738180420361459e-005</threshold>
            <left_val>0.3973580896854401</left_val>
            <right_val>-0.5303245186805725</right_val></_></_>
        <_>
          <_>
            <feature>
              <rects>
                <_>
                  12 14 3 6 -1.</_>
                <_>
                  10 16 3 2 3.</_></rects>
              <tilted>1</tilted></feature>
            <threshold>-0.0137980803847313</threshold>
            <left_val>0.3106608986854553</left_val>
            <right_val>-0.1262571960687637</right_val></_></_>
        <_>
          <_>
            <feature>
              <rects>
                <_>
                  12 14 6 3 -1.</_>
                <_>
                  14 16 2 3 3.</_></rects>
              <tilted>1</tilted></feature>
            <threshold>2.4172090925276279e-003</threshold>
            <left_val>-0.3617497980594635</left_val>
            <right_val>0.6171324849128723</right_val></_></_></trees>
      <stage_threshold>-1.1527160406112671</stage_threshold>
      <parent>11</parent>
      <next>-1</next></_>
    <_>
      <trees>
        <_>
          <_>
            <feature>
              <rects>
                <_>
                  6 2 12 7 -1.</_>
                <_>
                  12 2 6 7 2.</_></rects>
              <tilted>0</tilted></feature>
            <threshold>0.0443004891276360</threshold>
            <left_val>-0.2210527062416077</left_val>
            <right_val>0.5478262901306152</right_val></_></_>
        <_>
          <_>
            <feature>
              <rects>
                <_>
                  14 13 3 8 -1.</_>
                <_>
                  15 13 1 8 3.</_></rects>
              <tilted>0</tilted></feature>
            <threshold>0.0129576204344630</threshold>
            <left_val>0.0375062488019466</left_val>
            <right_val>-0.9999964833259583</right_val></_></_>
        <_>
          <_>
            <feature>
              <rects>
                <_>
                  0 5 1 3 -1.</_>
                <_>
                  0 6 1 1 3.</_></rects>
              <tilted>0</tilted></feature>
            <threshold>1.2696390040218830e-003</threshold>
            <left_val>0.1229363977909088</left_val>
            <right_val>-0.8521888256072998</right_val></_></_>
        <_>
          <_>
            <feature>
              <rects>
                <_>
                  7 11 10 12 -1.</_>
                <_>
                  7 14 10 6 2.</_></rects>
              <tilted>0</tilted></feature>
            <threshold>-0.0941331088542938</threshold>
            <left_val>0.8450706005096436</left_val>
            <right_val>-0.1322889029979706</right_val></_></_>
        <_>
          <_>
            <feature>
              <rects>
                <_>
                  0 20 4 2 -1.</_>
                <_>
                  2 20 2 2 2.</_></rects>
              <tilted>0</tilted></feature>
            <threshold>-8.9231750462204218e-004</threshold>
            <left_val>0.3514921069145203</left_val>
            <right_val>-0.3590228855609894</right_val></_></_>
        <_>
          <_>
            <feature>
              <rects>
                <_>
                  16 9 8 8 -1.</_>
                <_>
                  18 9 4 8 2.</_></rects>
              <tilted>0</tilted></feature>
            <threshold>-6.4412481151521206e-003</threshold>
            <left_val>0.1273611932992935</left_val>
            <right_val>-0.1822135001420975</right_val></_></_>
        <_>
          <_>
            <feature>
              <rects>
                <_>
                  5 0 6 14 -1.</_>
                <_>
                  5 0 3 7 2.</_>
                <_>
                  8 7 3 7 2.</_></rects>
              <tilted>0</tilted></feature>
            <threshold>-0.0234588403254747</threshold>
            <left_val>0.5519639253616333</left_val>
            <right_val>-0.2343650013208389</right_val></_></_>
        <_>
          <_>
            <feature>
              <rects>
                <_>
                  17 0 6 8 -1.</_>
                <_>
                  17 2 6 4 2.</_></rects>
              <tilted>0</tilted></feature>
            <threshold>0.0394369103014469</threshold>
            <left_val>0.0559564717113972</left_val>
            <right_val>-0.9999995231628418</right_val></_></_>
        <_>
          <_>
            <feature>
              <rects>
                <_>
                  1 0 6 8 -1.</_>
                <_>
                  1 2 6 4 2.</_></rects>
              <tilted>0</tilted></feature>
            <threshold>7.3770298622548580e-003</threshold>
            <left_val>-0.3104878067970276</left_val>
            <right_val>0.4479903876781464</right_val></_></_>
        <_>
          <_>
            <feature>
              <rects>
                <_>
                  11 7 12 8 -1.</_>
                <_>
                  11 11 12 4 2.</_></rects>
              <tilted>0</tilted></feature>
            <threshold>-0.0682384967803955</threshold>
            <left_val>0.3902130126953125</left_val>
            <right_val>-0.0855781733989716</right_val></_></_>
        <_>
          <_>
            <feature>
              <rects>
                <_>
                  12 0 6 4 -1.</_>
                <_>
                  14 2 2 4 3.</_></rects>
              <tilted>1</tilted></feature>
            <threshold>0.0302893593907356</threshold>
            <left_val>-0.1945312023162842</left_val>
            <right_val>0.6567819714546204</right_val></_></_>
        <_>
          <_>
            <feature>
              <rects>
                <_>
                  18 10 2 2 -1.</_>
                <_>
                  19 10 1 1 2.</_>
                <_>
                  18 11 1 1 2.</_></rects>
              <tilted>0</tilted></feature>
            <threshold>-1.1134919477626681e-003</threshold>
            <left_val>0.4623402059078217</left_val>
            <right_val>-0.0772450789809227</right_val></_></_>
        <_>
          <_>
            <feature>
              <rects>
                <_>
                  6 3 6 6 -1.</_>
                <_>
                  8 5 2 6 3.</_></rects>
              <tilted>1</tilted></feature>
            <threshold>0.0263408292084932</threshold>
            <left_val>-0.1614748984575272</left_val>
            <right_val>0.7152500748634338</right_val></_></_></trees>
      <stage_threshold>-0.8651360273361206</stage_threshold>
      <parent>12</parent>
      <next>-1</next></_>
    <_>
      <trees>
        <_>
          <_>
            <feature>
              <rects>
                <_>
                  7 4 8 6 -1.</_>
                <_>
                  7 4 4 6 2.</_></rects>
              <tilted>1</tilted></feature>
            <threshold>-0.0412921011447906</threshold>
            <left_val>0.4961833059787750</left_val>
            <right_val>-0.2416357994079590</right_val></_></_>
        <_>
          <_>
            <feature>
              <rects>
                <_>
                  11 3 3 1 -1.</_>
                <_>
                  12 3 1 1 3.</_></rects>
              <tilted>0</tilted></feature>
            <threshold>-3.0586330103687942e-004</threshold>
            <left_val>-0.4175862073898315</left_val>
            <right_val>0.1552567929029465</right_val></_></_>
        <_>
          <_>
            <feature>
              <rects>
                <_>
                  10 21 3 2 -1.</_>
                <_>
                  11 21 1 2 3.</_></rects>
              <tilted>0</tilted></feature>
            <threshold>2.5790708605200052e-004</threshold>
            <left_val>0.2638699114322662</left_val>
            <right_val>-0.4837084114551544</right_val></_></_>
        <_>
          <_>
            <feature>
              <rects>
                <_>
                  6 8 18 12 -1.</_>
                <_>
                  12 12 6 4 9.</_></rects>
              <tilted>0</tilted></feature>
            <threshold>0.4211576879024506</threshold>
            <left_val>-0.0836383029818535</left_val>
            <right_val>0.4702447950839996</right_val></_></_>
        <_>
          <_>
            <feature>
              <rects>
                <_>
                  0 8 18 12 -1.</_>
                <_>
                  6 12 6 4 9.</_></rects>
              <tilted>0</tilted></feature>
            <threshold>-0.1722033023834229</threshold>
            <left_val>0.6096696257591248</left_val>
            <right_val>-0.2403430044651032</right_val></_></_>
        <_>
          <_>
            <feature>
              <rects>
                <_>
                  11 20 13 3 -1.</_>
                <_>
                  11 21 13 1 3.</_></rects>
              <tilted>0</tilted></feature>
            <threshold>4.2579188011586666e-003</threshold>
            <left_val>-0.1212508976459503</left_val>
            <right_val>0.3831450045108795</right_val></_></_>
        <_>
          <_>
            <feature>
              <rects>
                <_>
                  9 14 6 2 -1.</_>
                <_>
                  12 14 3 2 2.</_></rects>
              <tilted>0</tilted></feature>
            <threshold>5.5489270016551018e-003</threshold>
            <left_val>0.2111504971981049</left_val>
            <right_val>-0.6617950797080994</right_val></_></_>
        <_>
          <_>
            <feature>
              <rects>
                <_>
                  23 7 1 16 -1.</_>
                <_>
                  23 7 1 8 2.</_></rects>
              <tilted>1</tilted></feature>
            <threshold>-2.9997900128364563e-003</threshold>
            <left_val>-0.3460730910301209</left_val>
            <right_val>0.1052720993757248</right_val></_></_>
        <_>
          <_>
            <feature>
              <rects>
                <_>
                  4 16 3 3 -1.</_>
                <_>
                  4 17 3 1 3.</_></rects>
              <tilted>0</tilted></feature>
            <threshold>-1.4547039754688740e-003</threshold>
            <left_val>0.4023433923721314</left_val>
            <right_val>-0.2894760966300964</right_val></_></_>
        <_>
          <_>
            <feature>
              <rects>
                <_>
                  12 21 3 1 -1.</_>
                <_>
                  13 21 1 1 3.</_></rects>
              <tilted>0</tilted></feature>
            <threshold>4.5825261622667313e-005</threshold>
            <left_val>0.1845050007104874</left_val>
            <right_val>-0.1987354010343552</right_val></_></_>
        <_>
          <_>
            <feature>
              <rects>
                <_>
                  11 20 1 4 -1.</_>
                <_>
                  11 22 1 2 2.</_></rects>
              <tilted>0</tilted></feature>
            <threshold>3.8246710319072008e-003</threshold>
            <left_val>-0.1802570968866348</left_val>
            <right_val>0.7196990847587585</right_val></_></_>
        <_>
          <_>
            <feature>
              <rects>
                <_>
                  12 21 3 1 -1.</_>
                <_>
                  13 21 1 1 3.</_></rects>
              <tilted>0</tilted></feature>
            <threshold>-2.2913129942025989e-004</threshold>
            <left_val>-0.3223659992218018</left_val>
            <right_val>0.2047851979732513</right_val></_></_>
        <_>
          <_>
            <feature>
              <rects>
                <_>
                  0 4 1 10 -1.</_>
                <_>
                  0 9 1 5 2.</_></rects>
              <tilted>0</tilted></feature>
            <threshold>2.6394040323793888e-003</threshold>
            <left_val>0.1817888021469116</left_val>
            <right_val>-0.7922400832176209</right_val></_></_>
        <_>
          <_>
            <feature>
              <rects>
                <_>
                  20 5 4 2 -1.</_>
                <_>
                  20 5 2 2 2.</_></rects>
              <tilted>1</tilted></feature>
            <threshold>7.8184474259614944e-003</threshold>
            <left_val>0.0366079807281494</left_val>
            <right_val>-0.3543645143508911</right_val></_></_>
        <_>
          <_>
            <feature>
              <rects>
                <_>
                  4 5 2 4 -1.</_>
                <_>
                  4 5 2 2 2.</_></rects>
              <tilted>1</tilted></feature>
            <threshold>-7.3772962205111980e-003</threshold>
            <left_val>-0.8717139959335327</left_val>
            <right_val>0.1329621970653534</right_val></_></_></trees>
      <stage_threshold>-0.8162611126899719</stage_threshold>
      <parent>13</parent>
      <next>-1</next></_></stages></Cars2>
</opencv_storage>
