<?xml version="1.0"?>
<opencv_storage>
<cascade>
  <stageType>BOOST</stageType>
  <featureType>HAAR</featureType>
  <height>24</height>
  <width>24</width>
  <stageParams>
    <boostType>GAB</boostType>
    <minHitRate>9.9500000476837158e-01</minHitRate>
    <maxFalseAlarm>5.0000000000000000e-01</maxFalseAlarm>
    <weightTrimRate>9.4999998807907104e-01</weightTrimRate>
    <maxDepth>1</maxDepth>
    <maxWeakCount>100</maxWeakCount></stageParams>
  <featureParams>
    <maxCatCount>0</maxCatCount>
    <featSize>1</featSize>
    <mode>BASIC</mode></featureParams>
  <stageNum>16</stageNum>
  <stages>
    <!-- stage 0 -->
    <_>
      <maxWeakCount>7</maxWeakCount>
      <stageThreshold>-1.9173021316528320e+00</stageThreshold>
      <weakClassifiers>
        <_>
          <internalNodes>
            0 -1 32 -1.5854279696941376e-01</internalNodes>
          <leafValues>
            5.9803920984268188e-01 -9.3346774578094482e-01</leafValues></_>
        <_>
          <internalNodes>
            0 -1 47 8.9316725730895996e-02</internalNodes>
          <leafValues>
            -6.8854916095733643e-01 5.3857427835464478e-01</leafValues></_>
        <_>
          <internalNodes>
            0 -1 24 -1.4129687100648880e-02</internalNodes>
          <leafValues>
            6.8834984302520752e-01 -4.4957357645034790e-01</leafValues></_>
        <_>
          <internalNodes>
            0 -1 7 -9.2125050723552704e-03</internalNodes>
          <leafValues>
            6.0893714427947998e-01 -3.8843613862991333e-01</leafValues></_>
        <_>
          <internalNodes>
            0 -1 11 -4.8815585672855377e-02</internalNodes>
          <leafValues>
            -9.9291944503784180e-01 2.6533424854278564e-01</leafValues></_>
        <_>
          <internalNodes>
            0 -1 54 -3.1444475054740906e-02</internalNodes>
          <leafValues>
            4.3689534068107605e-01 -5.6669402122497559e-01</leafValues></_>
        <_>
          <internalNodes>
            0 -1 37 4.5201487839221954e-02</internalNodes>
          <leafValues>
            -2.9383912682533264e-01 8.5284680128097534e-01</leafValues></_></weakClassifiers></_>
    <!-- stage 1 -->
    <_>
      <maxWeakCount>8</maxWeakCount>
      <stageThreshold>-1.7825782299041748e+00</stageThreshold>
      <weakClassifiers>
        <_>
          <internalNodes>
            0 -1 108 -5.7008303701877594e-02</internalNodes>
          <leafValues>
            -5.6047197431325912e-02 -9.1598600149154663e-01</leafValues></_>
        <_>
          <internalNodes>
            0 -1 19 -1.6916319727897644e-03</internalNodes>
          <leafValues>
            2.8638771176338196e-01 -6.6733443737030029e-01</leafValues></_>
        <_>
          <internalNodes>
            0 -1 57 -3.9590612053871155e-02</internalNodes>
          <leafValues>
            5.0688493251800537e-01 -4.8203027248382568e-01</leafValues></_>
        <_>
          <internalNodes>
            0 -1 128 1.1204980313777924e-02</internalNodes>
          <leafValues>
            -4.7545439004898071e-01 4.8046386241912842e-01</leafValues></_>
        <_>
          <internalNodes>
            0 -1 5 -1.2177327647805214e-02</internalNodes>
          <leafValues>
            2.5627046823501587e-01 -7.4953174591064453e-01</leafValues></_>
        <_>
          <internalNodes>
            0 -1 13 1.6847409307956696e-02</internalNodes>
          <leafValues>
            2.4385125935077667e-01 -7.5078570842742920e-01</leafValues></_>
        <_>
          <internalNodes>
            0 -1 63 1.7632400617003441e-02</internalNodes>
          <leafValues>
            -2.8728225827217102e-01 7.3575651645660400e-01</leafValues></_>
        <_>
          <internalNodes>
            0 -1 113 1.2978835031390190e-02</internalNodes>
          <leafValues>
            -3.3461344242095947e-01 5.6227439641952515e-01</leafValues></_></weakClassifiers></_>
    <!-- stage 2 -->
    <_>
      <maxWeakCount>8</maxWeakCount>
      <stageThreshold>-1.7991113662719727e+00</stageThreshold>
      <weakClassifiers>
        <_>
          <internalNodes>
            0 -1 42 -2.1037453413009644e-01</internalNodes>
          <leafValues>
            2.0000000298023224e-01 -8.4215784072875977e-01</leafValues></_>
        <_>
          <internalNodes>
            0 -1 48 -5.4057743400335312e-03</internalNodes>
          <leafValues>
            1.4519810676574707e-01 -6.9529080390930176e-01</leafValues></_>
        <_>
          <internalNodes>
            0 -1 121 4.5165400952100754e-02</internalNodes>
          <leafValues>
            -3.7976032495498657e-01 4.7091272473335266e-01</leafValues></_>
        <_>
          <internalNodes>
            0 -1 81 1.3112558051943779e-02</internalNodes>
          <leafValues>
            -2.6485928893089294e-01 6.4921969175338745e-01</leafValues></_>
        <_>
          <internalNodes>
            0 -1 140 -1.7655649571679533e-04</internalNodes>
          <leafValues>
            -8.3684903383255005e-01 2.2220900654792786e-01</leafValues></_>
        <_>
          <internalNodes>
            0 -1 0 -1.4872773550450802e-02</internalNodes>
          <leafValues>
            -9.2783421277999878e-01 1.8730109930038452e-01</leafValues></_>
        <_>
          <internalNodes>
            0 -1 105 -1.4641854912042618e-02</internalNodes>
          <leafValues>
            2.7948319911956787e-01 -5.6418842077255249e-01</leafValues></_>
        <_>
          <internalNodes>
            0 -1 46 -9.7903469577431679e-03</internalNodes>
          <leafValues>
            5.6794053316116333e-01 -3.0285367369651794e-01</leafValues></_></weakClassifiers></_>
    <!-- stage 3 -->
    <_>
      <maxWeakCount>9</maxWeakCount>
      <stageThreshold>-2.0486540794372559e+00</stageThreshold>
      <weakClassifiers>
        <_>
          <internalNodes>
            0 -1 49 -2.4438184499740601e-01</internalNodes>
          <leafValues>
            -1.0622710734605789e-01 -8.3965331315994263e-01</leafValues></_>
        <_>
          <internalNodes>
            0 -1 39 -9.3633234500885010e-03</internalNodes>
          <leafValues>
            4.2709130048751831e-01 -4.8598942160606384e-01</leafValues></_>
        <_>
          <internalNodes>
            0 -1 50 -3.5546813160181046e-02</internalNodes>
          <leafValues>
            -9.1761994361877441e-01 1.3305369019508362e-01</leafValues></_>
        <_>
          <internalNodes>
            0 -1 109 -3.7681829184293747e-02</internalNodes>
          <leafValues>
            3.0126431584358215e-01 -5.0031298398971558e-01</leafValues></_>
        <_>
          <internalNodes>
            0 -1 17 -3.4735374356387183e-05</internalNodes>
          <leafValues>
            2.1993178129196167e-01 -7.1336716413497925e-01</leafValues></_>
        <_>
          <internalNodes>
            0 -1 141 -3.6942153237760067e-03</internalNodes>
          <leafValues>
            -7.3437517881393433e-01 1.8700376152992249e-01</leafValues></_>
        <_>
          <internalNodes>
            0 -1 95 -1.8208147957921028e-02</internalNodes>
          <leafValues>
            7.0282131433486938e-01 -2.4863332509994507e-01</leafValues></_>
        <_>
          <internalNodes>
            0 -1 68 9.4238331075757742e-04</internalNodes>
          <leafValues>
            -2.9420408606529236e-01 5.3590834140777588e-01</leafValues></_>
        <_>
          <internalNodes>
            0 -1 53 -3.6672104150056839e-02</internalNodes>
          <leafValues>
            6.8875509500503540e-01 -2.1985018253326416e-01</leafValues></_></weakClassifiers></_>
    <!-- stage 4 -->
    <_>
      <maxWeakCount>9</maxWeakCount>
      <stageThreshold>-1.8311830759048462e+00</stageThreshold>
      <weakClassifiers>
        <_>
          <internalNodes>
            0 -1 45 4.3537604808807373e-01</internalNodes>
          <leafValues>
            -7.8916829824447632e-01 7.4074074625968933e-02</leafValues></_>
        <_>
          <internalNodes>
            0 -1 117 5.1963860169053078e-03</internalNodes>
          <leafValues>
            -5.6637990474700928e-01 2.0916159451007843e-01</leafValues></_>
        <_>
          <internalNodes>
            0 -1 22 -6.7518129944801331e-03</internalNodes>
          <leafValues>
            3.2599022984504700e-01 -3.7859079241752625e-01</leafValues></_>
        <_>
          <internalNodes>
            0 -1 82 2.4199236184358597e-02</internalNodes>
          <leafValues>
            -2.1997055411338806e-01 5.9649419784545898e-01</leafValues></_>
        <_>
          <internalNodes>
            0 -1 124 -6.8850070238113403e-03</internalNodes>
          <leafValues>
            6.4044976234436035e-01 -1.9137363135814667e-01</leafValues></_>
        <_>
          <internalNodes>
            0 -1 130 4.0975145995616913e-02</internalNodes>
          <leafValues>
            2.1270936727523804e-01 -6.9730001688003540e-01</leafValues></_>
        <_>
          <internalNodes>
            0 -1 80 3.7041739560663700e-03</internalNodes>
          <leafValues>
            -1.8222446739673615e-01 6.3863599300384521e-01</leafValues></_>
        <_>
          <internalNodes>
            0 -1 90 -1.1231472017243505e-03</internalNodes>
          <leafValues>
            5.0810259580612183e-01 -3.3707207441329956e-01</leafValues></_>
        <_>
          <internalNodes>
            0 -1 136 9.3835238367319107e-03</internalNodes>
          <leafValues>
            -2.2428743541240692e-01 6.1401844024658203e-01</leafValues></_></weakClassifiers></_>
    <!-- stage 5 -->
    <_>
      <maxWeakCount>8</maxWeakCount>
      <stageThreshold>-1.6333659887313843e+00</stageThreshold>
      <weakClassifiers>
        <_>
          <internalNodes>
            0 -1 59 1.0110248625278473e-01</internalNodes>
          <leafValues>
            -7.4060821533203125e-01 3.0769231915473938e-01</leafValues></_>
        <_>
          <internalNodes>
            0 -1 58 -5.3890001028776169e-02</internalNodes>
          <leafValues>
            3.8000386953353882e-01 -4.5188096165657043e-01</leafValues></_>
        <_>
          <internalNodes>
            0 -1 107 2.5374065153300762e-03</internalNodes>
          <leafValues>
            -5.3772825002670288e-01 2.8249374032020569e-01</leafValues></_>
        <_>
          <internalNodes>
            0 -1 86 -5.9843491762876511e-03</internalNodes>
          <leafValues>
            4.6689406037330627e-01 -2.7699244022369385e-01</leafValues></_>
        <_>
          <internalNodes>
            0 -1 43 5.1089573651552200e-02</internalNodes>
          <leafValues>
            -2.4978236854076385e-01 5.9164589643478394e-01</leafValues></_>
        <_>
          <internalNodes>
            0 -1 15 2.2250004112720490e-02</internalNodes>
          <leafValues>
            2.2355486452579498e-01 -7.9981023073196411e-01</leafValues></_>
        <_>
          <internalNodes>
            0 -1 23 1.2532731052488089e-03</internalNodes>
          <leafValues>
            -4.2449119687080383e-01 2.9992771148681641e-01</leafValues></_>
        <_>
          <internalNodes>
            0 -1 18 -1.9106838852167130e-02</internalNodes>
          <leafValues>
            -8.4184443950653076e-01 1.7461459338665009e-01</leafValues></_></weakClassifiers></_>
    <!-- stage 6 -->
    <_>
      <maxWeakCount>11</maxWeakCount>
      <stageThreshold>-1.7376668453216553e+00</stageThreshold>
      <weakClassifiers>
        <_>
          <internalNodes>
            0 -1 97 -1.0872179642319679e-02</internalNodes>
          <leafValues>
            -1.9215686619281769e-01 -8.0233794450759888e-01</leafValues></_>
        <_>
          <internalNodes>
            0 -1 115 -1.2028127908706665e-02</internalNodes>
          <leafValues>
            3.0203384160995483e-01 -4.8845049738883972e-01</leafValues></_>
        <_>
          <internalNodes>
            0 -1 75 -1.1300434358417988e-02</internalNodes>
          <leafValues>
            5.7153105735778809e-01 -2.4639298021793365e-01</leafValues></_>
        <_>
          <internalNodes>
            0 -1 31 5.6115135550498962e-02</internalNodes>
          <leafValues>
            -2.2405657172203064e-01 5.1974129676818848e-01</leafValues></_>
        <_>
          <internalNodes>
            0 -1 29 4.2296074330806732e-02</internalNodes>
          <leafValues>
            -1.9946767389774323e-01 5.9106469154357910e-01</leafValues></_>
        <_>
          <internalNodes>
            0 -1 99 5.0410255789756775e-03</internalNodes>
          <leafValues>
            -2.5032049417495728e-01 5.1371264457702637e-01</leafValues></_>
        <_>
          <internalNodes>
            0 -1 142 1.9200480892322958e-04</internalNodes>
          <leafValues>
            1.8762114644050598e-01 -7.3001754283905029e-01</leafValues></_>
        <_>
          <internalNodes>
            0 -1 142 -1.5520244778599590e-04</internalNodes>
          <leafValues>
            -5.8828943967819214e-01 2.4041871726512909e-01</leafValues></_>
        <_>
          <internalNodes>
            0 -1 16 -4.8005749704316258e-04</internalNodes>
          <leafValues>
            2.6407158374786377e-01 -4.9696156382560730e-01</leafValues></_>
        <_>
          <internalNodes>
            0 -1 33 -4.5593208633363247e-03</internalNodes>
          <leafValues>
            2.4897137284278870e-01 -4.6652904152870178e-01</leafValues></_>
        <_>
          <internalNodes>
            0 -1 127 1.1993030086159706e-02</internalNodes>
          <leafValues>
            -4.0304851531982422e-01 3.4370362758636475e-01</leafValues></_></weakClassifiers></_>
    <!-- stage 7 -->
    <_>
      <maxWeakCount>8</maxWeakCount>
      <stageThreshold>-1.7902019023895264e+00</stageThreshold>
      <weakClassifiers>
        <_>
          <internalNodes>
            0 -1 27 -7.3210813105106354e-02</internalNodes>
          <leafValues>
            4.3999999761581421e-01 -7.4665474891662598e-01</leafValues></_>
        <_>
          <internalNodes>
            0 -1 56 1.9154112669639289e-04</internalNodes>
          <leafValues>
            6.3095822930335999e-02 -6.6380059719085693e-01</leafValues></_>
        <_>
          <internalNodes>
            0 -1 4 9.0515594929456711e-03</internalNodes>
          <leafValues>
            -3.9870473742485046e-01 3.3149915933609009e-01</leafValues></_>
        <_>
          <internalNodes>
            0 -1 126 3.8687256164848804e-03</internalNodes>
          <leafValues>
            -2.4562880396842957e-01 5.3256452083587646e-01</leafValues></_>
        <_>
          <internalNodes>
            0 -1 9 -1.7127666622400284e-02</internalNodes>
          <leafValues>
            2.3012986779212952e-01 -7.6683348417282104e-01</leafValues></_>
        <_>
          <internalNodes>
            0 -1 6 -9.4364993274211884e-03</internalNodes>
          <leafValues>
            -9.6394985914230347e-01 1.0113533586263657e-01</leafValues></_>
        <_>
          <internalNodes>
            0 -1 118 -1.0861638293135911e-04</internalNodes>
          <leafValues>
            -6.5194958448410034e-01 1.4921712875366211e-01</leafValues></_>
        <_>
          <internalNodes>
            0 -1 26 -1.4353760518133640e-02</internalNodes>
          <leafValues>
            5.8385151624679565e-01 -2.1589526534080505e-01</leafValues></_></weakClassifiers></_>
    <!-- stage 8 -->
    <_>
      <maxWeakCount>10</maxWeakCount>
      <stageThreshold>-1.4982701539993286e+00</stageThreshold>
      <weakClassifiers>
        <_>
          <internalNodes>
            0 -1 70 4.9934215843677521e-02</internalNodes>
          <leafValues>
            -7.6547843217849731e-01 9.2307694256305695e-02</leafValues></_>
        <_>
          <internalNodes>
            0 -1 91 -1.2453447561711073e-03</internalNodes>
          <leafValues>
            2.6815408468246460e-01 -4.7686761617660522e-01</leafValues></_>
        <_>
          <internalNodes>
            0 -1 61 7.3919775895774364e-03</internalNodes>
          <leafValues>
            -3.6927533149719238e-01 3.0026334524154663e-01</leafValues></_>
        <_>
          <internalNodes>
            0 -1 35 4.8265435907524079e-05</internalNodes>
          <leafValues>
            2.0076976716518402e-01 -6.2593197822570801e-01</leafValues></_>
        <_>
          <internalNodes>
            0 -1 133 -1.6411454416811466e-03</internalNodes>
          <leafValues>
            4.3837764859199524e-01 -2.5697621703147888e-01</leafValues></_>
        <_>
          <internalNodes>
            0 -1 119 5.4053664207458496e-03</internalNodes>
          <leafValues>
            -2.1979640424251556e-01 5.3729027509689331e-01</leafValues></_>
        <_>
          <internalNodes>
            0 -1 102 -1.4065360883250833e-03</internalNodes>
          <leafValues>
            -8.2993495464324951e-01 1.5820877254009247e-01</leafValues></_>
        <_>
          <internalNodes>
            0 -1 28 -8.0970599083229899e-04</internalNodes>
          <leafValues>
            4.5277759432792664e-01 -2.8505274653434753e-01</leafValues></_>
        <_>
          <internalNodes>
            0 -1 20 -1.6603011637926102e-02</internalNodes>
          <leafValues>
            -8.4484040737152100e-01 1.7098319530487061e-01</leafValues></_>
        <_>
          <internalNodes>
            0 -1 84 -2.1235446911305189e-03</internalNodes>
          <leafValues>
            5.0237786769866943e-01 -2.6863643527030945e-01</leafValues></_></weakClassifiers></_>
    <!-- stage 9 -->
    <_>
      <maxWeakCount>9</maxWeakCount>
      <stageThreshold>-1.4042752981185913e+00</stageThreshold>
      <weakClassifiers>
        <_>
          <internalNodes>
            0 -1 62 7.5012251734733582e-02</internalNodes>
          <leafValues>
            -7.3285841941833496e-01 2.6027396321296692e-01</leafValues></_>
        <_>
          <internalNodes>
            0 -1 129 5.8396970853209496e-03</internalNodes>
          <leafValues>
            -5.5294048786163330e-01 1.2773214280605316e-01</leafValues></_>
        <_>
          <internalNodes>
            0 -1 78 -6.1636412283405662e-04</internalNodes>
          <leafValues>
            -9.2932713031768799e-01 1.0726650804281235e-01</leafValues></_>
        <_>
          <internalNodes>
            0 -1 74 9.1698393225669861e-03</internalNodes>
          <leafValues>
            -1.5081259608268738e-01 7.2223293781280518e-01</leafValues></_>
        <_>
          <internalNodes>
            0 -1 77 -1.9951254129409790e-02</internalNodes>
          <leafValues>
            5.0189393758773804e-01 -2.2764395177364349e-01</leafValues></_>
        <_>
          <internalNodes>
            0 -1 25 8.2459701225161552e-03</internalNodes>
          <leafValues>
            -2.2554376721382141e-01 5.0491029024124146e-01</leafValues></_>
        <_>
          <internalNodes>
            0 -1 100 1.5013186493888497e-03</internalNodes>
          <leafValues>
            1.6072183847427368e-01 -6.8923413753509521e-01</leafValues></_>
        <_>
          <internalNodes>
            0 -1 73 -1.1250918731093407e-02</internalNodes>
          <leafValues>
            6.1659181118011475e-01 -1.8001887202262878e-01</leafValues></_>
        <_>
          <internalNodes>
            0 -1 87 -6.3687055371701717e-03</internalNodes>
          <leafValues>
            6.9810098409652710e-01 -1.6270004212856293e-01</leafValues></_></weakClassifiers></_>
    <!-- stage 10 -->
    <_>
      <maxWeakCount>12</maxWeakCount>
      <stageThreshold>-1.5927174091339111e+00</stageThreshold>
      <weakClassifiers>
        <_>
          <internalNodes>
            0 -1 69 8.6512580513954163e-02</internalNodes>
          <leafValues>
            -7.1527177095413208e-01 6.7567569017410278e-01</leafValues></_>
        <_>
          <internalNodes>
            0 -1 60 4.0999583899974823e-02</internalNodes>
          <leafValues>
            -4.2269387841224670e-01 4.0491876006126404e-01</leafValues></_>
        <_>
          <internalNodes>
            0 -1 92 1.7938255332410336e-03</internalNodes>
          <leafValues>
            -3.6279538273811340e-01 3.4934088587760925e-01</leafValues></_>
        <_>
          <internalNodes>
            0 -1 38 -6.2519852072000504e-03</internalNodes>
          <leafValues>
            1.6974054276943207e-01 -6.4268410205841064e-01</leafValues></_>
        <_>
          <internalNodes>
            0 -1 64 9.3612335622310638e-03</internalNodes>
          <leafValues>
            -2.2525775432586670e-01 5.0844687223434448e-01</leafValues></_>
        <_>
          <internalNodes>
            0 -1 40 1.4820858836174011e-02</internalNodes>
          <leafValues>
            -2.2786751389503479e-01 5.5750888586044312e-01</leafValues></_>
        <_>
          <internalNodes>
            0 -1 135 -8.8773795869201422e-04</internalNodes>
          <leafValues>
            3.9179477095603943e-01 -2.9938524961471558e-01</leafValues></_>
        <_>
          <internalNodes>
            0 -1 21 -4.9061877653002739e-03</internalNodes>
          <leafValues>
            4.5274606347084045e-01 -2.4300837516784668e-01</leafValues></_>
        <_>
          <internalNodes>
            0 -1 104 -2.9247101396322250e-02</internalNodes>
          <leafValues>
            -8.1904596090316772e-01 1.7487004399299622e-01</leafValues></_>
        <_>
          <internalNodes>
            0 -1 52 -7.0153526961803436e-02</internalNodes>
          <leafValues>
            7.3856788873672485e-01 -1.9761683046817780e-01</leafValues></_>
        <_>
          <internalNodes>
            0 -1 138 -1.5705265104770660e-03</internalNodes>
          <leafValues>
            -7.6167780160903931e-01 1.7046558856964111e-01</leafValues></_>
        <_>
          <internalNodes>
            0 -1 89 -9.8685268312692642e-04</internalNodes>
          <leafValues>
            -9.7919487953186035e-01 9.8888292908668518e-02</leafValues></_></weakClassifiers></_>
    <!-- stage 11 -->
    <_>
      <maxWeakCount>11</maxWeakCount>
      <stageThreshold>-1.5873939990997314e+00</stageThreshold>
      <weakClassifiers>
        <_>
          <internalNodes>
            0 -1 71 3.5894855856895447e-02</internalNodes>
          <leafValues>
            -7.2072851657867432e-01 6.2790697813034058e-01</leafValues></_>
        <_>
          <internalNodes>
            0 -1 34 2.9372364224400371e-05</internalNodes>
          <leafValues>
            -5.2862221002578735e-01 1.8020087480545044e-01</leafValues></_>
        <_>
          <internalNodes>
            0 -1 93 2.1507826168090105e-03</internalNodes>
          <leafValues>
            -4.1828000545501709e-01 2.4274595081806183e-01</leafValues></_>
        <_>
          <internalNodes>
            0 -1 30 -2.1204194054007530e-03</internalNodes>
          <leafValues>
            4.5280560851097107e-01 -2.5265765190124512e-01</leafValues></_>
        <_>
          <internalNodes>
            0 -1 55 2.7773352339863777e-03</internalNodes>
          <leafValues>
            -1.9756513833999634e-01 5.6915295124053955e-01</leafValues></_>
        <_>
          <internalNodes>
            0 -1 94 -9.0460345381870866e-04</internalNodes>
          <leafValues>
            -6.3136714696884155e-01 2.5046405196189880e-01</leafValues></_>
        <_>
          <internalNodes>
            0 -1 131 -5.7820561341941357e-03</internalNodes>
          <leafValues>
            5.7461392879486084e-01 -2.2257366776466370e-01</leafValues></_>
        <_>
          <internalNodes>
            0 -1 98 -7.0300977677106857e-03</internalNodes>
          <leafValues>
            7.9255706071853638e-01 -1.4672374725341797e-01</leafValues></_>
        <_>
          <internalNodes>
            0 -1 12 -1.4705727808177471e-03</internalNodes>
          <leafValues>
            -8.0587059259414673e-01 1.8849657475948334e-01</leafValues></_>
        <_>
          <internalNodes>
            0 -1 96 1.5474917599931359e-03</internalNodes>
          <leafValues>
            8.5822634398937225e-02 -9.2961603403091431e-01</leafValues></_>
        <_>
          <internalNodes>
            0 -1 137 1.7547216266393661e-03</internalNodes>
          <leafValues>
            -2.8605228662490845e-01 4.0415519475936890e-01</leafValues></_></weakClassifiers></_>
    <!-- stage 12 -->
    <_>
      <maxWeakCount>11</maxWeakCount>
      <stageThreshold>-1.3624757528305054e+00</stageThreshold>
      <weakClassifiers>
        <_>
          <internalNodes>
            0 -1 76 1.7000839114189148e-02</internalNodes>
          <leafValues>
            -7.3485511541366577e-01 5.7894736528396606e-01</leafValues></_>
        <_>
          <internalNodes>
            0 -1 8 -2.7835087850689888e-02</internalNodes>
          <leafValues>
            1.4675231277942657e-01 -6.2512159347534180e-01</leafValues></_>
        <_>
          <internalNodes>
            0 -1 111 5.5225212126970291e-03</internalNodes>
          <leafValues>
            -2.3438689112663269e-01 6.1874693632125854e-01</leafValues></_>
        <_>
          <internalNodes>
            0 -1 103 -1.1265771463513374e-03</internalNodes>
          <leafValues>
            4.0240946412086487e-01 -3.3568003773689270e-01</leafValues></_>
        <_>
          <internalNodes>
            0 -1 51 3.6230793921276927e-04</internalNodes>
          <leafValues>
            2.5130355358123779e-01 -5.0796651840209961e-01</leafValues></_>
        <_>
          <internalNodes>
            0 -1 134 -7.4602302629500628e-04</internalNodes>
          <leafValues>
            5.9576106071472168e-01 -1.7885558307170868e-01</leafValues></_>
        <_>
          <internalNodes>
            0 -1 10 3.5102344118058681e-03</internalNodes>
          <leafValues>
            -2.6459541916847229e-01 4.7206383943557739e-01</leafValues></_>
        <_>
          <internalNodes>
            0 -1 36 1.6572972526773810e-03</internalNodes>
          <leafValues>
            -3.8595470786094666e-01 3.4966489672660828e-01</leafValues></_>
        <_>
          <internalNodes>
            0 -1 106 -1.5848753973841667e-02</internalNodes>
          <leafValues>
            7.9606986045837402e-01 -1.6362629830837250e-01</leafValues></_>
        <_>
          <internalNodes>
            0 -1 67 -9.7248554229736328e-03</internalNodes>
          <leafValues>
            4.4380861520767212e-01 -3.1088513135910034e-01</leafValues></_>
        <_>
          <internalNodes>
            0 -1 14 -5.6843496859073639e-03</internalNodes>
          <leafValues>
            -9.2581647634506226e-01 1.5104871988296509e-01</leafValues></_></weakClassifiers></_>
    <!-- stage 13 -->
    <_>
      <maxWeakCount>10</maxWeakCount>
      <stageThreshold>-1.6952723264694214e+00</stageThreshold>
      <weakClassifiers>
        <_>
          <internalNodes>
            0 -1 83 1.3290215283632278e-02</internalNodes>
          <leafValues>
            -7.6950997114181519e-01 4.6808511018753052e-01</leafValues></_>
        <_>
          <internalNodes>
            0 -1 65 -2.0468300208449364e-03</internalNodes>
          <leafValues>
            3.6496338248252869e-01 -4.5699822902679443e-01</leafValues></_>
        <_>
          <internalNodes>
            0 -1 87 7.0985998027026653e-03</internalNodes>
          <leafValues>
            -2.4979294836521149e-01 6.1969017982482910e-01</leafValues></_>
        <_>
          <internalNodes>
            0 -1 3 1.7747323960065842e-02</internalNodes>
          <leafValues>
            1.8826723098754883e-01 -8.0269706249237061e-01</leafValues></_>
        <_>
          <internalNodes>
            0 -1 79 1.5080928278621286e-05</internalNodes>
          <leafValues>
            -4.0888112783432007e-01 3.6427822709083557e-01</leafValues></_>
        <_>
          <internalNodes>
            0 -1 85 -1.0056251659989357e-02</internalNodes>
          <leafValues>
            5.0209051370620728e-01 -3.0803516507148743e-01</leafValues></_>
        <_>
          <internalNodes>
            0 -1 125 6.9038814399391413e-04</internalNodes>
          <leafValues>
            -2.0934130251407623e-01 8.2345771789550781e-01</leafValues></_>
        <_>
          <internalNodes>
            0 -1 139 9.6126168500632048e-05</internalNodes>
          <leafValues>
            3.0924221873283386e-01 -5.2206766605377197e-01</leafValues></_>
        <_>
          <internalNodes>
            0 -1 101 3.5122698172926903e-03</internalNodes>
          <leafValues>
            -3.0162528157234192e-01 5.2937132120132446e-01</leafValues></_>
        <_>
          <internalNodes>
            0 -1 120 -2.6817102916538715e-03</internalNodes>
          <leafValues>
            7.7950859069824219e-01 -2.4057286977767944e-01</leafValues></_></weakClassifiers></_>
    <!-- stage 14 -->
    <_>
      <maxWeakCount>7</maxWeakCount>
      <stageThreshold>-1.7876204252243042e+00</stageThreshold>
      <weakClassifiers>
        <_>
          <internalNodes>
            0 -1 72 1.5958970785140991e-01</internalNodes>
          <leafValues>
            -7.5746923685073853e-01 1.</leafValues></_>
        <_>
          <internalNodes>
            0 -1 132 -1.7370304558426142e-03</internalNodes>
          <leafValues>
            5.5929869413375854e-01 -4.9260878562927246e-01</leafValues></_>
        <_>
          <internalNodes>
            0 -1 88 -3.2089694868773222e-03</internalNodes>
          <leafValues>
            -7.0246714353561401e-01 2.6897394657135010e-01</leafValues></_>
        <_>
          <internalNodes>
            0 -1 122 -9.3854693695902824e-03</internalNodes>
          <leafValues>
            6.8449026346206665e-01 -3.2414284348487854e-01</leafValues></_>
        <_>
          <internalNodes>
            0 -1 1 -5.1919487304985523e-04</internalNodes>
          <leafValues>
            -6.1162763833999634e-01 3.8715136051177979e-01</leafValues></_>
        <_>
          <internalNodes>
            0 -1 2 -1.2684227898716927e-02</internalNodes>
          <leafValues>
            5.5410397052764893e-01 -4.1307157278060913e-01</leafValues></_>
        <_>
          <internalNodes>
            0 -1 66 6.5784528851509094e-03</internalNodes>
          <leafValues>
            4.6839123964309692e-01 -4.5645326375961304e-01</leafValues></_></weakClassifiers></_>
    <!-- stage 15 -->
    <_>
      <maxWeakCount>7</maxWeakCount>
      <stageThreshold>-1.4944050312042236e+00</stageThreshold>
      <weakClassifiers>
        <_>
          <internalNodes>
            0 -1 41 -6.8544456735253334e-03</internalNodes>
          <leafValues>
            1. -8.1159418821334839e-01</leafValues></_>
        <_>
          <internalNodes>
            0 -1 114 5.5136164883151650e-04</internalNodes>
          <leafValues>
            -6.6849935054779053e-01 5.3149974346160889e-01</leafValues></_>
        <_>
          <internalNodes>
            0 -1 112 -1.8540860037319362e-04</internalNodes>
          <leafValues>
            6.9196015596389771e-01 -4.4279262423515320e-01</leafValues></_>
        <_>
          <internalNodes>
            0 -1 116 -1.2687334674410522e-04</internalNodes>
          <leafValues>
            -4.3790841102600098e-01 6.9083845615386963e-01</leafValues></_>
        <_>
          <internalNodes>
            0 -1 123 -1.6119005158543587e-03</internalNodes>
          <leafValues>
            8.8573855161666870e-01 -3.0621284246444702e-01</leafValues></_>
        <_>
          <internalNodes>
            0 -1 110 3.1467345252167434e-05</internalNodes>
          <leafValues>
            -3.0083754658699036e-01 7.8472268581390381e-01</leafValues></_>
        <_>
          <internalNodes>
            0 -1 44 -1.9535247236490250e-02</internalNodes>
          <leafValues>
            8.4330224990844727e-01 -3.3815422654151917e-01</leafValues></_></weakClassifiers></_></stages>
  <features>
    <_>
      <rects>
        <_>
          0 1 1 22 -1.</_>
        <_>
          0 12 1 11 2.</_></rects>
      <tilted>0</tilted></_>
    <_>
      <rects>
        <_>
          0 2 2 4 -1.</_>
        <_>
          0 2 1 2 2.</_>
        <_>
          1 4 1 2 2.</_></rects>
      <tilted>0</tilted></_>
    <_>
      <rects>
        <_>
          0 3 12 9 -1.</_>
        <_>
          0 6 12 3 3.</_></rects>
      <tilted>0</tilted></_>
    <_>
      <rects>
        <_>
          0 10 2 14 -1.</_>
        <_>
          0 17 2 7 2.</_></rects>
      <tilted>0</tilted></_>
    <_>
      <rects>
        <_>
          0 10 12 3 -1.</_>
        <_>
          4 10 4 3 3.</_></rects>
      <tilted>0</tilted></_>
    <_>
      <rects>
        <_>
          0 12 10 8 -1.</_>
        <_>
          0 16 10 4 2.</_></rects>
      <tilted>0</tilted></_>
    <_>
      <rects>
        <_>
          0 13 2 9 -1.</_>
        <_>
          0 16 2 3 3.</_></rects>
      <tilted>0</tilted></_>
    <_>
      <rects>
        <_>
          0 14 4 6 -1.</_>
        <_>
          2 14 2 6 2.</_></rects>
      <tilted>0</tilted></_>
    <_>
      <rects>
        <_>
          0 14 8 8 -1.</_>
        <_>
          0 18 8 4 2.</_></rects>
      <tilted>0</tilted></_>
    <_>
      <rects>
        <_>
          0 14 14 6 -1.</_>
        <_>
          0 17 14 3 2.</_></rects>
      <tilted>0</tilted></_>
    <_>
      <rects>
        <_>
          0 16 8 8 -1.</_>
        <_>
          0 16 4 4 2.</_>
        <_>
          4 20 4 4 2.</_></rects>
      <tilted>0</tilted></_>
    <_>
      <rects>
        <_>
          0 16 24 4 -1.</_>
        <_>
          12 16 12 4 2.</_></rects>
      <tilted>0</tilted></_>
    <_>
      <rects>
        <_>
          0 17 2 2 -1.</_>
        <_>
          0 18 2 1 2.</_></rects>
      <tilted>0</tilted></_>
    <_>
      <rects>
        <_>
          0 17 22 2 -1.</_>
        <_>
          11 17 11 2 2.</_></rects>
      <tilted>0</tilted></_>
    <_>
      <rects>
        <_>
          0 18 2 4 -1.</_>
        <_>
          0 20 2 2 2.</_></rects>
      <tilted>0</tilted></_>
    <_>
      <rects>
        <_>
          0 18 22 3 -1.</_>
        <_>
          11 18 11 3 2.</_></rects>
      <tilted>0</tilted></_>
    <_>
      <rects>
        <_>
          0 19 2 2 -1.</_>
        <_>
          1 19 1 2 2.</_></rects>
      <tilted>0</tilted></_>
    <_>
      <rects>
        <_>
          0 19 2 5 -1.</_>
        <_>
          1 19 1 5 2.</_></rects>
      <tilted>0</tilted></_>
    <_>
      <rects>
        <_>
          0 19 24 2 -1.</_>
        <_>
          12 19 12 2 2.</_></rects>
      <tilted>0</tilted></_>
    <_>
      <rects>
        <_>
          0 20 4 1 -1.</_>
        <_>
          2 20 2 1 2.</_></rects>
      <tilted>0</tilted></_>
    <_>
      <rects>
        <_>
          1 0 1 24 -1.</_>
        <_>
          1 12 1 12 2.</_></rects>
      <tilted>0</tilted></_>
    <_>
      <rects>
        <_>
          1 8 8 1 -1.</_>
        <_>
          5 8 4 1 2.</_></rects>
      <tilted>0</tilted></_>
    <_>
      <rects>
        <_>
          1 12 4 8 -1.</_>
        <_>
          1 12 2 4 2.</_>
        <_>
          3 16 2 4 2.</_></rects>
      <tilted>0</tilted></_>
    <_>
      <rects>
        <_>
          1 12 6 1 -1.</_>
        <_>
          4 12 3 1 2.</_></rects>
      <tilted>0</tilted></_>
    <_>
      <rects>
        <_>
          1 18 8 6 -1.</_>
        <_>
          1 20 8 2 3.</_></rects>
      <tilted>0</tilted></_>
    <_>
      <rects>
        <_>
          2 2 16 3 -1.</_>
        <_>
          2 3 16 1 3.</_></rects>
      <tilted>0</tilted></_>
    <_>
      <rects>
        <_>
          2 3 6 8 -1.</_>
        <_>
          2 3 3 4 2.</_>
        <_>
          5 7 3 4 2.</_></rects>
      <tilted>0</tilted></_>
    <_>
      <rects>
        <_>
          2 5 12 4 -1.</_>
        <_>
          6 5 4 4 3.</_></rects>
      <tilted>0</tilted></_>
    <_>
      <rects>
        <_>
          2 7 4 2 -1.</_>
        <_>
          2 7 2 1 2.</_>
        <_>
          4 8 2 1 2.</_></rects>
      <tilted>0</tilted></_>
    <_>
      <rects>
        <_>
          2 8 18 6 -1.</_>
        <_>
          2 10 18 2 3.</_></rects>
      <tilted>0</tilted></_>
    <_>
      <rects>
        <_>
          2 9 7 3 -1.</_>
        <_>
          2 10 7 1 3.</_></rects>
      <tilted>0</tilted></_>
    <_>
      <rects>
        <_>
          2 10 18 6 -1.</_>
        <_>
          2 12 18 2 3.</_></rects>
      <tilted>0</tilted></_>
    <_>
      <rects>
        <_>
          2 12 19 10 -1.</_>
        <_>
          2 17 19 5 2.</_></rects>
      <tilted>0</tilted></_>
    <_>
      <rects>
        <_>
          2 16 12 8 -1.</_>
        <_>
          6 16 4 8 3.</_></rects>
      <tilted>0</tilted></_>
    <_>
      <rects>
        <_>
          2 22 2 2 -1.</_>
        <_>
          2 22 1 1 2.</_>
        <_>
          3 23 1 1 2.</_></rects>
      <tilted>0</tilted></_>
    <_>
      <rects>
        <_>
          2 23 2 1 -1.</_>
        <_>
          3 23 1 1 2.</_></rects>
      <tilted>0</tilted></_>
    <_>
      <rects>
        <_>
          3 2 12 1 -1.</_>
        <_>
          9 2 6 1 2.</_></rects>
      <tilted>0</tilted></_>
    <_>
      <rects>
        <_>
          3 2 21 6 -1.</_>
        <_>
          3 4 21 2 3.</_></rects>
      <tilted>0</tilted></_>
    <_>
      <rects>
        <_>
          3 6 2 18 -1.</_>
        <_>
          3 15 2 9 2.</_></rects>
      <tilted>0</tilted></_>
    <_>
      <rects>
        <_>
          3 6 6 2 -1.</_>
        <_>
          6 6 3 2 2.</_></rects>
      <tilted>0</tilted></_>
    <_>
      <rects>
        <_>
          3 6 9 8 -1.</_>
        <_>
          6 6 3 8 3.</_></rects>
      <tilted>0</tilted></_>
    <_>
      <rects>
        <_>
          3 12 12 6 -1.</_>
        <_>
          3 12 6 3 2.</_>
        <_>
          9 15 6 3 2.</_></rects>
      <tilted>0</tilted></_>
    <_>
      <rects>
        <_>
          3 13 18 10 -1.</_>
        <_>
          3 18 18 5 2.</_></rects>
      <tilted>0</tilted></_>
    <_>
      <rects>
        <_>
          3 18 15 6 -1.</_>
        <_>
          3 21 15 3 2.</_></rects>
      <tilted>0</tilted></_>
    <_>
      <rects>
        <_>
          4 0 12 18 -1.</_>
        <_>
          4 0 6 9 2.</_>
        <_>
          10 9 6 9 2.</_></rects>
      <tilted>0</tilted></_>
    <_>
      <rects>
        <_>
          4 5 17 18 -1.</_>
        <_>
          4 11 17 6 3.</_></rects>
      <tilted>0</tilted></_>
    <_>
      <rects>
        <_>
          4 7 6 3 -1.</_>
        <_>
          7 7 3 3 2.</_></rects>
      <tilted>0</tilted></_>
    <_>
      <rects>
        <_>
          4 9 15 9 -1.</_>
        <_>
          4 12 15 3 3.</_></rects>
      <tilted>0</tilted></_>
    <_>
      <rects>
        <_>
          4 12 1 8 -1.</_>
        <_>
          4 16 1 4 2.</_></rects>
      <tilted>0</tilted></_>
    <_>
      <rects>
        <_>
          4 12 16 12 -1.</_>
        <_>
          4 18 16 6 2.</_></rects>
      <tilted>0</tilted></_>
    <_>
      <rects>
        <_>
          4 15 12 9 -1.</_>
        <_>
          10 15 6 9 2.</_></rects>
      <tilted>0</tilted></_>
    <_>
      <rects>
        <_>
          4 23 6 1 -1.</_>
        <_>
          6 23 2 1 3.</_></rects>
      <tilted>0</tilted></_>
    <_>
      <rects>
        <_>
          5 0 12 9 -1.</_>
        <_>
          5 3 12 3 3.</_></rects>
      <tilted>0</tilted></_>
    <_>
      <rects>
        <_>
          5 8 15 6 -1.</_>
        <_>
          5 10 15 2 3.</_></rects>
      <tilted>0</tilted></_>
    <_>
      <rects>
        <_>
          5 14 13 6 -1.</_>
        <_>
          5 17 13 3 2.</_></rects>
      <tilted>0</tilted></_>
    <_>
      <rects>
        <_>
          5 16 8 2 -1.</_>
        <_>
          5 16 4 1 2.</_>
        <_>
          9 17 4 1 2.</_></rects>
      <tilted>0</tilted></_>
    <_>
      <rects>
        <_>
          5 23 8 1 -1.</_>
        <_>
          9 23 4 1 2.</_></rects>
      <tilted>0</tilted></_>
    <_>
      <rects>
        <_>
          6 1 9 12 -1.</_>
        <_>
          6 5 9 4 3.</_></rects>
      <tilted>0</tilted></_>
    <_>
      <rects>
        <_>
          6 2 11 8 -1.</_>
        <_>
          6 6 11 4 2.</_></rects>
      <tilted>0</tilted></_>
    <_>
      <rects>
        <_>
          6 3 12 6 -1.</_>
        <_>
          12 3 6 6 2.</_></rects>
      <tilted>0</tilted></_>
    <_>
      <rects>
        <_>
          6 4 18 2 -1.</_>
        <_>
          12 4 6 2 3.</_></rects>
      <tilted>0</tilted></_>
    <_>
      <rects>
        <_>
          6 4 18 4 -1.</_>
        <_>
          6 4 9 2 2.</_>
        <_>
          15 6 9 2 2.</_></rects>
      <tilted>0</tilted></_>
    <_>
      <rects>
        <_>
          6 6 5 8 -1.</_>
        <_>
          6 10 5 4 2.</_></rects>
      <tilted>0</tilted></_>
    <_>
      <rects>
        <_>
          6 6 18 1 -1.</_>
        <_>
          12 6 6 1 3.</_></rects>
      <tilted>0</tilted></_>
    <_>
      <rects>
        <_>
          6 9 18 1 -1.</_>
        <_>
          15 9 9 1 2.</_></rects>
      <tilted>0</tilted></_>
    <_>
      <rects>
        <_>
          6 17 6 2 -1.</_>
        <_>
          8 17 2 2 3.</_></rects>
      <tilted>0</tilted></_>
    <_>
      <rects>
        <_>
          6 17 12 4 -1.</_>
        <_>
          12 17 6 4 2.</_></rects>
      <tilted>0</tilted></_>
    <_>
      <rects>
        <_>
          6 18 7 4 -1.</_>
        <_>
          6 20 7 2 2.</_></rects>
      <tilted>0</tilted></_>
    <_>
      <rects>
        <_>
          6 22 2 2 -1.</_>
        <_>
          6 23 2 1 2.</_></rects>
      <tilted>0</tilted></_>
    <_>
      <rects>
        <_>
          7 0 11 6 -1.</_>
        <_>
          7 2 11 2 3.</_></rects>
      <tilted>0</tilted></_>
    <_>
      <rects>
        <_>
          7 3 8 6 -1.</_>
        <_>
          11 3 4 6 2.</_></rects>
      <tilted>0</tilted></_>
    <_>
      <rects>
        <_>
          7 6 2 8 -1.</_>
        <_>
          7 10 2 4 2.</_></rects>
      <tilted>0</tilted></_>
    <_>
      <rects>
        <_>
          7 8 14 9 -1.</_>
        <_>
          7 11 14 3 3.</_></rects>
      <tilted>0</tilted></_>
    <_>
      <rects>
        <_>
          7 15 14 3 -1.</_>
        <_>
          7 16 14 1 3.</_></rects>
      <tilted>0</tilted></_>
    <_>
      <rects>
        <_>
          7 19 9 3 -1.</_>
        <_>
          7 20 9 1 3.</_></rects>
      <tilted>0</tilted></_>
    <_>
      <rects>
        <_>
          7 19 11 3 -1.</_>
        <_>
          7 20 11 1 3.</_></rects>
      <tilted>0</tilted></_>
    <_>
      <rects>
        <_>
          8 6 1 8 -1.</_>
        <_>
          8 10 1 4 2.</_></rects>
      <tilted>0</tilted></_>
    <_>
      <rects>
        <_>
          8 8 12 6 -1.</_>
        <_>
          8 10 12 2 3.</_></rects>
      <tilted>0</tilted></_>
    <_>
      <rects>
        <_>
          8 12 2 1 -1.</_>
        <_>
          9 12 1 1 2.</_></rects>
      <tilted>0</tilted></_>
    <_>
      <rects>
        <_>
          8 13 8 2 -1.</_>
        <_>
          8 13 4 1 2.</_>
        <_>
          12 14 4 1 2.</_></rects>
      <tilted>0</tilted></_>
    <_>
      <rects>
        <_>
          8 18 4 3 -1.</_>
        <_>
          8 19 4 1 3.</_></rects>
      <tilted>0</tilted></_>
    <_>
      <rects>
        <_>
          9 0 4 6 -1.</_>
        <_>
          9 2 4 2 3.</_></rects>
      <tilted>0</tilted></_>
    <_>
      <rects>
        <_>
          9 0 7 6 -1.</_>
        <_>
          9 2 7 2 3.</_></rects>
      <tilted>0</tilted></_>
    <_>
      <rects>
        <_>
          9 8 1 9 -1.</_>
        <_>
          9 11 1 3 3.</_></rects>
      <tilted>0</tilted></_>
    <_>
      <rects>
        <_>
          9 10 13 2 -1.</_>
        <_>
          9 11 13 1 2.</_></rects>
      <tilted>0</tilted></_>
    <_>
      <rects>
        <_>
          9 18 15 2 -1.</_>
        <_>
          14 18 5 2 3.</_></rects>
      <tilted>0</tilted></_>
    <_>
      <rects>
        <_>
          9 19 4 4 -1.</_>
        <_>
          9 21 4 2 2.</_></rects>
      <tilted>0</tilted></_>
    <_>
      <rects>
        <_>
          10 0 2 6 -1.</_>
        <_>
          10 2 2 2 3.</_></rects>
      <tilted>0</tilted></_>
    <_>
      <rects>
        <_>
          10 5 6 2 -1.</_>
        <_>
          12 5 2 2 3.</_></rects>
      <tilted>0</tilted></_>
    <_>
      <rects>
        <_>
          10 13 2 2 -1.</_>
        <_>
          11 13 1 2 2.</_></rects>
      <tilted>0</tilted></_>
    <_>
      <rects>
        <_>
          10 18 2 3 -1.</_>
        <_>
          10 19 2 1 3.</_></rects>
      <tilted>0</tilted></_>
    <_>
      <rects>
        <_>
          10 19 1 4 -1.</_>
        <_>
          10 21 1 2 2.</_></rects>
      <tilted>0</tilted></_>
    <_>
      <rects>
        <_>
          10 22 9 2 -1.</_>
        <_>
          10 23 9 1 2.</_></rects>
      <tilted>0</tilted></_>
    <_>
      <rects>
        <_>
          10 23 14 1 -1.</_>
        <_>
          17 23 7 1 2.</_></rects>
      <tilted>0</tilted></_>
    <_>
      <rects>
        <_>
          11 3 3 3 -1.</_>
        <_>
          12 3 1 3 3.</_></rects>
      <tilted>0</tilted></_>
    <_>
      <rects>
        <_>
          11 11 10 4 -1.</_>
        <_>
          11 13 10 2 2.</_></rects>
      <tilted>0</tilted></_>
    <_>
      <rects>
        <_>
          11 19 2 4 -1.</_>
        <_>
          12 19 1 4 2.</_></rects>
      <tilted>0</tilted></_>
    <_>
      <rects>
        <_>
          11 19 7 4 -1.</_>
        <_>
          11 21 7 2 2.</_></rects>
      <tilted>0</tilted></_>
    <_>
      <rects>
        <_>
          11 21 7 2 -1.</_>
        <_>
          11 22 7 1 2.</_></rects>
      <tilted>0</tilted></_>
    <_>
      <rects>
        <_>
          11 22 10 2 -1.</_>
        <_>
          11 23 10 1 2.</_></rects>
      <tilted>0</tilted></_>
    <_>
      <rects>
        <_>
          12 3 2 8 -1.</_>
        <_>
          12 3 1 4 2.</_>
        <_>
          13 7 1 4 2.</_></rects>
      <tilted>0</tilted></_>
    <_>
      <rects>
        <_>
          12 7 8 2 -1.</_>
        <_>
          16 7 4 2 2.</_></rects>
      <tilted>0</tilted></_>
    <_>
      <rects>
        <_>
          12 10 3 3 -1.</_>
        <_>
          13 10 1 3 3.</_></rects>
      <tilted>0</tilted></_>
    <_>
      <rects>
        <_>
          12 10 4 12 -1.</_>
        <_>
          12 10 2 6 2.</_>
        <_>
          14 16 2 6 2.</_></rects>
      <tilted>0</tilted></_>
    <_>
      <rects>
        <_>
          12 11 9 10 -1.</_>
        <_>
          15 11 3 10 3.</_></rects>
      <tilted>0</tilted></_>
    <_>
      <rects>
        <_>
          12 13 5 6 -1.</_>
        <_>
          12 16 5 3 2.</_></rects>
      <tilted>0</tilted></_>
    <_>
      <rects>
        <_>
          13 0 5 6 -1.</_>
        <_>
          13 2 5 2 3.</_></rects>
      <tilted>0</tilted></_>
    <_>
      <rects>
        <_>
          13 12 9 5 -1.</_>
        <_>
          16 12 3 5 3.</_></rects>
      <tilted>0</tilted></_>
    <_>
      <rects>
        <_>
          13 13 6 10 -1.</_>
        <_>
          13 18 6 5 2.</_></rects>
      <tilted>0</tilted></_>
    <_>
      <rects>
        <_>
          13 14 9 8 -1.</_>
        <_>
          13 18 9 4 2.</_></rects>
      <tilted>0</tilted></_>
    <_>
      <rects>
        <_>
          13 16 3 1 -1.</_>
        <_>
          14 16 1 1 3.</_></rects>
      <tilted>0</tilted></_>
    <_>
      <rects>
        <_>
          14 11 4 3 -1.</_>
        <_>
          14 12 4 1 3.</_></rects>
      <tilted>0</tilted></_>
    <_>
      <rects>
        <_>
          14 23 6 1 -1.</_>
        <_>
          16 23 2 1 3.</_></rects>
      <tilted>0</tilted></_>
    <_>
      <rects>
        <_>
          15 1 8 8 -1.</_>
        <_>
          15 1 4 4 2.</_>
        <_>
          19 5 4 4 2.</_></rects>
      <tilted>0</tilted></_>
    <_>
      <rects>
        <_>
          15 2 4 4 -1.</_>
        <_>
          15 2 2 2 2.</_>
        <_>
          17 4 2 2 2.</_></rects>
      <tilted>0</tilted></_>
    <_>
      <rects>
        <_>
          15 3 8 2 -1.</_>
        <_>
          19 3 4 2 2.</_></rects>
      <tilted>0</tilted></_>
    <_>
      <rects>
        <_>
          15 20 2 1 -1.</_>
        <_>
          16 20 1 1 2.</_></rects>
      <tilted>0</tilted></_>
    <_>
      <rects>
        <_>
          15 22 8 2 -1.</_>
        <_>
          19 22 4 2 2.</_></rects>
      <tilted>0</tilted></_>
    <_>
      <rects>
        <_>
          15 23 2 1 -1.</_>
        <_>
          16 23 1 1 2.</_></rects>
      <tilted>0</tilted></_>
    <_>
      <rects>
        <_>
          16 5 6 2 -1.</_>
        <_>
          18 5 2 2 3.</_></rects>
      <tilted>0</tilted></_>
    <_>
      <rects>
        <_>
          16 9 6 1 -1.</_>
        <_>
          18 9 2 1 3.</_></rects>
      <tilted>0</tilted></_>
    <_>
      <rects>
        <_>
          16 12 8 12 -1.</_>
        <_>
          16 12 4 6 2.</_>
        <_>
          20 18 4 6 2.</_></rects>
      <tilted>0</tilted></_>
    <_>
      <rects>
        <_>
          17 0 6 8 -1.</_>
        <_>
          19 0 2 8 3.</_></rects>
      <tilted>0</tilted></_>
    <_>
      <rects>
        <_>
          17 5 3 6 -1.</_>
        <_>
          18 5 1 6 3.</_></rects>
      <tilted>0</tilted></_>
    <_>
      <rects>
        <_>
          17 5 4 2 -1.</_>
        <_>
          19 5 2 2 2.</_></rects>
      <tilted>0</tilted></_>
    <_>
      <rects>
        <_>
          18 8 1 2 -1.</_>
        <_>
          18 9 1 1 2.</_></rects>
      <tilted>0</tilted></_>
    <_>
      <rects>
        <_>
          18 8 3 6 -1.</_>
        <_>
          19 8 1 6 3.</_></rects>
      <tilted>0</tilted></_>
    <_>
      <rects>
        <_>
          18 8 2 12 -1.</_>
        <_>
          18 12 2 4 3.</_></rects>
      <tilted>0</tilted></_>
    <_>
      <rects>
        <_>
          18 11 6 10 -1.</_>
        <_>
          18 11 3 5 2.</_>
        <_>
          21 16 3 5 2.</_></rects>
      <tilted>0</tilted></_>
    <_>
      <rects>
        <_>
          18 20 6 4 -1.</_>
        <_>
          21 20 3 4 2.</_></rects>
      <tilted>0</tilted></_>
    <_>
      <rects>
        <_>
          19 2 5 22 -1.</_>
        <_>
          19 13 5 11 2.</_></rects>
      <tilted>0</tilted></_>
    <_>
      <rects>
        <_>
          19 4 3 7 -1.</_>
        <_>
          20 4 1 7 3.</_></rects>
      <tilted>0</tilted></_>
    <_>
      <rects>
        <_>
          19 7 2 4 -1.</_>
        <_>
          20 7 1 4 2.</_></rects>
      <tilted>0</tilted></_>
    <_>
      <rects>
        <_>
          20 7 2 6 -1.</_>
        <_>
          20 7 1 3 2.</_>
        <_>
          21 10 1 3 2.</_></rects>
      <tilted>0</tilted></_>
    <_>
      <rects>
        <_>
          20 7 4 2 -1.</_>
        <_>
          20 7 2 1 2.</_>
        <_>
          22 8 2 1 2.</_></rects>
      <tilted>0</tilted></_>
    <_>
      <rects>
        <_>
          20 12 2 4 -1.</_>
        <_>
          20 14 2 2 2.</_></rects>
      <tilted>0</tilted></_>
    <_>
      <rects>
        <_>
          20 12 4 6 -1.</_>
        <_>
          22 12 2 6 2.</_></rects>
      <tilted>0</tilted></_>
    <_>
      <rects>
        <_>
          22 12 2 6 -1.</_>
        <_>
          23 12 1 6 2.</_></rects>
      <tilted>0</tilted></_>
    <_>
      <rects>
        <_>
          22 17 2 4 -1.</_>
        <_>
          22 19 2 2 2.</_></rects>
      <tilted>0</tilted></_>
    <_>
      <rects>
        <_>
          22 21 2 2 -1.</_>
        <_>
          22 21 1 1 2.</_>
        <_>
          23 22 1 1 2.</_></rects>
      <tilted>0</tilted></_>
    <_>
      <rects>
        <_>
          22 22 1 2 -1.</_>
        <_>
          22 23 1 1 2.</_></rects>
      <tilted>0</tilted></_>
    <_>
      <rects>
        <_>
          23 12 1 10 -1.</_>
        <_>
          23 17 1 5 2.</_></rects>
      <tilted>0</tilted></_>
    <_>
      <rects>
        <_>
          23 17 1 3 -1.</_>
        <_>
          23 18 1 1 3.</_></rects>
      <tilted>0</tilted></_></features></cascade>
</opencv_storage>
